svm_type c_svc
kernel_type rbf
gamma 0.001001
nr_class 2
total_sv 100
rho 2.65241e-06
label 1 0
probA 0.404834
probB -0.0830211
nr_sv 50 50
SV
1 1:0.0011917483 2:0.00015541357 3:8.1371996e-05 4:0.00012986001 5:1.5940414e-05 6:2.7836044e-05 7:6.4856489e-05 8:0.0015678508 9:0.00025347594 10:0.00087926362 11:0.00057613029 12:0.00013506177 13:0.00011269034 14:0.00034184562 15:3.5373851e-05 16:4.6928499e-06 17:0.00034294833 18:0.00059672917 19:0.010250987 20:0.00023522392 21:1.6767033e-05 22:0.0015254901 23:6.5170025e-05 24:0.0018063518 25:0.00045782013 26:0.0002341963 27:2.7106376e-05 28:0.00045962317 29:0.00024221442 30:0.00014715979 31:0.00017398557 32:0.00011694219 33:0.00010778096 34:4.7085294e-05 35:4.0329418e-05 36:1.5337422e-05 37:0.00014494118 38:5.4509917e-05 39:0.00068326626 40:0.0002563429 41:0.0037120639 42:0.0013462063 43:1.8734774e-05 44:7.124355e-05 45:0.00065917324 46:0.011150123 47:0.0006994594 48:0.0013249214 49:0.00062995433 50:6.0775215e-05 51:2.1807044e-05 52:2.9019919e-05 53:9.6497461e-05 54:0.00086043717 55:0.0017173578 56:0.0023938867 57:0.00055672618 58:0.00048784964 59:0.00096467149 60:0.00031422469 61:2.5074682e-05 62:0.00059298694 63:7.7168268e-05 64:0.00013653556 65:0.00029598823 66:9.8741235e-05 67:0.00018264605 68:0.00097470795 69:0.00094375847 70:0.0001499428 71:0.00020450793 72:4.0416395e-05 73:8.9038556e-05 74:0.0004335366 75:0.00037736498 76:0.00020642499 77:0.00020669881 78:0.00020836924 79:0.00049159362 80:0.00040542206 81:0.0028034875 82:0.0002988872 83:0.00028672637 84:0.00070061471 85:0.00041933963 86:0.0011237896 87:3.212396e-05 88:0.0033855052 89:0.0029465677 90:0.00010354523 91:0.00035709803 92:3.5654368e-06 93:1.5649668e-05 94:0.002099945 95:0.00018941419 96:0.00030445796 97:0.00063957449 98:3.9255901e-05 99:1.571137e-05 100:0.00030949677 101:0.0032468394 102:0.00019662309 103:0.00085046393 104:7.9293881e-05 105:5.9333939e-05 106:0.00022598323 107:4.4235072e-05 108:0.00019870732 109:0.00017805131 110:1.300995e-05 111:0.00018507196 112:0.00018489502 113:0.00012720015 114:0.00015847861 115:0.00030592491 116:0.00018798641 117:2.548177e-05 118:0.00048309556 119:9.4251278e-05 120:0.00032273491 121:0.00095408992 122:0.00031279345 123:0.00034767424 124:0.00044959149 125:0.00047400882 126:0.00015072503 127:0.00027701395 128:6.1946012e-05 129:0.005112004 130:0.00036921405 131:0.0005628065 132:0.00024418527 133:0.0038994749 134:4.6565325e-05 135:0.00061550055 136:2.1845926e-05 137:0.0032900465 138:5.3020209e-05 139:0.00017371043 140:0.00027922814 141:0.00016692073 142:0.00041946862 143:0.00014968528 144:0.00011013554 145:0.00022023168 146:0.00027277463 147:0.00064408348 148:7.4509597e-05 149:0.00072858419 150:0.00015714315 151:0.001218112 152:0.00042199943 153:0.0010348596 154:0.00055759551 155:0.00089899905 156:0.00026560729 157:0.00051946065 158:0.00027277594 159:0.00015109354 160:0.00050355436 161:0.00011367735 162:0.0016008298 163:0.001006679 164:0.011205854 165:0.0012321004 166:0.0013461511 167:8.5769636e-05 168:0.0011348908 169:0.00047286152 170:0.0011688649 171:0.00029286559 172:0.00021921602 173:4.3934848e-05 174:0.00084838772 175:0.00013292872 176:5.9037357e-05 177:0.00036394518 178:0.00035118809 179:0.0010523644 180:0.0010897145 181:2.5546226e-05 182:0.0015092801 183:0.0037957237 184:0.00017183054 185:0.00053146924 186:0.00025967037 187:0.00052724156 188:0.00018586745 189:0.0005951869 190:0.00053464167 191:0.00095925288 192:5.2886735e-05 193:0.00050003681 194:0.00015283587 195:0.0010805127 196:0.00038611633 197:0.00064119353 198:0.00080577796 199:0.0010145851 200:5.2320634e-06 201:4.3614898e-05 202:0.00016362764 203:1.7898323e-05 204:0.00017973929 205:0.0028482478 206:9.0435358e-05 207:0.00039589644 208:0.00021674547 209:3.5917103e-05 210:0.0044076857 211:0.0010193296 212:0.00021476115 213:0.0012092234 214:0.00032665412 215:0.00064041064 216:7.4314274e-05 217:0.00022655852 218:0.0002929811 219:1.9212575e-05 220:0.00039748324 221:0.0016673284 222:0.00028792355 223:8.1601371e-05 224:0.002044671 225:0.004594367 226:4.3027092e-05 227:0.00014498569 228:2.9791945e-05 229:8.2922255e-05 230:1.4633353e-05 231:0.00026873703 232:3.0854004e-05 233:0.011498993 234:3.0214096e-05 235:0.00031049323 236:0.00093656813 237:0.00036490647 238:8.4298488e-05 239:0.00072024117 240:0.00023501059 241:0.00068741787 242:9.0465561e-05 243:0.00022355748 244:0.00028498398 245:0.00033622194 246:0.00011393382 247:0.0018784305 248:0.00010402214 249:0.00013343117 250:0.00034470719 251:0.00040479194 252:0.0070124711 253:4.1218096e-05 254:0.00017407312 255:0.00035763139 256:0.00011452169 257:0.0041266712 258:0.00042363312 259:8.975307e-05 260:0.000150507 261:2.0510706e-05 262:0.00021396631 263:0.00052554975 264:2.534984e-05 265:0.0028864408 266:0.00051332527 267:0.00048097997 268:0.00048144994 269:2.3626013e-05 270:0.00017707222 271:0.00078617741 272:5.9446847e-05 273:5.8417085e-05 274:2.470831e-05 275:0.0003636964 276:0.00091464963 277:0.00028881582 278:0.0008763604 279:0.0102665 280:4.3302029e-05 281:0.00047890953 282:0.00027725077 283:0.00073982554 284:0.00029221905 285:0.00062611629 286:5.2752472e-05 287:0.0001854344 288:9.4051582e-05 289:0.0003702004 290:0.00012993168 291:0.00078527973 292:0.0010103044 293:0.00028081681 294:2.0091851e-05 295:0.0092619145 296:7.9084835e-05 297:0.00051216147 298:0.00068475649 299:6.3559601e-05 300:0.00019353311 301:0.0010773559 302:0.00022468805 303:0.0026958941 304:8.0382772e-05 305:0.00010972567 306:0.00046372483 307:7.225803e-05 308:0.00027528647 309:0.00080721703 310:0.00024874552 311:0.0018076788 312:0.00034375189 313:5.1602899e-05 314:0.00021069738 315:0.00052182283 316:0.0014223934 317:5.1045961e-05 318:0.00022140994 319:2.4542764e-05 320:9.4011812e-05 321:8.2165563e-05 322:6.7324785e-05 323:0.00077995786 324:0.00037896028 325:0.00084977644 326:2.8436214e-05 327:0.00047272039 328:0.00034838071 329:0.00064071524 330:0.00068339985 331:0.00020900292 332:7.0818882e-05 333:0.00010101993 334:2.823915e-05 335:0.00043419679 336:3.1385556e-05 337:0.0008925033 338:4.6821595e-05 339:0.00024327134 340:0.00015100524 341:0.00048141848 342:3.7746013e-05 343:2.1758497e-05 344:0.00018998633 345:0.00017508863 346:8.642317e-05 347:0.0001133295 348:6.6440844e-05 349:7.1261929e-06 350:0.00019892839 351:0.00075977977 352:0.00029911031 353:2.1247813e-05 354:0.0014165668 355:8.9762667e-05 356:0.00011745723 357:0.00034093935 358:0.00012301427 359:0.00016084583 360:0.00015547109 361:0.0010796979 362:0.00017859662 363:0.00015192109 364:7.3994583e-05 365:0.0017199531 366:0.00066868553 367:2.9350545e-05 368:0.00049690856 369:0.00011060461 370:0.00051388534 371:5.7944435e-05 372:0.097276203 373:6.1356361e-05 374:0.00033996633 375:0.00012085246 376:0.0016116283 377:0.014274104 378:0.00051098224 379:9.3665738e-05 380:0.00033512202 381:4.9444548e-05 382:0.0033188669 383:0.0006233438 384:4.6553025e-05 385:1.2595926e-05 386:9.4589261e-05 387:3.7321104e-05 388:0.00044931931 389:9.5429597e-05 390:0.00018353673 391:1.373091e-05 392:2.1293494e-05 393:0.00022100026 394:0.00603553 395:0.0017842152 396:0.0012547742 397:0.00022972032 398:7.7967663e-05 399:0.0002533638 400:3.4070257e-05 401:0.00059883448 402:0.00025483544 403:0.00026677543 404:4.774785e-05 405:0.006057159 406:0.0046003056 407:6.6398759e-05 408:0.00051991089 409:0.0021519344 410:0.0002383784 411:0.0017110768 412:0.0022410478 413:0.00081567018 414:6.6873465e-05 415:3.0457079e-05 416:3.2553409e-05 417:0.00026764505 418:0.00022491894 419:0.00029634821 420:0.00024633526 421:6.5474e-05 422:0.00050874235 423:0.00010856395 424:0.00014481744 425:0.1484827 426:0.008029568 427:0.00031160726 428:5.569309e-05 429:0.00033012222 430:2.5434983e-05 431:0.00046007312 432:0.00018579081 433:0.0015351172 434:0.00050838181 435:0.00024534305 436:0.00011741081 437:0.0010544771 438:0.0007775983 439:0.001262592 440:0.00049048284 441:0.00045604547 442:0.0010043647 443:0.00045193458 444:0.00063317665 445:0.00046420292 446:5.5647641e-05 447:3.0026722e-05 448:3.3752578e-05 449:0.00040995819 450:0.00018694975 451:0.00059771136 452:4.833769e-05 453:5.8377434e-05 454:0.00045979064 455:0.00014271279 456:0.00087778736 457:0.00092450681 458:2.7520193e-05 459:0.00010949606 460:0.00037076359 461:0.0014833725 462:0.00015634848 463:0.0021157146 464:0.00048756177 465:1.6132528e-05 466:0.0010044015 467:0.00082172977 468:0.00036189813 469:0.0010407593 470:4.2699136e-05 471:0.00016144487 472:0.00033870307 473:0.023907179 474:8.8330366e-05 475:0.00070324622 476:0.00023399739 477:0.00062456541 478:0.00091871037 479:0.00028529085 480:0.00012423875 481:0.00092251063 482:0.0012962332 483:0.00086341903 484:0.00022846863 485:0.00039901366 486:0.00031507315 487:0.00039953817 488:0.00058345794 489:0.00018157222 490:5.8663627e-05 491:3.2322911e-05 492:0.00027235266 493:0.00096889422 494:0.0030706406 495:0.00015793626 496:7.2394978e-06 497:0.000506918 498:2.1644171e-05 499:0.00022002983 500:8.5149251e-05 501:0.0018197016 502:0.0013686944 503:2.9449435e-05 504:0.0014550221 505:0.00019971823 506:0.00039392652 507:0.00015764298 508:0.00090193126 509:0.00011174159 510:0.00010705307 511:0.0011256038 512:0.00025814999 513:0.00091050612 514:6.3825129e-05 515:1.4957191e-05 516:0.0012594822 517:8.4455722e-05 518:0.00026055222 519:0.00090513023 520:0.00032863763 521:0.0005055744 522:0.00026667232 523:2.9390965e-05 524:0.0015280236 525:0.00050289591 526:2.3156828e-05 527:0.00034725707 528:8.1929385e-05 529:0.00024722275 530:2.7449316e-05 531:0.00038279689 532:0.00050186319 533:5.2785232e-05 534:0.00057479774 535:0.00012210928 536:0.00054149173 537:0.00021935896 538:0.00063848455 539:0.00076039875 540:0.00025402475 541:0.00013491456 542:1.0002529e-05 543:6.791277e-05 544:0.00040720025 545:0.0014671552 546:2.368085e-05 547:0.0046824198 548:0.00013123942 549:0.001094853 550:1.7262477e-05 551:0.005277046 552:0.00059354428 553:0.00018602493 554:1.0788673e-05 555:6.1704122e-05 556:0.00014712058 557:0.00022481548 558:0.00017708563 559:0.0003255785 560:7.2777548e-05 561:0.0011202504 562:0.00075373478 563:0.00029770448 564:5.7069301e-05 565:0.00027945498 566:0.00033168588 567:0.00011648127 568:0.00015442164 569:9.1810209e-05 570:5.4194221e-05 571:0.00010825368 572:0.0013550585 573:0.0003913632 574:6.9115194e-05 575:7.2555296e-05 576:0.00010277265 577:0.00036415627 578:6.516651e-05 579:0.00016529707 580:0.00019029023 581:0.00039133523 582:0.00011610896 583:0.00027824339 584:0.00070279062 585:0.00019978547 586:0.00013838385 587:0.00049578102 588:0.00033286959 589:0.00010594545 590:0.004069753 591:0.0008889818 592:9.0073168e-05 593:3.854934e-05 594:0.00058210292 595:7.9101956e-05 596:0.00025114647 597:0.00060001697 598:0.00076476595 599:0.00020575781 600:8.2334802e-05 601:3.3764591e-05 602:0.0008192301 603:5.1123494e-05 604:0.0018595798 605:0.00013311456 606:0.0015311555 607:8.1888407e-05 608:0.0022702462 609:0.0029898318 610:0.00017937225 611:0.00037206832 612:0.00080133596 613:0.00016581517 614:0.00011166729 615:6.687353e-05 616:0.00048570053 617:0.0026347837 618:0.0011208997 619:0.00199711 620:0.00049460377 621:0.00023099824 622:3.0944146e-05 623:0.00010741119 624:9.6223659e-05 625:0.0010239977 626:0.00018573766 627:0.00013959582 628:0.00010721061 629:9.6597279e-05 630:0.00095974974 631:0.00015402687 632:0.00026329176 633:0.001264159 634:0.00049344188 635:0.00025589348 636:0.00014908807 637:6.0726146e-05 638:0.00099283189 639:0.00038811081 640:0.00097631832 641:0.00053399173 642:0.00022475609 643:3.9218401e-05 644:7.0838847e-05 645:0.000469194 646:0.0015894335 647:0.00026462442 648:0.00040604291 649:0.00011604287 650:0.0089396387 651:4.8203685e-05 652:0.00089527859 653:0.00052660261 654:0.00066780002 655:0.00062821835 656:9.0415224e-06 657:0.00062309683 658:5.8643069e-05 659:7.4052892e-05 660:0.00057726406 661:1.4533247e-05 662:4.4572193e-05 663:0.00046930162 664:0.00049483019 665:0.00060217013 666:0.0011059486 667:0.00064964691 668:0.0007315941 669:0.0020290299 670:0.00016151449 671:0.00095736154 672:0.00028556891 673:0.00015019742 674:0.00012656156 675:0.0014743161 676:0.00099307194 677:5.2126026e-05 678:1.6512029e-05 679:4.6226483e-05 680:0.00046335947 681:0.0010468864 682:0.00015787272 683:0.00013238838 684:0.001287203 685:0.00090560724 686:0.00097837357 687:0.00013549144 688:2.6359587e-05 689:0.0018483322 690:0.00027649768 691:0.00066547893 692:0.00039115705 693:0.00017452409 694:0.00021795256 695:0.00061498798 696:0.00095166318 697:0.00018528731 698:0.00020203611 699:7.2914365e-05 700:0.00016073634 701:0.00015425266 702:0.0010093997 703:0.00021891258 704:8.1289354e-06 705:0.00010399269 706:0.0015419817 707:2.8181172e-05 708:0.0019104877 709:6.763362e-05 710:1.9802948e-05 711:0.00072790287 712:5.5065666e-05 713:0.00023183931 714:0.0037232435 715:4.2104348e-05 716:0.00011262723 717:6.2967767e-05 718:4.4397657e-05 719:6.857462e-05 720:5.5882814e-05 721:0.00048690426 722:0.0011203252 723:0.00063890574 724:0.00040817965 725:0.00036854917 726:3.7717986e-05 727:0.00020981643 728:0.00055763905 729:0.0002785697 730:0.00089669623 731:7.2268784e-05 732:8.4914085e-05 733:0.0018700868 734:0.00026623282 735:0.00012791605 736:0.00023350796 737:0.00032572384 738:0.0003623621 739:7.0979404e-05 740:0.005815133 741:0.0055460627 742:0.00058495416 743:1.8646382e-05 744:1.8239485e-05 745:0.00017807219 746:0.00035294276 747:8.7117318e-05 748:0.00027954587 749:0.0019055256 750:0.00012405535 751:0.00035149738 752:0.00099075446 753:5.4606277e-05 754:0.0015477807 755:0.0006458697 756:1.0573858e-05 757:0.00024638529 758:5.0892311e-05 759:0.0007476203 760:0.00021547271 761:0.0003074402 762:0.00026660555 763:0.00015891848 764:0.00020361615 765:0.00061110745 766:7.5863063e-05 767:0.0009082483 768:4.8739763e-05 769:4.8408365e-05 770:0.00021916292 771:0.031235453 772:9.4162548e-05 773:6.361054e-05 774:7.4559961e-05 775:3.8594271e-06 776:0.00057684141 777:0.00018616255 778:3.0401567e-05 779:2.5559237e-05 780:0.00029342723 781:3.2747586e-05 782:0.00064596586 783:0.0017500718 784:0.00012754586 785:1.7249393e-05 786:0.00036719986 787:0.0002971603 788:0.00088121789 789:0.00014934428 790:0.0005123163 791:0.0012296124 792:6.9092785e-05 793:1.6040893e-05 794:0.00034814738 795:0.03332549 796:0.0011970005 797:8.6010703e-05 798:0.0093220575 799:4.6706307e-05 800:0.00053770095 801:0.00012211522 802:0.00042103106 803:0.00017218864 804:0.00055054406 805:0.00062332506 806:6.0081256e-05 807:0.00030901295 808:2.2349959e-05 809:0.00010211155 810:0.00024480527 811:0.00052497542 812:0.0025766655 813:0.00026054552 814:5.5675777e-05 815:0.00019883101 816:0.00014215321 817:0.0010720908 818:0.00029123237 819:0.0002789718 820:0.0001637416 821:0.0021808823 822:0.00023055279 823:0.0042893081 824:0.00017286933 825:0.00010245344 826:0.00015330118 827:0.0008636883 828:2.6417343e-05 829:6.0080743e-05 830:1.7069597e-05 831:7.8722027e-05 832:0.00024612813 833:0.00017596445 834:5.1404193e-05 835:9.3750197e-05 836:0.0004433612 837:0.00012591759 838:0.00045112221 839:0.00037146045 840:0.00033826151 841:5.8104331e-05 842:0.00051636773 843:0.00043756381 844:1.5705093e-05 845:0.00061758881 846:0.00017927962 847:0.00028685221 848:0.00097922201 849:0.00033106885 850:0.00027463917 851:9.3353083e-05 852:0.00036301304 853:7.0815542e-05 854:0.00014115933 855:6.9120535e-05 856:0.00019214189 857:0.00083598169 858:4.2869501e-06 859:0.0011333864 860:0.00051213801 861:0.0001167154 862:0.0029993039 863:0.0018488787 864:5.1794395e-05 865:6.2177845e-05 866:0.00015380229 867:0.00010409777 868:7.9220634e-05 869:0.00022746813 870:0.00096841383 871:0.00017580953 872:4.559126e-05 873:0.00012737587 874:6.0497736e-05 875:0.015374863 876:0.0038514701 877:0.001373991 878:0.00035398098 879:0.0021043313 880:8.2790692e-05 881:0.00010708375 882:6.9524736e-05 883:0.0021564665 884:0.00023597426 885:0.0013595936 886:0.00019096362 887:7.4969474e-05 888:0.00036774707 889:0.0011003874 890:0.00052879879 891:6.6885135e-05 892:0.00031827405 893:8.8132965e-06 894:0.0015352276 895:0.0004437459 896:0.00018887081 897:0.00014815474 898:0.00063281175 899:0.0003056413 900:0.0029518623 901:0.0005400583 902:0.0014557231 903:0.0044358205 904:0.00012148559 905:3.6329115e-05 906:0.000307493 907:0.00027441728 908:0.00016875591 909:2.890667e-05 910:0.0004946136 911:0.0024337494 912:0.00038417973 913:0.00034286772 914:4.1897983e-05 915:0.00014438615 916:0.00038799056 917:2.1115944e-05 918:0.0011282009 919:0.00012346086 920:9.2145812e-05 921:0.0026092224 922:1.0757265e-05 923:0.00096888776 924:0.0014074962 925:0.00019955249 926:0.0048533096 927:0.00020158691 928:0.0006109387 929:0.00011144977 930:0.00012896475 931:0.00041479597 932:3.0226978e-05 933:0.00086447445 934:0.00038662076 935:7.6146338e-05 936:4.8307505e-05 937:0.00051640021 938:0.0001965499 939:0.00028708784 940:0.00052088191 941:0.00037337354 942:0.00066264748 943:0.00037280549 944:0.00014743056 945:0.00015713721 946:7.1819581e-05 947:0.00010490035 948:6.0387694e-05 949:9.7617951e-05 950:0.00063443667 951:6.2404237e-05 952:0.0011862766 953:0.00029220621 954:0.001497509 955:0.0019581369 956:2.1415259e-05 957:0.00045815861 958:2.2566148e-05 959:0.0015670069 960:0.00010242105 961:0.00036737675 962:2.4033776e-05 963:0.00080881099 964:0.00073547702 965:0.00089942443 966:0.0012793728 967:0.00024900367 968:5.3630283e-05 969:0.00033318542 970:0.00011634971 971:0.00043852613 972:0.00042651009 973:0.00051644404 974:0.0013576468 975:6.563426e-05 976:0.0027023575 977:0.0012858135 978:0.0012398883 979:0.00090966822 980:0.00067669043 981:0.00010763843 982:0.0029916223 983:0.0017980547 984:3.1030228e-05 985:2.9065315e-05 986:0.00046345801 987:0.00011768047 988:0.0013648245 989:0.00010085716 990:0.00023542558 991:3.382421e-05 992:0.00063348981 993:0.0018149485 994:6.7655907e-05 995:0.00020560481 996:0.00050497829 997:0.00056274293 998:5.6738998e-05 999:0.00062011951 
1 1:0.0011760016 2:0.00015040464 3:7.5489123e-05 4:0.00013284592 5:1.5721533e-05 6:2.6820619e-05 7:7.0075483e-05 8:0.0014441516 9:0.00023282433 10:0.00096044579 11:0.00053959631 12:0.00013146084 13:0.00011209035 14:0.00033387795 15:3.8411217e-05 16:5.1010275e-06 17:0.0003556289 18:0.0005785207 19:0.010817965 20:0.00025245344 21:1.8013279e-05 22:0.001521923 23:6.1157683e-05 24:0.0019849958 25:0.0004559129 26:0.00022323942 27:3.0418014e-05 28:0.00046692445 29:0.0002373591 30:0.00014464438 31:0.00016501547 32:0.00011012878 33:0.00010782071 34:4.7083056e-05 35:4.0285988e-05 36:1.5317355e-05 37:0.00014463189 38:5.441215e-05 39:0.00068417302 40:0.00025601251 41:0.0037142651 42:0.0013473053 43:1.8720419e-05 44:7.1184746e-05 45:0.00065654592 46:0.011202068 47:0.00069634797 48:0.0013319046 49:0.00062898494 50:6.0659415e-05 51:2.1777119e-05 52:2.8971697e-05 53:9.6667092e-05 54:0.00086444034 55:0.001712681 56:0.0023866452 57:0.00055998698 58:0.00048831495 59:0.00096221699 60:0.00031545982 61:2.5125742e-05 62:0.00059522368 63:7.6766439e-05 64:0.00013696941 65:0.00029565251 66:9.9114957e-05 67:0.00018259992 68:0.00097465317 69:0.00094414613 70:0.00014968908 71:0.00020389124 72:4.0253457e-05 73:8.9396315e-05 74:0.00043349821 75:0.00037828437 76:0.00020602105 77:0.00020771116 78:0.00020750782 79:0.00049561827 80:0.00040431783 81:0.00280803 82:0.00029868478 83:0.00028666068 84:0.00070123118 85:0.0004184061 86:0.0011214012 87:3.2228203e-05 88:0.0033813245 89:0.0029414119 90:0.00010351789 91:0.00035793753 92:3.5462335e-06 93:1.5662363e-05 94:0.0021068538 95:0.00018830906 96:0.00030497965 97:0.00064038759 98:3.9010636e-05 99:1.5677993e-05 100:0.00030994226 101:0.0032324535 102:0.00019660222 103:0.00085118663 104:7.9232013e-05 105:5.9572136e-05 106:0.00022520541 107:4.4413675e-05 108:0.00019953206 109:0.00017852683 110:1.2939866e-05 111:0.00018577286 112:0.00018552021 113:0.00012715081 114:0.00015872327 115:0.00030636345 116:0.00018769372 117:2.5480364e-05 118:0.00048139627 119:9.4191309e-05 120:0.00032188994 121:0.00095339876 122:0.00031268716 123:0.00034731292 124:0.00044949789 125:0.00047382017 126:0.00015014604 127:0.00027670441 128:6.1871368e-05 129:0.005124249 130:0.00037032948 131:0.00056093355 132:0.00024312838 133:0.0038962152 134:4.6668825e-05 135:0.00061379955 136:2.1751674e-05 137:0.0032713546 138:5.3082676e-05 139:0.00017429997 140:0.00027943382 141:0.0001673314 142:0.00042035527 143:0.00015021198 144:0.00011039349 145:0.00021998936 146:0.00027368485 147:0.00064028741 148:7.4182673e-05 149:0.00072667014 150:0.00015670512 151:0.0012201659 152:0.00042188921 153:0.0010349377 154:0.00056093221 155:0.00089753815 156:0.00026568689 157:0.00051839172 158:0.00027295164 159:0.00015047099 160:0.00050379604 161:0.0001138585 162:0.0016007774 163:0.0010058514 164:0.011180898 165:0.0012249227 166:0.0013474788 167:8.557846e-05 168:0.0011307814 169:0.00047021851 170:0.0011668499 171:0.0002923724 172:0.00021809347 173:4.3864515e-05 174:0.00084466813 175:0.00013269922 176:5.9060731e-05 177:0.00036535505 178:0.00035126336 179:0.0010521818 180:0.0010903062 181:2.5415638e-05 182:0.0015083248 183:0.0038017689 184:0.00017149521 185:0.00053416903 186:0.00025959106 187:0.00052511395 188:0.00018526542 189:0.0005923399 190:0.00053163839 191:0.00095775619 192:5.3099611e-05 193:0.00049936899 194:0.00015292811 195:0.0010781331 196:0.0003858734 197:0.00063714129 198:0.00080811261 199:0.001013075 200:5.2262594e-06 201:4.3606171e-05 202:0.00016411761 203:1.7823566e-05 204:0.00018014172 205:0.0028458058 206:8.9610468e-05 207:0.00039586794 208:0.00021759715 209:3.5898785e-05 210:0.0043973704 211:0.0010162848 212:0.00021442125 213:0.0012104068 214:0.00032735566 215:0.00064150308 216:7.4449301e-05 217:0.00022667406 218:0.00029444721 219:1.9175384e-05 220:0.00039942699 221:0.0016653906 222:0.00028744005 223:8.1955455e-05 224:0.0020423832 225:0.0046181949 226:4.2887194e-05 227:0.00014474236 228:2.9740144e-05 229:8.3420498e-05 230:1.461025e-05 231:0.00026846427 232:3.0982566e-05 233:0.011491149 234:3.020272e-05 235:0.0003105879 236:0.00093475421 237:0.00036385239 238:8.441056e-05 239:0.00072120148 240:0.00023530328 241:0.00068855233 242:9.0196838e-05 243:0.0002234617 244:0.00028513055 245:0.00033725123 246:0.00011332547 247:0.0018760783 248:0.00010409941 249:0.00013374988 250:0.00034588232 251:0.00040505035 252:0.0070250281 253:4.1017491e-05 254:0.00017404168 255:0.00035762344 256:0.00011422252 257:0.0041427254 258:0.00042238482 259:8.9950947e-05 260:0.00015092903 261:2.0433319e-05 262:0.00021358102 263:0.00052682846 264:2.5261299e-05 265:0.0028931326 266:0.00051183708 267:0.00048301823 268:0.00048260155 269:2.3563012e-05 270:0.00017637029 271:0.00078654656 272:5.9458111e-05 273:5.8420523e-05 274:2.4721747e-05 275:0.00036357471 276:0.00091068348 277:0.00028792277 278:0.00087857264 279:0.01024605 280:4.3338434e-05 281:0.00048014964 282:0.00027667539 283:0.00074408104 284:0.00029013975 285:0.00062754302 286:5.2678926e-05 287:0.00018490403 288:9.3841358e-05 289:0.00037073359 290:0.00012982771 291:0.00078330375 292:0.0010106105 293:0.0002792094 294:2.0092275e-05 295:0.009243492 296:7.9279111e-05 297:0.00050918246 298:0.00068540766 299:6.3539403e-05 300:0.0001934821 301:0.0010787044 302:0.0002246056 303:0.0026883925 304:8.0523649e-05 305:0.00010984472 306:0.00046530552 307:7.1865972e-05 308:0.0002729597 309:0.0008048201 310:0.00024858161 311:0.0018038353 312:0.00034612452 313:5.1515799e-05 314:0.00021012392 315:0.00052167708 316:0.0014219934 317:5.092951e-05 318:0.00022249775 319:2.4647898e-05 320:9.3626506e-05 321:8.1779282e-05 322:6.6872548e-05 323:0.00077959278 324:0.00037879686 325:0.00084935845 326:2.8449347e-05 327:0.00047283972 328:0.00034108432 329:0.00063880655 330:0.00068289146 331:0.00020862854 332:7.0975046e-05 333:0.0001013392 334:2.8199483e-05 335:0.00043354413 336:3.1404154e-05 337:0.00088758499 338:4.6971338e-05 339:0.00024161681 340:0.00015080521 341:0.00048046545 342:3.7691814e-05 343:2.1680824e-05 344:0.00019006764 345:0.00017418174 346:8.6540866e-05 347:0.00011260517 348:6.6706874e-05 349:7.1320001e-06 350:0.00019788521 351:0.00075534178 352:0.00029736286 353:2.1197642e-05 354:0.0014120102 355:8.9513574e-05 356:0.00011733124 357:0.00034084124 358:0.00012268413 359:0.00016063049 360:0.00015486956 361:0.0010859638 362:0.00017789807 363:0.00015178615 364:7.3924828e-05 365:0.0017225338 366:0.00067255943 367:2.926201e-05 368:0.00049811235 369:0.00011035292 370:0.00051380921 371:5.7688354e-05 372:0.097426437 373:6.1126571e-05 374:0.00033872266 375:0.0001207367 376:0.0016122957 377:0.014297797 378:0.00051014312 379:9.3200273e-05 380:0.00033473587 381:4.9065155e-05 382:0.0033076655 383:0.00062287087 384:4.6442525e-05 385:1.2544883e-05 386:9.510354e-05 387:3.7299083e-05 388:0.00045064389 389:9.5166135e-05 390:0.00018338444 391:1.3706433e-05 392:2.1334701e-05 393:0.00022052258 394:0.0060171252 395:0.0017739373 396:0.0012538298 397:0.00022975114 398:7.773051e-05 399:0.00025332929 400:3.3990425e-05 401:0.00060146424 402:0.00025426317 403:0.00026653337 404:4.7562833e-05 405:0.0060378578 406:0.0045805187 407:6.6292843e-05 408:0.00052096811 409:0.0021497603 410:0.00023893721 411:0.0017150912 412:0.0022504579 413:0.00081351376 414:6.6591223e-05 415:3.0404324e-05 416:3.2520431e-05 417:0.0002683317 418:0.00022559018 419:0.00029604556 420:0.0002466944 421:6.5567576e-05 422:0.00050716079 423:0.00010860502 424:0.00014463272 425:0.14814721 426:0.0080565065 427:0.00030982922 428:5.5863238e-05 429:0.00033025356 430:2.5380104e-05 431:0.000459267 432:0.00018617875 433:0.0015401582 434:0.00051142526 435:0.00024565635 436:0.00011668404 437:0.0010509909 438:0.00078139518 439:0.0012583603 440:0.00048798652 441:0.00045703255 442:0.0010039855 443:0.00045361801 444:0.00063411822 445:0.00046637017 446:5.5526358e-05 447:3.0122783e-05 448:3.3682292e-05 449:0.00040997681 450:0.00018597164 451:0.00059627614 452:4.8130791e-05 453:5.8366335e-05 454:0.00045847186 455:0.00014349446 456:0.00087899296 457:0.00092442054 458:2.7445551e-05 459:0.00010909083 460:0.00037150196 461:0.0014803478 462:0.00015752135 463:0.0021232371 464:0.00048571243 465:1.6088128e-05 466:0.0010027827 467:0.00082082755 468:0.00036045874 469:0.0010414107 470:4.2609401e-05 471:0.00016140641 472:0.00033894935 473:0.02400405 474:8.8164627e-05 475:0.00070338749 476:0.00023490148 477:0.00062527659 478:0.00091784791 479:0.0002859997 480:0.00012385512 481:0.00092536211 482:0.001298401 483:0.00085962249 484:0.00022824197 485:0.00039752235 486:0.00031333431 487:0.00039936605 488:0.00058205059 489:0.00018094676 490:5.868305e-05 491:3.2316257e-05 492:0.00027217288 493:0.00097185757 494:0.0030693416 495:0.00015796776 496:7.2056996e-06 497:0.00050514651 498:2.1724081e-05 499:0.00022032257 500:8.522904e-05 501:0.0018261961 502:0.0013690914 503:2.9428074e-05 504:0.0014408082 505:0.00019962971 506:0.00039537711 507:0.0001573754 508:0.00090104761 509:0.00011112815 510:0.00010668708 511:0.0011249924 512:0.00025696366 513:0.00091150019 514:6.3688545e-05 515:1.4930171e-05 516:0.0012566749 517:8.4210427e-05 518:0.00025941792 519:0.0009036783 520:0.00032878737 521:0.00050323253 522:0.00026562405 523:2.9286326e-05 524:0.001517326 525:0.00050255918 526:2.2984557e-05 527:0.00034718492 528:8.2046441e-05 529:0.00024557731 530:2.7412749e-05 531:0.00038085229 532:0.00050140929 533:5.2621584e-05 534:0.00057344523 535:0.00012184089 536:0.00054046413 537:0.00021904522 538:0.00063790462 539:0.00075773534 540:0.00025485552 541:0.00013507139 542:9.9904892e-06 543:6.7219553e-05 544:0.00040623816 545:0.0014615365 546:2.3742701e-05 547:0.0046588797 548:0.00013102096 549:0.0010969609 550:1.7234974e-05 551:0.0052943658 552:0.00059151236 553:0.00018642651 554:1.07773e-05 555:6.1862069e-05 556:0.00014732734 557:0.00022424207 558:0.00017678032 559:0.00032356643 560:7.2355753e-05 561:0.0011178254 562:0.00075308001 563:0.00029718271 564:5.6847086e-05 565:0.00027909892 566:0.00033293216 567:0.00011613118 568:0.0001547482 569:9.165144e-05 570:5.4244902e-05 571:0.00010847682 572:0.0013591978 573:0.00039115691 574:6.9012814e-05 575:7.2686584e-05 576:0.00010273328 577:0.00036304601 578:6.5363798e-05 579:0.00016474329 580:0.00019071894 581:0.0003899165 582:0.00011561601 583:0.00027865451 584:0.00070142542 585:0.00019933684 586:0.00013800569 587:0.0004953983 588:0.00033270603 589:0.00010573723 590:0.0040605799 591:0.00089127995 592:8.981242e-05 593:3.843159e-05 594:0.00058327027 595:7.9407248e-05 596:0.00025089036 597:0.00059899193 598:0.00076392083 599:0.0002048733 600:8.2244798e-05 601:3.377445e-05 602:0.00081903377 603:5.0984279e-05 604:0.0018631116 605:0.00013283262 606:0.001531044 607:8.1963743e-05 608:0.0022729414 609:0.0029866511 610:0.00017942446 611:0.00037121403 612:0.00079980231 613:0.00016627695 614:0.00011168035 615:6.7167581e-05 616:0.00048324009 617:0.0026340922 618:0.0011198126 619:0.0019941858 620:0.00049586082 621:0.00022972078 622:3.0883035e-05 623:0.00010744692 624:9.6168027e-05 625:0.0010260873 626:0.00018576266 627:0.00013921582 628:0.00010724324 629:9.6143362e-05 630:0.00096247997 631:0.00015457482 632:0.0002631832 633:0.0012620855 634:0.00049076666 635:0.00025697984 636:0.00014895896 637:6.0257429e-05 638:0.00099074037 639:0.00038794472 640:0.00097419322 641:0.00053016603 642:0.00022107006 643:3.9814513e-05 644:7.0817412e-05 645:0.00047639353 646:0.0016105077 647:0.00027006769 648:0.00041243603 649:0.00011598232 650:0.0089711715 651:4.7869544e-05 652:0.00087996165 653:0.00053771335 654:0.00067737716 655:0.00061041873 656:9.0192361e-06 657:0.00063254003 658:5.8358459e-05 659:7.3730582e-05 660:0.00056674081 661:1.4428623e-05 662:4.4196833e-05 663:0.00047387258 664:0.0004958518 665:0.0006044195 666:0.0010927659 667:0.0006300286 668:0.00074255728 669:0.0019661169 670:0.00015950004 671:0.00096061756 672:0.00028701642 673:0.00015056493 674:0.0001256673 675:0.001474445 676:0.00099006598 677:5.2268701e-05 678:1.6486871e-05 679:4.6052024e-05 680:0.0004635127 681:0.0010480098 682:0.00015799624 683:0.00013235147 684:0.0012844079 685:0.0009023319 686:0.0009776256 687:0.00013512222 688:2.6396396e-05 689:0.0018509926 690:0.00027516249 691:0.00066164415 692:0.00039087312 693:0.00017487131 694:0.00021899259 695:0.00061557314 696:0.00094588776 697:0.00018566579 698:0.00020202911 699:7.3264011e-05 700:0.0001611902 701:0.0001532507 702:0.0010106394 703:0.00021862063 704:8.0763912e-06 705:0.00010372097 706:0.0015434459 707:2.820247e-05 708:0.0019144248 709:6.7479552e-05 710:1.9707903e-05 711:0.00072626269 712:5.4751956e-05 713:0.00023163779 714:0.0037025774 715:4.2032218e-05 716:0.00011234072 717:6.3146232e-05 718:4.434718e-05 719:6.8455869e-05 720:5.555194e-05 721:0.00048626162 722:0.0011135443 723:0.00064167596 724:0.00040820189 725:0.00036807728 726:3.7775266e-05 727:0.00020951351 728:0.00055926031 729:0.000277796 730:0.00089484296 731:7.2126124e-05 732:8.4874468e-05 733:0.0018695084 734:0.0002655687 735:0.00012764847 736:0.00023370348 737:0.00032725924 738:0.00036068965 739:7.0826864e-05 740:0.0058203847 741:0.0055043283 742:0.00058398605 743:1.8650919e-05 744:1.822744e-05 745:0.00017883474 746:0.00035386678 747:8.6817796e-05 748:0.00027954151 749:0.0019108361 750:0.00012411975 751:0.00034936258 752:0.00099110464 753:5.4829863e-05 754:0.0015462076 755:0.00064245542 756:1.0560476e-05 757:0.00024602783 758:5.0872208e-05 759:0.00074732705 760:0.00021372538 761:0.00030854039 762:0.00026607598 763:0.00015879534 764:0.000203713 765:0.00061264948 766:7.587867e-05 767:0.00090722129 768:4.8949245e-05 769:4.8530634e-05 770:0.00021813152 771:0.031162426 772:9.3741575e-05 773:6.3530344e-05 774:7.4317926e-05 775:3.851952e-06 776:0.00057565141 777:0.00018597883 778:3.0328307e-05 779:2.5454861e-05 780:0.00029322712 781:3.2808515e-05 782:0.00064372004 783:0.0017517143 784:0.00012727134 785:1.7254544e-05 786:0.00036735419 787:0.0002957253 788:0.00088498008 789:0.00014883259 790:0.0005114784 791:0.0012290505 792:6.9092603e-05 793:1.5963598e-05 794:0.00034784462 795:0.033251368 796:0.0012030347 797:8.5657775e-05 798:0.0092635816 799:4.6555961e-05 800:0.00053671276 801:0.00012212008 802:0.00041953425 803:0.0001726294 804:0.00055053149 805:0.00061763573 806:5.9650734e-05 807:0.00030972023 808:2.2443772e-05 809:0.00010023835 810:0.00024496086 811:0.000523197 812:0.0025720184 813:0.00026015908 814:5.5810415e-05 815:0.00019910542 816:0.0001420904 817:0.0010660716 818:0.0002910812 819:0.00027943263 820:0.00016414383 821:0.0021760389 822:0.00022999731 823:0.0042755371 824:0.00017294445 825:0.00010248643 826:0.0001538208 827:0.0008629972 828:2.6341599e-05 829:6.024944e-05 830:1.6989485e-05 831:7.8699442e-05 832:0.00024628034 833:0.00017603849 834:5.1356157e-05 835:9.3320923e-05 836:0.00044225945 837:0.00012598763 838:0.00045100271 839:0.00037153755 840:0.00033980591 841:5.8157224e-05 842:0.00051654701 843:0.00043658208 844:1.5709287e-05 845:0.00061990198 846:0.00018033759 847:0.00028713222 848:0.00098116044 849:0.0003298044 850:0.00027470378 851:9.347497e-05 852:0.00036165371 853:7.090719e-05 854:0.0001415474 855:6.9115864e-05 856:0.00019213201 857:0.0008365477 858:4.2921624e-06 859:0.0011334622 860:0.0005113628 861:0.00011659793 862:0.003012374 863:0.0018431355 864:5.1678526e-05 865:6.1908162e-05 866:0.00015448211 867:0.00010404667 868:7.9462399e-05 869:0.00022768964 870:0.00097361178 871:0.00017552267 872:4.5545421e-05 873:0.00012690185 874:6.0049075e-05 875:0.015411786 876:0.0038441964 877:0.0013701135 878:0.0003560395 879:0.0020939857 880:8.2566534e-05 881:0.00010707932 882:6.9484573e-05 883:0.0021545724 884:0.00023607875 885:0.0013567702 886:0.00019078552 887:7.498826e-05 888:0.0003684097 889:0.0010988868 890:0.00053007557 891:6.7025911e-05 892:0.00031734878 893:8.8156512e-06 894:0.001529465 895:0.00044148305 896:0.00018772908 897:0.00014784932 898:0.00063511141 899:0.00030687096 900:0.0029573925 901:0.00053997157 902:0.0014575841 903:0.0044447067 904:0.00012136089 905:3.6284906e-05 906:0.00030619098 907:0.0002734657 908:0.00016867943 909:2.8794362e-05 910:0.00049156137 911:0.0024459783 912:0.00038393453 913:0.00034290357 914:4.1812367e-05 915:0.00014429346 916:0.00038737408 917:2.1007643e-05 918:0.0011309491 919:0.00012345935 920:9.1938753e-05 921:0.0026150583 922:1.0725716e-05 923:0.00096773769 924:0.0014046148 925:0.00019860314 926:0.0048306519 927:0.00020158385 928:0.0006107323 929:0.00011105076 930:0.00012865957 931:0.0004151233 932:3.0096911e-05 933:0.00086509722 934:0.00038675175 935:7.599208e-05 936:4.824085e-05 937:0.00051585957 938:0.00019649473 939:0.00028755958 940:0.00052179775 941:0.00037230423 942:0.00066106574 943:0.00037284536 944:0.00014746432 945:0.00015711313 946:7.164781e-05 947:0.00010508556 948:6.0155486e-05 949:9.7564778e-05 950:0.00063670601 951:6.2499064e-05 952:0.0011879908 953:0.00029198997 954:0.0015017681 955:0.001958858 956:2.1399419e-05 957:0.00045788568 958:2.2595394e-05 959:0.001558209 960:0.0001024011 961:0.00036797833 962:2.4032082e-05 963:0.00080995855 964:0.0007338369 965:0.00089865591 966:0.0012807189 967:0.00024998971 968:5.3747441e-05 969:0.00033224962 970:0.00011575628 971:0.00043695112 972:0.00042664562 973:0.00051513122 974:0.0013616564 975:6.5529261e-05 976:0.0026913811 977:0.0012822069 978:0.0012419549 979:0.00090888352 980:0.00067672407 981:0.00010758457 982:0.0029875564 983:0.001800004 984:3.0972165e-05 985:2.9027839e-05 986:0.00046316715 987:0.00011726474 988:0.0013686253 989:0.00010042589 990:0.00023612659 991:3.3813896e-05 992:0.00063442253 993:0.0018103229 994:6.7431887e-05 995:0.00020462033 996:0.00050583418 997:0.00056100928 998:5.6805897e-05 999:0.00061924756 
1 1:0.0014109983 2:0.00016281051 3:8.3076164e-05 4:0.00014726754 5:1.6156298e-05 6:3.0398749e-05 7:7.4862728e-05 8:0.0016462131 9:0.00027697705 10:0.00095375819 11:0.0005587106 12:0.00012424485 13:0.00011046499 14:0.0003877508 15:3.5148474e-05 16:4.9833552e-06 17:0.00032722874 18:0.00056975079 19:0.010344502 20:0.00024180462 21:1.7142991e-05 22:0.0015720645 23:6.4227024e-05 24:0.0020229302 25:0.00046722143 26:0.00022861334 27:2.7361941e-05 28:0.000412539 29:0.0002556126 30:0.00014742462 31:0.00017314419 32:0.0001261291 33:0.00010147606 34:5.6678637e-05 35:4.4583412e-05 36:1.5334394e-05 37:0.00016136588 38:5.6454195e-05 39:0.00072464946 40:0.00025719687 41:0.0032298975 42:0.0014841711 43:1.9941806e-05 44:7.3059906e-05 45:0.00067024329 46:0.012008349 47:0.00073194923 48:0.0013137033 49:0.00064785173 50:6.1185645e-05 51:2.2218514e-05 52:2.9109113e-05 53:9.7674798e-05 54:0.00082856679 55:0.0017645286 56:0.0023182293 57:0.00052246882 58:0.00057247921 59:0.00098160282 60:0.00032796059 61:2.4805508e-05 62:0.00055165216 63:8.0931481e-05 64:0.00013289499 65:0.00031211926 66:9.6912554e-05 67:0.00018706841 68:0.00087641837 69:0.0010318803 70:0.00016356466 71:0.00019401754 72:4.0681127e-05 73:8.3081592e-05 74:0.00038796608 75:0.00036690052 76:0.00021387989 77:0.00022195991 78:0.00023242162 79:0.00050679757 80:0.00043901065 81:0.0028287855 82:0.00029332802 83:0.00026808825 84:0.00069700222 85:0.00040138923 86:0.0010735261 87:3.324381e-05 88:0.0031006918 89:0.0029959716 90:0.00010241562 91:0.0003868872 92:3.3026383e-06 93:1.5756172e-05 94:0.0021782911 95:0.00017077591 96:0.00031029101 97:0.00059757195 98:4.1088457e-05 99:1.5428745e-05 100:0.00033409477 101:0.0032601338 102:0.0002145913 103:0.00092342769 104:8.1242426e-05 105:5.3201406e-05 106:0.00023479684 107:4.373222e-05 108:0.00018341004 109:0.00017943459 110:1.4303085e-05 111:0.00019006831 112:0.00019287136 113:0.00014109215 114:0.0001641329 115:0.00031556492 116:0.00019140785 117:2.5345342e-05 118:0.00045549689 119:9.9964294e-05 120:0.00030207034 121:0.0009090263 122:0.00031981681 123:0.00035502462 124:0.00041711837 125:0.00048148798 126:0.00015488024 127:0.00028984278 128:6.0344079e-05 129:0.0048376354 130:0.0003630963 131:0.00049715262 132:0.00027524785 133:0.0042360481 134:4.5250228e-05 135:0.0006067442 136:2.3167342e-05 137:0.0032944519 138:5.0360642e-05 139:0.00017622144 140:0.00029032165 141:0.00017529195 142:0.00035339437 143:0.00015280154 144:0.00010295609 145:0.00020872072 146:0.00027934648 147:0.00070270547 148:7.7860546e-05 149:0.00065584981 150:0.00015269592 151:0.001236235 152:0.00047424724 153:0.0011389535 154:0.00057135761 155:0.001034964 156:0.00027481164 157:0.00046307495 158:0.00027535128 159:0.00014206437 160:0.00051656761 161:0.00013102181 162:0.0018922244 163:0.0010281098 164:0.0098441774 165:0.0013665188 166:0.001349262 167:8.312978e-05 168:0.0011862481 169:0.0004587766 170:0.0012150285 171:0.00026529693 172:0.00021865664 173:4.6964386e-05 174:0.00087645225 175:0.00014165639 176:6.2138504e-05 177:0.00036887458 178:0.00037663348 179:0.0010261002 180:0.0010793457 181:2.4011482e-05 182:0.0015290395 183:0.0043074526 184:0.00018447159 185:0.00049306155 186:0.00026865298 187:0.00052322226 188:0.00019053473 189:0.00064208009 190:0.00054441829 191:0.0009994061 192:4.7227357e-05 193:0.00050147972 194:0.00017228701 195:0.001078377 196:0.00035558335 197:0.00063379039 198:0.00081526372 199:0.0010704693 200:4.887183e-06 201:5.1134339e-05 202:0.00017281969 203:2.0608231e-05 204:0.0001855406 205:0.0033991905 206:9.8921955e-05 207:0.00035253467 208:0.00022358794 209:3.3434575e-05 210:0.0043033944 211:0.00088192063 212:0.00024023598 213:0.0010103674 214:0.0003370039 215:0.00060738885 216:6.8968293e-05 217:0.00022106526 218:0.00030963568 219:1.8951761e-05 220:0.00043765915 221:0.001830334 222:0.00032333206 223:7.9597834e-05 224:0.0019419758 225:0.0044293175 226:4.7495829e-05 227:0.00015599102 228:2.9418752e-05 229:8.5101259e-05 230:1.6285281e-05 231:0.00024955254 232:3.4519137e-05 233:0.012005286 234:3.0070019e-05 235:0.00028759093 236:0.0010711163 237:0.00036919324 238:8.4799409e-05 239:0.00078256661 240:0.00023049011 241:0.00073976233 242:0.00010087865 243:0.00024006823 244:0.00027708444 245:0.00037099453 246:0.0001235526 247:0.0020548962 248:0.00010792479 249:0.00013566249 250:0.00034952548 251:0.0004230779 252:0.0079600196 253:4.0049315e-05 254:0.00017368018 255:0.00036428441 256:0.00013137021 257:0.0039294683 258:0.00045339623 259:8.9571702e-05 260:0.0001553242 261:1.9951527e-05 262:0.00021002351 263:0.00054495153 264:2.7971835e-05 265:0.0032054123 266:0.00043597928 267:0.00054288906 268:0.00045738957 269:2.3752433e-05 270:0.00019924318 271:0.0006641791 272:5.9128684e-05 273:5.8094491e-05 274:2.487193e-05 275:0.00037361393 276:0.00082983443 277:0.00027541511 278:0.00083110121 279:0.011049277 280:4.1126917e-05 281:0.000514657 282:0.00030219223 283:0.00088611065 284:0.00026547813 285:0.00075865741 286:5.3063122e-05 287:0.00016710578 288:8.7564309e-05 289:0.00036855947 290:0.00012828768 291:0.00073826464 292:0.0010292757 293:0.00024459185 294:2.154735e-05 295:0.010020034 296:8.1417245e-05 297:0.00056303752 298:0.00069033011 299:6.6387634e-05 300:0.00024988595 301:0.00121787 302:0.00026341242 303:0.0027392989 304:7.8161342e-05 305:0.00011749956 306:0.00047302162 307:7.0619957e-05 308:0.00026824398 309:0.00069643516 310:0.00025985105 311:0.0018543667 312:0.00039432396 313:5.3624422e-05 314:0.00025048162 315:0.00051362143 316:0.0016496414 317:4.9114864e-05 318:0.00024384548 319:2.6024649e-05 320:0.00010534652 321:7.0584574e-05 322:6.8222762e-05 323:0.00070368923 324:0.00038647142 325:0.00068153412 326:2.9914165e-05 327:0.00051186723 328:0.00023183796 329:0.00062288501 330:0.00068095559 331:0.00021490268 332:8.3709449e-05 333:0.0001105339 334:2.4808394e-05 335:0.00047686251 336:2.8524375e-05 337:0.00088320248 338:4.7058129e-05 339:0.00025918233 340:0.00014132365 341:0.00048807784 342:4.1166473e-05 343:2.1517308e-05 344:0.00019814829 345:0.00017597701 346:9.0236783e-05 347:0.00010833743 348:6.5296459e-05 349:8.5257634e-06 350:0.00019730032 351:0.00077451859 352:0.00031854687 353:2.1850821e-05 354:0.0013038288 355:8.9718618e-05 356:0.00011981601 357:0.00034846892 358:0.00011399168 359:0.0001710738 360:0.00015798994 361:0.0010423515 362:0.00017837498 363:0.00014870557 364:7.2318893e-05 365:0.0018098012 366:0.0006654021 367:3.1976175e-05 368:0.00045445835 369:0.00011896888 370:0.00055815245 371:4.9052043e-05 372:0.087816916 373:6.5272216e-05 374:0.00037224538 375:0.00011779807 376:0.001715962 377:0.016323844 378:0.00047254658 379:9.5737014e-05 380:0.00036768199 381:4.9834049e-05 382:0.0032662426 383:0.0006269982 384:4.1546205e-05 385:1.2278774e-05 386:0.00010793153 387:3.9180046e-05 388:0.00050920347 389:9.5985852e-05 390:0.0001746651 391:1.3118628e-05 392:2.193308e-05 393:0.00023514933 394:0.0055278814 395:0.0016732506 396:0.0012678843 397:0.00022148321 398:8.0971004e-05 399:0.00026149902 400:3.2487809e-05 401:0.00057876145 402:0.00026688355 403:0.00024960513 404:4.7175501e-05 405:0.0053166579 406:0.0042322655 407:6.6478453e-05 408:0.00053825241 409:0.0022530449 410:0.00024796167 411:0.0017911914 412:0.0020786985 413:0.00085232925 414:7.1294649e-05 415:3.4056968e-05 416:3.6975223e-05 417:0.00023665755 418:0.00026444538 419:0.00027873722 420:0.00024080095 421:6.5767148e-05 422:0.00053614582 423:0.00010966755 424:0.00014370086 425:0.15369606 426:0.0084297778 427:0.00031818813 428:5.9376383e-05 429:0.00033427263 430:2.2663973e-05 431:0.00042846365 432:0.0002000105 433:0.0015873632 434:0.00053286005 435:0.000259989 436:0.00012030991 437:0.0011651749 438:0.00081480201 439:0.0012553484 440:0.00048186028 441:0.00047521613 442:0.00096638728 443:0.00048238607 444:0.00061619352 445:0.00041288813 446:6.182363e-05 447:2.9471459e-05 448:3.6186892e-05 449:0.00034755652 450:0.00019642123 451:0.00060372427 452:4.6741774e-05 453:6.0734132e-05 454:0.00043742007 455:0.00014343545 456:0.00091821846 457:0.00095279363 458:2.8293112e-05 459:0.0001146931 460:0.00043193492 461:0.0015131199 462:0.00016437931 463:0.0023064304 464:0.00046338639 465:1.6176666e-05 466:0.00097242661 467:0.00074335956 468:0.00036259799 469:0.0011285327 470:3.9456962e-05 471:0.00014583819 472:0.00035900937 473:0.021724647 474:9.0161549e-05 475:0.00060165458 476:0.0002557518 477:0.00063965429 478:0.00083041238 479:0.00029832427 480:0.00012694194 481:0.0010472677 482:0.0013445023 483:0.00086341152 484:0.00023024701 485:0.00038320906 486:0.00033054335 487:0.00034626888 488:0.00062861748 489:0.000182416 490:5.9565107e-05 491:3.2191518e-05 492:0.0002437354 493:0.0011173476 494:0.0030397759 495:0.00014926324 496:7.0510259e-06 497:0.00049495051 498:2.0152431e-05 499:0.00022791162 500:9.2371753e-05 501:0.002016641 502:0.0015499518 503:2.8920622e-05 504:0.001648818 505:0.00020335763 506:0.00039787099 507:0.00015227552 508:0.00088043528 509:0.00010955099 510:0.00011188319 511:0.0011450491 512:0.00023804103 513:0.0009494244 514:6.7038105e-05 515:1.4687838e-05 516:0.0013762538 517:9.5291311e-05 518:0.00029166703 519:0.00089625578 520:0.00034373414 521:0.00048713433 522:0.0002792546 523:3.2544001e-05 524:0.001594606 525:0.00048880454 526:2.3926083e-05 527:0.00037276882 528:8.9368761e-05 529:0.00023915088 530:2.6998043e-05 531:0.00040070503 532:0.00045723058 533:5.0980329e-05 534:0.00059688505 535:0.0001373229 536:0.00057420105 537:0.00022785086 538:0.00070710294 539:0.00076214224 540:0.00025007714 541:0.00012775407 542:1.0178053e-05 543:7.3999159e-05 544:0.00042273852 545:0.001514521 546:2.5115698e-05 547:0.0042004101 548:0.00012944307 549:0.0011881837 550:1.6813758e-05 551:0.0054485858 552:0.00054349203 553:0.00019903331 554:1.0727145e-05 555:5.917847e-05 556:0.00014273719 557:0.00024517172 558:0.00015358125 559:0.00034892964 560:8.1508995e-05 561:0.00088758866 562:0.00071939977 563:0.00029333195 564:4.8842358e-05 565:0.00027134761 566:0.00032629617 567:0.00010753259 568:0.0001602632 569:9.9375538e-05 570:4.823886e-05 571:0.00010463662 572:0.0014181875 573:0.00039157466 574:6.1212835e-05 575:6.7180859e-05 576:0.0001027947 577:0.00035930923 578:6.2417952e-05 579:0.00015209998 580:0.0002080268 581:0.00038454955 582:0.00011671795 583:0.00027791757 584:0.00065268105 585:0.00019401597 586:0.00012090295 587:0.00050243398 588:0.00032457401 589:0.00010412814 590:0.0046159523 591:0.00089487946 592:8.5665313e-05 593:3.8181483e-05 594:0.00061044015 595:8.3943487e-05 596:0.00026687109 597:0.00060919585 598:0.0008328039 599:0.00021743309 600:9.0359834e-05 601:3.3693657e-05 602:0.00091559958 603:4.7499772e-05 604:0.0016665483 605:0.00011898443 606:0.0016470987 607:7.6675919e-05 608:0.0021644274 609:0.002762303 610:0.00018743744 611:0.00035810881 612:0.00083116465 613:0.00017632198 614:0.0001127657 615:6.5618297e-05 616:0.000452793 617:0.0022876437 618:0.0011528435 619:0.0021847363 620:0.00046446637 621:0.0002385386 622:3.0097275e-05 623:0.00010237251 624:9.7793541e-05 625:0.0009776986 626:0.00021311209 627:0.0001372672 628:0.00010395177 629:0.00010133463 630:0.00096487929 631:0.00014021322 632:0.00029472669 633:0.0013665128 634:0.00058124086 635:0.0002444096 636:0.00015803012 637:5.4289449e-05 638:0.00099156727 639:0.00040638706 640:0.0010237261 641:0.00051896146 642:0.00020839724 643:4.2447646e-05 644:7.6956894e-05 645:0.00052561035 646:0.0015557578 647:0.00031132696 648:0.00040412345 649:0.00011873233 650:0.0081898756 651:4.7425176e-05 652:0.00083061983 653:0.0005910811 654:0.00074353325 655:0.0006332089 656:9.8710998e-06 657:0.00058854203 658:5.9138158e-05 659:7.690605e-05 660:0.00062146125 661:1.3766402e-05 662:4.5819743e-05 663:0.00047137766 664:0.00055506628 665:0.00063132762 666:0.0010401519 667:0.00065327261 668:0.00075314153 669:0.0019942757 670:0.00016285616 671:0.00089696381 672:0.00027231846 673:0.00015188848 674:0.00012868825 675:0.0016684645 676:0.00095051969 677:4.9602382e-05 678:1.5830472e-05 679:4.9599072e-05 680:0.00048944243 681:0.0010556134 682:0.00015349478 683:0.00015143708 684:0.0011350478 685:0.0010499989 686:0.0010409692 687:0.00014045392 688:2.910581e-05 689:0.0016040885 690:0.00029154858 691:0.00074570294 692:0.00037523612 693:0.00019625852 694:0.00028947426 695:0.00062627095 696:0.0009736208 697:0.00018000181 698:0.00019618029 699:7.9218888e-05 700:0.00016650281 701:0.00015337671 702:0.001095952 703:0.00026859317 704:8.6932396e-06 705:0.0001099344 706:0.0014304586 707:2.5710538e-05 708:0.0020112421 709:6.373888e-05 710:2.0929328e-05 711:0.00063564751 712:5.6331224e-05 713:0.00022920035 714:0.0038544596 715:4.0761865e-05 716:0.00011373053 717:5.6308105e-05 718:4.3211348e-05 719:7.5144089e-05 720:6.0085462e-05 721:0.00045558528 722:0.0010571129 723:0.00072498055 724:0.00043194977 725:0.00036025862 726:3.8062706e-05 727:0.0002290191 728:0.00061703293 729:0.00026790498 730:0.00093409233 731:6.9382455e-05 732:8.4835519e-05 733:0.0018138054 734:0.00027965475 735:0.0001466508 736:0.00025731671 737:0.00032737263 738:0.00034050003 739:7.619692e-05 740:0.0058806236 741:0.0049033244 742:0.00057412498 743:1.8593604e-05 744:2.001579e-05 745:0.00017487509 746:0.00035531065 747:9.403775e-05 748:0.00026295034 749:0.0020434523 750:0.00012712355 751:0.00036283425 752:0.00091209996 753:5.639777e-05 754:0.0020038835 755:0.00063575117 756:1.1260117e-05 757:0.00026758134 758:6.4345499e-05 759:0.00080256071 760:0.00021427096 761:0.00031590051 762:0.00026092122 763:0.00015941552 764:0.00020374937 765:0.00067258108 766:7.8854748e-05 767:0.00094844663 768:4.7782687e-05 769:4.9802886e-05 770:0.0002417607 771:0.032112014 772:0.0001041405 773:6.7165543e-05 774:7.1862734e-05 775:3.8547296e-06 776:0.0005735766 777:0.00017199948 778:3.0416903e-05 779:2.6517169e-05 780:0.00030422694 781:3.2038231e-05 782:0.00069808122 783:0.001851437 784:0.00013820737 785:1.7085817e-05 786:0.00037741315 787:0.00027939354 788:0.00086775562 789:0.0001697413 790:0.00060446979 791:0.0013060133 792:7.2541043e-05 793:1.6391157e-05 794:0.00035460517 795:0.027410144 796:0.001228762 797:9.368985e-05 798:0.0086028799 799:5.1459909e-05 800:0.00057709473 801:0.00012513282 802:0.00048198001 803:0.00018465085 804:0.00057949929 805:0.00062346086 806:5.7267716e-05 807:0.00028496643 808:2.2878747e-05 809:7.2572177e-05 810:0.00023261554 811:0.0005000055 812:0.0024755031 813:0.00028939769 814:5.1177663e-05 815:0.00019343899 816:0.00013504752 817:0.0011895709 818:0.00033298717 819:0.00027434135 820:0.00017958197 821:0.0019945363 822:0.0002790681 823:0.0047743223 824:0.00018551282 825:0.00010258943 826:0.00018236128 827:0.00094325852 828:2.3294931e-05 829:6.51804e-05 830:1.771678e-05 831:7.7985736e-05 832:0.00027802002 833:0.00015325607 834:4.8133898e-05 835:9.2749906e-05 836:0.00049258448 837:0.00013228387 838:0.00051938725 839:0.00039851372 840:0.00035590123 841:6.2074272e-05 842:0.00047926634 843:0.00043745805 844:1.5376774e-05 845:0.00062745251 846:0.00017961331 847:0.00026854835 848:0.0010363295 849:0.00035351253 850:0.00028454766 851:9.9675519e-05 852:0.00039372404 853:6.5360196e-05 854:0.00014082632 855:6.9813286e-05 856:0.00019187463 857:0.00092179998 858:4.2027455e-06 859:0.0012538864 860:0.00051785522 861:0.00011160382 862:0.0027585672 863:0.0017810564 864:5.2023024e-05 865:6.6962581e-05 866:0.0001733746 867:9.8274555e-05 868:7.5952965e-05 869:0.00023208992 870:0.0010410282 871:0.00019741154 872:4.7367954e-05 873:0.00012879941 874:5.6328379e-05 875:0.016358271 876:0.0038836424 877:0.00142209 878:0.00039575671 879:0.0020117869 880:7.8223115e-05 881:0.00011193628 882:6.7638968e-05 883:0.0023173662 884:0.00022341678 885:0.0013842774 886:0.00017449503 887:7.9478603e-05 888:0.00035713665 889:0.0010571765 890:0.00060005038 891:6.6221743e-05 892:0.00029308881 893:9.6044141e-06 894:0.0018383538 895:0.00043067095 896:0.0001761712 897:0.00015213632 898:0.00071084226 899:0.00030444952 900:0.0028809793 901:0.00056339771 902:0.001376169 903:0.004598896 904:0.00011200735 905:3.6768426e-05 906:0.00034994486 907:0.00028978102 908:0.00016625503 909:2.8914166e-05 910:0.00050074683 911:0.0025931338 912:0.00037399662 913:0.00034921576 914:4.3711996e-05 915:0.00016841407 916:0.00034310386 917:2.5108202e-05 918:0.0012551032 919:0.00013619794 920:0.00011167696 921:0.0024131821 922:1.1008113e-05 923:0.00092076894 924:0.0012990324 925:0.00023277364 926:0.0048734345 927:0.00019289776 928:0.00058889209 929:0.00012564905 930:0.00013311887 931:0.00044084637 932:2.911933e-05 933:0.0008940844 934:0.00038066154 935:7.8796867e-05 936:5.2791042e-05 937:0.00054206804 938:0.00017776016 939:0.00029663599 940:0.00054096029 941:0.00044712215 942:0.00060605258 943:0.0004179719 944:0.00013826643 945:0.00015600129 946:7.455227e-05 947:0.00011622777 948:6.0813967e-05 949:0.00010121964 950:0.0007032592 951:6.183557e-05 952:0.0010596146 953:0.00029298905 954:0.001313712 955:0.0023326634 956:2.2550419e-05 957:0.00043481437 958:2.2769305e-05 959:0.0016860982 960:0.00012185887 961:0.00042580327 962:2.4176647e-05 963:0.00082750031 964:0.00067872013 965:0.00090032368 966:0.0013001999 967:0.00026449142 968:4.9735012e-05 969:0.00033165986 970:0.00011735583 971:0.00044978896 972:0.00038744474 973:0.00054350554 974:0.0015373315 975:6.9188623e-05 976:0.0029145684 977:0.0013629493 978:0.0011791975 979:0.00088436733 980:0.00074482703 981:0.00011463909 982:0.0034273497 983:0.0018258482 984:3.0676962e-05 985:2.7434291e-05 986:0.00045776507 987:0.00012373662 988:0.0015855796 989:8.7518471e-05 990:0.00026012564 991:3.5137149e-05 992:0.00060266641 993:0.0016068055 994:5.6984478e-05 995:0.00021832252 996:0.00060282997 997:0.0005824244 998:5.7179066e-05 999:0.00066219602 
1 1:0.0013206508 2:0.00015839899 3:8.7094406e-05 4:0.00012982622 5:1.7134096e-05 6:3.1046588e-05 7:6.7737463e-05 8:0.0016309323 9:0.00027719594 10:0.00098839472 11:0.00055777159 12:0.00013075628 13:0.00011305301 14:0.00037801178 15:3.8450489e-05 16:5.0410099e-06 17:0.00034346734 18:0.00060983986 19:0.0096422974 20:0.00024795075 21:1.7570941e-05 22:0.0015561144 23:6.622928e-05 24:0.0019634666 25:0.00045206695 26:0.00023126641 27:2.7800033e-05 28:0.00044914157 29:0.00025479091 30:0.00015155523 31:0.00018644163 32:0.00012278906 33:0.00011265125 34:5.2246949e-05 35:4.2302963e-05 36:1.5701613e-05 37:0.00014940542 38:5.6817844e-05 39:0.00070581998 40:0.00025469105 41:0.0037156008 42:0.0013950223 43:2.0574844e-05 44:7.7153934e-05 45:0.00064380479 46:0.011925157 47:0.00071794185 48:0.001405808 49:0.00064391625 50:6.5141423e-05 51:2.2458878e-05 52:2.9695577e-05 53:0.00010088959 54:0.00082413218 55:0.0016870493 56:0.0023975074 57:0.00055273814 58:0.00051630108 59:0.00098643324 60:0.00033725396 61:2.5376705e-05 62:0.00059248565 63:8.3412073e-05 64:0.00014246104 65:0.00032059557 66:0.00010427603 67:0.00019919449 68:0.00092705723 69:0.0010130988 70:0.00015720342 71:0.00020679289 72:4.226292e-05 73:8.8683963e-05 74:0.0004229671 75:0.00037156735 76:0.00022518908 77:0.0002134782 78:0.0002167732 79:0.00050894241 80:0.00043888163 81:0.0028972044 82:0.00029689277 83:0.00027541516 84:0.00073442992 85:0.00043364876 86:0.00105299 87:3.2761567e-05 88:0.0033205377 89:0.0028111362 90:0.00010966527 91:0.00038183204 92:3.6268921e-06 93:1.5770391e-05 94:0.0022031732 95:0.0001813389 96:0.00030914848 97:0.00063492852 98:4.0902782e-05 99:1.6699685e-05 100:0.00031106532 101:0.0032221745 102:0.00020266496 103:0.00087311002 104:8.1368133e-05 105:5.8182191e-05 106:0.00023519223 107:4.615678e-05 108:0.0001923966 109:0.00018167385 110:1.3597091e-05 111:0.00018699952 112:0.00019079643 113:0.00013950137 114:0.0001681486 115:0.00032736443 116:0.00019357025 117:2.6216905e-05 118:0.00047880801 119:9.9482291e-05 120:0.00031481686 121:0.00093065633 122:0.0003295551 123:0.00035450907 124:0.00045592725 125:0.00048926845 126:0.00015982336 127:0.00028607869 128:6.4320426e-05 129:0.0050113536 130:0.00039086738 131:0.00053019286 132:0.00026761842 133:0.0039507202 134:5.006832e-05 135:0.00060975988 136:2.2325219e-05 137:0.0033224674 138:5.4837863e-05 139:0.00018031972 140:0.00028341528 141:0.00018122869 142:0.00040590129 143:0.00015502937 144:0.00010611484 145:0.0002172979 146:0.00029664894 147:0.00068947073 148:7.6735814e-05 149:0.00072451076 150:0.00016514678 151:0.0012786681 152:0.00044092871 153:0.0011454558 154:0.0006008459 155:0.00096768793 156:0.00028017914 157:0.00050132704 158:0.00027375444 159:0.00016349087 160:0.00052915962 161:0.00012184676 162:0.0017753191 163:0.0010459101 164:0.010693083 165:0.0012704828 166:0.001332031 167:8.7972876e-05 168:0.0011675456 169:0.00047252103 170:0.0012247335 171:0.00028371616 172:0.00022440776 173:4.4966764e-05 174:0.00085134775 175:0.00013981322 176:6.1801802e-05 177:0.00036993364 178:0.00038727306 179:0.0010328389 180:0.0011074765 181:2.5530946e-05 182:0.0015196133 183:0.0038861812 184:0.00018398681 185:0.00052728161 186:0.00025985189 187:0.00053062203 188:0.00019533063 189:0.00060051365 190:0.00054928759 191:0.0009972523 192:4.9893722e-05 193:0.00050824223 194:0.00016625096 195:0.0010887648 196:0.00038546167 197:0.00065744505 198:0.00078581594 199:0.0010387322 200:5.3105996e-06 201:4.7099154e-05 202:0.00017217809 203:1.9466683e-05 204:0.000185479 205:0.0030399812 206:9.3464681e-05 207:0.00039679874 208:0.00022281105 209:3.6511767e-05 210:0.0044015124 211:0.00095066318 212:0.00023141269 213:0.0010761932 214:0.00035396704 215:0.00065870455 216:7.4085998e-05 217:0.00024599972 218:0.00030485971 219:1.9801224e-05 220:0.00043065482 221:0.001768655 222:0.00030301666 223:8.040433e-05 224:0.0020480249 225:0.0044189873 226:4.6998426e-05 227:0.00014994599 228:3.1025484e-05 229:8.3950908e-05 230:1.5583404e-05 231:0.00027488291 232:3.3811819e-05 233:0.01126554 234:3.0369014e-05 235:0.00029862352 236:0.0010140088 237:0.00038446786 238:8.844852e-05 239:0.00076572318 240:0.00024321767 241:0.00073359488 242:9.7181764e-05 243:0.00024930117 244:0.00026420108 245:0.00036201917 246:0.00012049728 247:0.0019073951 248:0.00010324046 249:0.00014488924 250:0.00036640759 251:0.00042646582 252:0.0078091975 253:4.1597814e-05 254:0.00017722073 255:0.00035816611 256:0.00012625007 257:0.0039183139 258:0.00044617004 259:9.4381081e-05 260:0.0001593293 261:2.0510115e-05 262:0.00021822807 263:0.00053003436 264:2.728634e-05 265:0.0029669884 266:0.00050939497 267:0.00052630017 268:0.00045789397 269:2.4453953e-05 270:0.00019057695 271:0.00072713732 272:5.991356e-05 273:5.8233567e-05 274:2.5204714e-05 275:0.00039947784 276:0.00086635427 277:0.00028226784 278:0.00092684332 279:0.0097655253 280:4.3888136e-05 281:0.00050309388 282:0.00030500599 283:0.00077241729 284:0.00028665754 285:0.00069412356 286:5.3172535e-05 287:0.00018450092 288:9.6440672e-05 289:0.00035806367 290:0.00012695034 291:0.00076298602 292:0.00096870912 293:0.00026730442 294:2.2166867e-05 295:0.0093842307 296:8.3802537e-05 297:0.00053463591 298:0.00070779095 299:6.6724569e-05 300:0.00020734355 301:0.0011648381 302:0.00023867167 303:0.0027116046 304:8.0418053e-05 305:0.00011660878 306:0.0004947696 307:7.4329808e-05 308:0.00028279796 309:0.00077241729 310:0.00025616772 311:0.0018289081 312:0.00035680755 313:5.3990207e-05 314:0.00022498517 315:0.00052926055 316:0.0014883587 317:5.1741819e-05 318:0.00022779673 319:2.6045947e-05 320:9.8244083e-05 321:7.8935387e-05 322:6.9485475e-05 323:0.00073831237 324:0.00037435142 325:0.00082906452 326:3.0453906e-05 327:0.00052023807 328:0.00051043101 329:0.00062640192 330:0.00069179997 331:0.00022823479 332:8.1063277e-05 333:0.00011187714 334:2.747343e-05 335:0.00048210865 336:3.326873e-05 337:0.0009376863 338:5.3263633e-05 339:0.00025988769 340:0.00015273987 341:0.00049131952 342:4.0652227e-05 343:2.1610793e-05 344:0.00020060388 345:0.00018839563 346:9.4416821e-05 347:0.00012149216 348:6.5972396e-05 349:8.0114123e-06 350:0.00021385099 351:0.0007283595 352:0.00031792675 353:2.181076e-05 354:0.0013625416 355:9.4614981e-05 356:0.00011806043 357:0.00034858135 358:0.00012145694 359:0.00016778594 360:0.00015953009 361:0.0010737419 362:0.00018545352 363:0.00015637043 364:7.4089286e-05 365:0.001820713 366:0.00069769844 367:2.9713481e-05 368:0.00047958561 369:0.0001155637 370:0.00053758052 371:5.5240485e-05 372:0.092041366 373:6.4532243e-05 374:0.00034765012 375:0.00012425974 376:0.0016706983 377:0.015090968 378:0.00050030806 379:9.598305e-05 380:0.00034735119 381:5.1249081e-05 382:0.0033694576 383:0.0006590219 384:4.647587e-05 385:1.294723e-05 386:9.736768e-05 387:3.7008413e-05 388:0.00050319103 389:9.6366937e-05 390:0.00018381553 391:1.3286017e-05 392:2.3080647e-05 393:0.00021559095 394:0.005811411 395:0.0016882516 396:0.0012589588 397:0.00023226625 398:7.607579e-05 399:0.00026374316 400:3.3841272e-05 401:0.00063043763 402:0.00026837137 403:0.00028297654 404:5.0727136e-05 405:0.0060814959 406:0.0047300323 407:6.527525e-05 408:0.00056114944 409:0.0021168988 410:0.00023956251 411:0.0018138095 412:0.0020686677 413:0.00079921674 414:7.3888499e-05 415:3.4564622e-05 416:3.6404988e-05 417:0.00026249478 418:0.00025153722 419:0.00029865318 420:0.00025052766 421:6.9231275e-05 422:0.00053830777 423:0.00011124925 424:0.00014699991 425:0.14666729 426:0.0083648851 427:0.00033255597 428:6.0100152e-05 429:0.00034055114 430:2.443393e-05 431:0.00046297547 432:0.0001949813 433:0.0015887526 434:0.00052029837 435:0.000260578 436:0.00011863621 437:0.0011372747 438:0.00077546929 439:0.001277833 440:0.00049193134 441:0.00048494342 442:0.00097830605 443:0.00049532036 444:0.00064124132 445:0.00045380255 446:5.8067311e-05 447:3.0549432e-05 448:3.5246314e-05 449:0.00038699748 450:0.00019441721 451:0.00060500862 452:4.9181359e-05 453:6.2845131e-05 454:0.00046030511 455:0.00014764199 456:0.00093455857 457:0.00099099078 458:2.9252733e-05 459:0.00011367233 460:0.00040471848 461:0.0015133959 462:0.0001658345 463:0.0022845517 464:0.0004835538 465:1.6659345e-05 466:0.00098958495 467:0.00083423575 468:0.00035791157 469:0.0010693951 470:4.3206437e-05 471:0.00015648962 472:0.00034625677 473:0.023307217 474:9.1538896e-05 475:0.00067999045 476:0.0002454202 477:0.00066667574 478:0.00088264665 479:0.0002907702 480:0.00012897541 481:0.00098585396 482:0.0013243178 483:0.00086138805 484:0.00023762103 485:0.00039351056 486:0.00033486204 487:0.00037944113 488:0.00060992618 489:0.00018284685 490:6.0483584e-05 491:3.3164288e-05 492:0.00027467665 493:0.0010595018 494:0.0030246356 495:0.00016128723 496:7.4060954e-06 497:0.00049852394 498:2.230996e-05 499:0.00023868465 500:9.3680275e-05 501:0.001937409 502:0.0014359851 503:3.1167685e-05 504:0.0015152335 505:0.00020328206 506:0.00040402936 507:0.00016358578 508:0.00090169365 509:0.00011119139 510:0.00011334282 511:0.0011710672 512:0.00026654726 513:0.00095240143 514:6.6931534e-05 515:1.5423901e-05 516:0.0012933958 517:9.1691181e-05 518:0.00027189593 519:0.00092368206 520:0.00034922466 521:0.00052514276 522:0.00026661894 523:3.0993429e-05 524:0.0015386116 525:0.00050208281 526:2.3653509e-05 527:0.00037502035 528:8.9951456e-05 529:0.00025770062 530:2.8039563e-05 531:0.00039353233 532:0.00049590477 533:5.5142926e-05 534:0.00059448928 535:0.00013242559 536:0.00057296769 537:0.00022121896 538:0.00071021635 539:0.00076913118 540:0.00025842912 541:0.00013936454 542:1.0523073e-05 543:7.1199043e-05 544:0.00042015131 545:0.0015300281 546:2.5390698e-05 547:0.0044847294 548:0.00013222871 549:0.0011865449 550:1.8044597e-05 551:0.0053420602 552:0.00055328931 553:0.00019690479 554:1.1065707e-05 555:6.2017541e-05 556:0.00014976377 557:0.00022502078 558:0.00016908666 559:0.00035593598 560:7.6397439e-05 561:0.0010541896 562:0.0007376438 563:0.00030949255 564:5.4545988e-05 565:0.00028204921 566:0.00033240381 567:0.00011438401 568:0.00016148816 569:0.00010151563 570:5.419684e-05 571:0.0001069389 572:0.0014037028 573:0.00041242974 574:6.6932465e-05 575:7.2180897e-05 576:0.00010327163 577:0.0003768621 578:6.5816515e-05 579:0.00016308576 580:0.00020390756 581:0.00039293585 582:0.00012237149 583:0.00027322353 584:0.00070236361 585:0.00019407783 586:0.00013961183 587:0.000506891 588:0.00033635239 589:0.00011291747 590:0.0042612716 591:0.00092371198 592:9.0581467e-05 593:4.0185583e-05 594:0.00062160398 595:8.3256586e-05 596:0.00025228522 597:0.00064514065 598:0.00080950448 599:0.00021984174 600:8.5087457e-05 601:3.5839523e-05 602:0.00085267948 603:5.0044095e-05 604:0.0018055374 605:0.00013295478 606:0.0016453291 607:8.3366707e-05 608:0.0022777435 609:0.0028131665 610:0.00018814068 611:0.00038045371 612:0.00083155651 613:0.00017718373 614:0.00011549402 615:6.9451358e-05 616:0.00048975751 617:0.0024640791 618:0.0010968243 619:0.0021324146 620:0.00049734977 621:0.00023436837 622:3.2006708e-05 623:0.00010903757 624:9.9459001e-05 625:0.0010231461 626:0.00019745351 627:0.00014256318 628:0.00010979838 629:0.00010214024 630:0.00099517545 631:0.00015558746 632:0.00027873917 633:0.0013657673 634:0.00054194877 635:0.00025154778 636:0.00015686189 637:5.9285387e-05 638:0.0010223297 639:0.00040651896 640:0.00099960936 641:0.00052393525 642:0.00021643359 643:4.1183543e-05 644:7.5040698e-05 645:0.00050238764 646:0.001540488 647:0.00029565438 648:0.00043672408 649:0.0001216053 650:0.0086596133 651:4.9560618e-05 652:0.00088230998 653:0.0005736071 654:0.00070546265 655:0.00063505204 656:9.7581624e-06 657:0.00060960115 658:5.8369817e-05 659:7.5023381e-05 660:0.00060348783 661:1.4787357e-05 662:4.6134162e-05 663:0.00047981273 664:0.00050523807 665:0.00060640706 666:0.0010627684 667:0.00063917128 668:0.00078629301 669:0.001989569 670:0.00016683775 671:0.00090830645 672:0.00027797584 673:0.00015862045 674:0.00013195592 675:0.0016091221 676:0.00099131267 677:5.4517801e-05 678:1.6891701e-05 679:4.8860984e-05 680:0.00046953023 681:0.0010916791 682:0.00016649514 683:0.00014421223 684:0.001289753 685:0.00096242817 686:0.00096886902 687:0.00013686325 688:2.9359411e-05 689:0.0017615312 690:0.00028036637 691:0.00072473777 692:0.0003936181 693:0.00018537643 694:0.00025750682 695:0.00061163143 696:0.00097112102 697:0.00018626648 698:0.00020194032 699:7.6547527e-05 700:0.00016699918 701:0.00015523554 702:0.0010497883 703:0.00024662347 704:8.5536558e-06 705:0.00010596831 706:0.0015247596 707:2.8192508e-05 708:0.0020268846 709:6.5731838e-05 710:2.0882671e-05 711:0.00069380552 712:5.602383e-05 713:0.00023071162 714:0.0037223077 715:4.2199445e-05 716:0.00011601545 717:6.2373278e-05 718:4.4769677e-05 719:7.3102616e-05 720:5.8034591e-05 721:0.00050208927 722:0.0011031368 723:0.00070059276 724:0.00041937848 725:0.00035657606 726:3.9658291e-05 727:0.00022424827 728:0.00059899309 729:0.00028406052 730:0.00091489626 731:7.1925038e-05 732:8.6210013e-05 733:0.0018984627 734:0.00028698563 735:0.00014007674 736:0.00024633683 737:0.0003298785 738:0.00034419904 739:7.2899122e-05 740:0.0058787228 741:0.0065470957 742:0.00057690422 743:1.9814146e-05 744:1.9316703e-05 745:0.00018705944 746:0.00035223653 747:9.3143542e-05 748:0.00027288019 749:0.001971785 750:0.00012133058 751:0.00035128783 752:0.00093647453 753:5.7767691e-05 754:0.0017603732 755:0.00066164572 756:1.1608069e-05 757:0.0002593493 758:5.4731467e-05 759:0.00079271512 760:0.00023206088 761:0.00030921923 762:0.00027179002 763:0.00015740677 764:0.00020846428 765:0.00064357242 766:8.0063677e-05 767:0.00096067711 768:5.077527e-05 769:4.972898e-05 770:0.00022838077 771:0.031187847 772:0.00010200981 773:6.5775668e-05 774:7.7180499e-05 775:3.9828678e-06 776:0.00059564499 777:0.00018535097 778:3.1760203e-05 779:2.6537657e-05 780:0.00031250413 781:3.3917586e-05 782:0.00068062299 783:0.0017398585 784:0.00013618609 785:1.7862201e-05 786:0.00036936326 787:0.00028147094 788:0.0008627327 789:0.0001595838 790:0.00056933303 791:0.0013003397 792:7.3022245e-05 793:1.6060727e-05 794:0.00033782842 795:0.030114973 796:0.0012557758 797:8.9897097e-05 798:0.0088388296 799:4.9990977e-05 800:0.00055288814 801:0.00013208864 802:0.00044208975 803:0.0001789715 804:0.00056009833 805:0.00065864145 806:5.9822953e-05 807:0.00031420466 808:2.3433831e-05 809:0.00014543536 810:0.00024916453 811:0.00053885044 812:0.0024788477 813:0.00027556624 814:5.5874374e-05 815:0.00019757633 816:0.00014586945 817:0.001168279 818:0.00032879369 819:0.00028384171 820:0.00017702876 821:0.0020705338 822:0.00024827881 823:0.004460332 824:0.000181219 825:0.00010734444 826:0.00017239102 827:0.00090561993 828:2.6263877e-05 829:6.3662956e-05 830:1.7462175e-05 831:8.0877719e-05 832:0.00026710235 833:0.00017918659 834:5.2389198e-05 835:9.4501047e-05 836:0.00044262045 837:0.00013480643 838:0.00051241094 839:0.00041187377 840:0.00036163942 841:6.0873637e-05 842:0.00047742028 843:0.00043153009 844:1.5475853e-05 845:0.00060301065 846:0.00019366672 847:0.00027586549 848:0.001066818 849:0.00034302016 850:0.00029213604 851:9.851838e-05 852:0.00040549599 853:7.0315575e-05 854:0.00014966489 855:7.4180774e-05 856:0.00020886914 857:0.00090741727 858:4.5282959e-06 859:0.0011835151 860:0.00050834747 861:0.00011962531 862:0.0027961151 863:0.00177537 864:5.1142426e-05 865:6.7530382e-05 866:0.00016876768 867:0.00010269767 868:8.4829189e-05 869:0.00023606085 870:0.001061931 871:0.00018837489 872:4.9283884e-05 873:0.0001349501 874:5.8983282e-05 875:0.015497063 876:0.0040364354 877:0.0013908676 878:0.00037132733 879:0.0020602185 880:8.0864644e-05 881:0.00010886188 882:7.1466668e-05 883:0.0022158753 884:0.0002364441 885:0.0013721959 886:0.00018554649 887:7.7627912e-05 888:0.00037708823 889:0.0010878944 890:0.00058636704 891:6.9896145e-05 892:0.0003373849 893:9.3956878e-06 894:0.0016479932 895:0.00042980138 896:0.00018902741 897:0.00015773294 898:0.00066695432 899:0.00031259577 900:0.0029394785 901:0.00055466237 902:0.0014340192 903:0.0045173103 904:0.00012289309 905:3.9325205e-05 906:0.00031994027 907:0.00027967777 908:0.00018059429 909:2.9871368e-05 910:0.00050313753 911:0.002529393 912:0.00040194864 913:0.00036055964 914:4.4103592e-05 915:0.00015883986 916:0.00038146263 917:2.2080994e-05 918:0.0012195831 919:0.00013017609 920:0.00010183324 921:0.0026204118 922:1.131631e-05 923:0.00095668179 924:0.0013674701 925:0.00021753075 926:0.0047819195 927:0.00020675325 928:0.00061071309 929:0.00012017733 930:0.00013516629 931:0.00043345007 932:3.1074225e-05 933:0.00092523597 934:0.00039077605 935:7.7863282e-05 936:5.0393519e-05 937:0.00051828101 938:0.00019254143 939:0.00031194597 940:0.00052844873 941:0.00040445823 942:0.00063669268 943:0.00039672063 944:0.00015091657 945:0.00016772402 946:7.2905132e-05 947:0.00011406288 948:5.935616e-05 949:9.9725505e-05 950:0.00067197956 951:6.4544802e-05 952:0.0011052592 953:0.00029901054 954:0.0014005865 955:0.002104427 956:2.2080279e-05 957:0.00045598272 958:2.2776294e-05 959:0.0016318503 960:0.00011233837 961:0.00039674179 962:2.5291201e-05 963:0.00083897292 964:0.00072737038 965:0.00089240476 966:0.0012606547 967:0.00026644304 968:5.4000404e-05 969:0.00033132694 970:0.00012097033 971:0.00042795003 972:0.00040752062 973:0.00054448179 974:0.0014109865 975:7.1276896e-05 976:0.002939383 977:0.0013056644 978:0.0011940249 979:0.00089006952 980:0.00071654818 981:0.00011344658 982:0.0031956963 983:0.0017811639 984:3.1917247e-05 985:2.9597499e-05 986:0.0004587741 987:0.0001238243 988:0.001451107 989:9.3126975e-05 990:0.00025574604 991:3.5491161e-05 992:0.00061055005 993:0.0016983686 994:6.2973122e-05 995:0.00021253197 996:0.00056013704 997:0.00057403481 998:5.7935187e-05 999:0.00065832812 
1 1:0.0013491786 2:0.00016089219 3:8.8567322e-05 4:0.00014167643 5:1.7605646e-05 6:3.2227512e-05 7:7.2127441e-05 8:0.0015350705 9:0.00028097464 10:0.00097132946 11:0.00057763391 12:0.00013680146 13:0.00011757318 14:0.0003805731 15:3.9314858e-05 16:5.386903e-06 17:0.00034288102 18:0.00061280612 19:0.009507901 20:0.0002489555 21:1.7377566e-05 22:0.0015978809 23:6.6366098e-05 24:0.0020599777 25:0.00046130599 26:0.00023153544 27:2.7054846e-05 28:0.00045605793 29:0.00027142247 30:0.00015112729 31:0.0001876582 32:0.00013052623 33:0.00011793327 34:5.6822239e-05 35:4.5014349e-05 36:1.6453658e-05 37:0.00015460108 38:5.6162833e-05 39:0.00071202841 40:0.00026070414 41:0.0035682151 42:0.0013753225 43:2.137161e-05 44:8.0979982e-05 45:0.00063063577 46:0.011875148 47:0.00073321507 48:0.0014548455 49:0.00064584054 50:6.8935071e-05 51:2.360639e-05 52:3.0009109e-05 53:0.00010674205 54:0.00083350769 55:0.0016773507 56:0.0023624226 57:0.00054757856 58:0.00053742161 59:0.00099640759 60:0.00034034756 61:2.6916388e-05 62:0.00059071073 63:8.4267755e-05 64:0.00014578731 65:0.00032235353 66:0.00010477664 67:0.00020523 68:0.00091370998 69:0.0010227818 70:0.00016995611 71:0.00021022465 72:4.2704047e-05 73:8.8766377e-05 74:0.00042351201 75:0.00038438902 76:0.00022980821 77:0.00021319377 78:0.00023166617 79:0.00050764182 80:0.0004332333 81:0.0029188187 82:0.00030431536 83:0.00028349544 84:0.0007319526 85:0.00042263968 86:0.0010555739 87:3.3303044e-05 88:0.0030700846 89:0.0029027287 90:0.00010983022 91:0.00038681075 92:3.7819852e-06 93:1.6400942e-05 94:0.0022661097 95:0.00018368481 96:0.00032316611 97:0.00063835375 98:4.3095864e-05 99:1.7122564e-05 100:0.00032426394 101:0.0033344061 102:0.00021516955 103:0.0008711816 104:8.1857776e-05 105:5.9079015e-05 106:0.00024322892 107:4.692041e-05 108:0.00019620008 109:0.00018259427 110:1.481703e-05 111:0.00019375421 112:0.00019687897 113:0.00014663726 114:0.00017154518 115:0.00033913334 116:0.00019116016 117:2.6180574e-05 118:0.00046891178 119:0.00010580593 120:0.00031712354 121:0.00093071756 122:0.00033741887 123:0.00035247341 124:0.0004465802 125:0.00050949823 126:0.00016765886 127:0.00029842497 128:6.6360371e-05 129:0.0049730404 130:0.00039355183 131:0.00051651627 132:0.000282186 133:0.0042028413 134:5.0085466e-05 135:0.00061579037 136:2.3655044e-05 137:0.0035709462 138:5.6542522e-05 139:0.0001777112 140:0.00028933634 141:0.000177719 142:0.00039961634 143:0.00015313514 144:0.00011046648 145:0.00021653363 146:0.00029465341 147:0.00069333659 148:7.9406076e-05 149:0.0007333692 150:0.0001580973 151:0.0012907631 152:0.00046180974 153:0.0011314411 154:0.00060672493 155:0.0010215389 156:0.00027280135 157:0.00050777302 158:0.00027102814 159:0.00016854347 160:0.00054594729 161:0.00012744618 162:0.0018137904 163:0.0010690729 164:0.010298604 165:0.0013451144 166:0.0013571234 167:8.8349923e-05 168:0.0011918622 169:0.00048438087 170:0.0012581474 171:0.00028079047 172:0.00022346467 173:4.7206497e-05 174:0.0008372952 175:0.00014500672 176:6.5931483e-05 177:0.00037383536 178:0.00040646488 179:0.0010064291 180:0.0011381161 181:2.5982436e-05 182:0.0015377483 183:0.0038283789 184:0.00019521704 185:0.00051593978 186:0.00025894225 187:0.00053208834 188:0.00019702472 189:0.00062959344 190:0.00055140507 191:0.0010046809 192:4.9575912e-05 193:0.0005068719 194:0.00017939605 195:0.001106338 196:0.00038833395 197:0.00065781787 198:0.00079442625 199:0.0010726774 200:5.5091255e-06 201:5.0942555e-05 202:0.00017825667 203:2.0219613e-05 204:0.00019521666 205:0.0031002772 206:9.3209965e-05 207:0.00040117791 208:0.00022750092 209:3.5345849e-05 210:0.0045526559 211:0.00094097131 212:0.00024133724 213:0.0010143111 214:0.00036484739 215:0.00065537199 216:7.2880553e-05 217:0.00025161449 218:0.000316035 219:2.0230471e-05 220:0.00045011882 221:0.001793562 222:0.00033022775 223:8.0773279e-05 224:0.0020657282 225:0.0044955537 226:4.9811781e-05 227:0.00015533816 228:3.1349708e-05 229:8.7310247e-05 230:1.6575717e-05 231:0.00027094467 232:3.4183053e-05 233:0.011511332 234:3.1757387e-05 235:0.00029425678 236:0.0010106019 237:0.00037603723 238:8.9173271e-05 239:0.0007782561 240:0.00024002972 241:0.00074627879 242:0.00010168592 243:0.000263758 244:0.00025775592 245:0.00036979729 246:0.00012465363 247:0.0018813297 248:0.00010923184 249:0.00014567198 250:0.00037620441 251:0.0004408675 252:0.0079435622 253:4.1691739e-05 254:0.00018059231 255:0.00035518606 256:0.00013175429 257:0.0037950312 258:0.00045830858 259:9.3888091e-05 260:0.00016879931 261:2.072688e-05 262:0.00022249657 263:0.00055740739 264:2.8435663e-05 265:0.0030760602 266:0.00052119972 267:0.00053711707 268:0.00047694406 269:2.5187219e-05 270:0.00019593419 271:0.00074657559 272:6.1306098e-05 273:6.1468207e-05 274:2.5505515e-05 275:0.00039556174 276:0.00088026386 277:0.00027692827 278:0.00092375075 279:0.0099179819 280:4.5245037e-05 281:0.00050117885 282:0.00030318287 283:0.00076747668 284:0.00028744127 285:0.00073991844 286:5.2300638e-05 287:0.00018407246 288:9.2739676e-05 289:0.00035090258 290:0.00012618808 291:0.00078276277 292:0.00095807179 293:0.00025944304 294:2.3000994e-05 295:0.0097245332 296:8.6554901e-05 297:0.00054441323 298:0.00072699931 299:7.0540686e-05 300:0.00022885672 301:0.0011952689 302:0.00025038805 303:0.0026109591 304:8.3137842e-05 305:0.00011715754 306:0.0004801391 307:7.7781049e-05 308:0.00028534234 309:0.00076426187 310:0.00025536999 311:0.0018416147 312:0.00037848737 313:5.6663517e-05 314:0.00024159723 315:0.00051929004 316:0.0015594674 317:5.2395695e-05 318:0.00023235696 319:2.6931692e-05 320:0.00010359903 321:7.8367579e-05 322:7.2344788e-05 323:0.00072529545 324:0.00036486861 325:0.00080145185 326:3.2126034e-05 327:0.00053649169 328:0.00063946022 329:0.00061464717 330:0.00069678813 331:0.00022675449 332:8.5959458e-05 333:0.00011158443 334:2.7107117e-05 335:0.00047897332 336:3.3010932e-05 337:0.00091945735 338:5.3543339e-05 339:0.00025884225 340:0.00015418509 341:0.00049579819 342:4.2424206e-05 343:2.2613944e-05 344:0.00020544256 345:0.00018644989 346:9.7471639e-05 347:0.00011932639 348:6.9844864e-05 349:8.3489549e-06 350:0.0002086996 351:0.00075148087 352:0.0003258115 353:2.1793607e-05 354:0.0013226637 355:9.9175137e-05 356:0.00012388466 357:0.00034578223 358:0.00011837007 359:0.00017556184 360:0.00015793818 361:0.0010924888 362:0.00018787755 363:0.00016024415 364:7.367284e-05 365:0.0018460178 366:0.00071034027 367:3.2099419e-05 368:0.00047675578 369:0.00012291619 370:0.00055295904 371:5.6129742e-05 372:0.088709384 373:6.843068e-05 374:0.00036482338 375:0.0001243295 376:0.0017895444 377:0.015697595 378:0.00050367881 379:9.9059813e-05 380:0.0003593775 381:5.2375337e-05 382:0.0033718846 383:0.00064577098 384:4.6550656e-05 385:1.3884854e-05 386:0.00010521111 387:3.9779996e-05 388:0.00050735386 389:9.9855512e-05 390:0.00018988321 391:1.4360898e-05 392:2.3174098e-05 393:0.00024320386 394:0.0057869153 395:0.0017371608 396:0.0013249773 397:0.00023840733 398:7.9575089e-05 399:0.00027791181 400:3.4170014e-05 401:0.00062118378 402:0.00027265673 403:0.00027838146 404:5.1605934e-05 405:0.0059511499 406:0.0046758302 407:7.2213814e-05 408:0.00054152904 409:0.0021703385 410:0.00024323459 411:0.0018135863 412:0.0021088952 413:0.00081630645 414:7.4933749e-05 415:3.7060861e-05 416:3.8497783e-05 417:0.00024842576 418:0.00026697884 419:0.00030084673 420:0.00024577623 421:6.9864618e-05 422:0.00054098316 423:0.00011134552 424:0.00014860454 425:0.14551634 426:0.0081814332 427:0.00033012507 428:6.2365783e-05 429:0.00034042497 430:2.5010286e-05 431:0.00046802452 432:0.00019744974 433:0.0016257247 434:0.00052831369 435:0.00026382593 436:0.00012205162 437:0.0011984998 438:0.00079720933 439:0.0012756394 440:0.00049686362 441:0.00051272206 442:0.0010073433 443:0.00051440665 444:0.0006589964 445:0.00044658233 446:6.2362815e-05 447:3.0104762e-05 448:3.5581583e-05 449:0.00036328394 450:0.00019915262 451:0.0006271461 452:4.9356102e-05 453:6.5209264e-05 454:0.00045576706 455:0.00015339466 456:0.00096274895 457:0.0009738463 458:3.0416055e-05 459:0.00012110643 460:0.00041121774 461:0.0015034276 462:0.00017610213 463:0.0023284976 464:0.00048084822 465:1.7595288e-05 466:0.00096245838 467:0.00082793785 468:0.00037149168 469:0.0011072864 470:4.3904172e-05 471:0.00015526122 472:0.00036702747 473:0.022525804 474:9.8252232e-05 475:0.00065809523 476:0.00026006161 477:0.00067227794 478:0.00085112412 479:0.00030282079 480:0.00013264881 481:0.0010239544 482:0.0012789754 483:0.00085257663 484:0.00024592463 485:0.0004055482 486:0.00035327722 487:0.00037918703 488:0.0006178905 489:0.00018814848 490:6.397353e-05 491:3.3761873e-05 492:0.00027134031 493:0.0011116827 494:0.0030801408 495:0.00016297653 496:7.7659488e-06 497:0.00049259682 498:2.3308859e-05 499:0.00024409882 500:9.8248252e-05 501:0.0020099762 502:0.0014975249 503:3.2171163e-05 504:0.0015587633 505:0.0002110083 506:0.00039015568 507:0.00016104539 508:0.0009036861 509:0.00011249001 510:0.0001188346 511:0.001233445 512:0.00026449011 513:0.00094158127 514:6.9755632e-05 515:1.6106942e-05 516:0.0013062442 517:9.4945179e-05 518:0.00027657251 519:0.00092537631 520:0.00035231697 521:0.00053349044 522:0.00028383452 523:3.2745043e-05 524:0.0016130992 525:0.00049908785 526:2.4731875e-05 527:0.00038293921 528:9.3757539e-05 529:0.0002612877 530:2.9294859e-05 531:0.00041260227 532:0.00050767523 533:5.6058539e-05 534:0.00060555729 535:0.0001394203 536:0.00058313482 537:0.00022129841 538:0.00077632727 539:0.00075214659 540:0.00025994793 541:0.00013829727 542:1.0671502e-05 543:7.6917262e-05 544:0.00042174 545:0.0015637998 546:2.6339701e-05 547:0.004435339 548:0.00013831105 549:0.001204051 550:1.8344672e-05 551:0.0054218206 552:0.00057166599 553:0.00020198288 554:1.155146e-05 555:6.38653e-05 556:0.00014863111 557:0.00023098197 558:0.00016958057 559:0.00036180983 560:7.9976067e-05 561:0.00098947273 562:0.00074945617 563:0.00031849774 564:5.3319563e-05 565:0.00028932284 566:0.00034072963 567:0.00011389542 568:0.00016511646 569:0.00010810199 570:5.3698823e-05 571:0.00011001677 572:0.0014504374 573:0.00041256682 574:6.6024571e-05 575:7.2498762e-05 576:0.0001028359 577:0.00036642348 578:6.6181827e-05 579:0.0001604352 580:0.00021495871 581:0.00038438209 582:0.00012842512 583:0.00026835295 584:0.00069920713 585:0.00020408227 586:0.00013999948 587:0.00050402409 588:0.00034015672 589:0.00011618951 590:0.004327897 591:0.0009283626 592:8.9583766e-05 593:4.124246e-05 594:0.00065316103 595:8.6949745e-05 596:0.00025969493 597:0.000655137 598:0.00084428844 599:0.00022624688 600:8.7799264e-05 601:3.7883186e-05 602:0.0008614682 603:5.0446506e-05 604:0.0017760871 605:0.00013243753 606:0.0017123651 607:8.4052335e-05 608:0.0023272657 609:0.0028320388 610:0.00018420196 611:0.00037589812 612:0.00084951241 613:0.00017822284 614:0.00011927985 615:7.1243259e-05 616:0.00050599704 617:0.0023403147 618:0.001102164 619:0.0021938849 620:0.00050062215 621:0.00023472471 622:3.2612345e-05 623:0.00011298134 624:0.00010226719 625:0.0010318082 626:0.00020087036 627:0.00014219887 628:0.00011355704 629:0.00010241311 630:0.0010404295 631:0.0001521899 632:0.00029384033 633:0.0014611777 634:0.00054234918 635:0.00025908035 636:0.00015850567 637:5.9144295e-05 638:0.0010137979 639:0.00040911778 640:0.00097962609 641:0.00053920224 642:0.00021510576 643:4.3395736e-05 644:7.9383361e-05 645:0.00052094477 646:0.0015313077 647:0.00031190121 648:0.00044511244 649:0.00012563787 650:0.0081895767 651:5.2894993e-05 652:0.00089737424 653:0.00059762906 654:0.00076704787 655:0.00062815769 656:1.0187025e-05 657:0.00059292576 658:5.9408518e-05 659:7.4809759e-05 660:0.00062755978 661:1.5201438e-05 662:4.8808914e-05 663:0.00048878626 664:0.00051411334 665:0.00060993491 666:0.0010062406 667:0.00064948719 668:0.00081343384 669:0.001932308 670:0.00017304056 671:0.0008726638 672:0.00027689617 673:0.00015719848 674:0.00013191144 675:0.0016974505 676:0.00098387629 677:5.6333443e-05 678:1.7305756e-05 679:5.0982846e-05 680:0.00047579533 681:0.0011121435 682:0.00016531091 683:0.00015276035 684:0.0012913565 685:0.0010473729 686:0.00096327474 687:0.00013875501 688:3.0804422e-05 689:0.0017672799 690:0.0002900901 691:0.00074305036 692:0.00039158316 693:0.00020089661 694:0.00027501519 695:0.00061654137 696:0.00096305797 697:0.00019187568 698:0.00020207305 699:8.0574704e-05 700:0.00016741033 701:0.0001610914 702:0.001084729 703:0.000266869 704:8.9471323e-06 705:0.0001098363 706:0.0015297247 707:2.8470422e-05 708:0.0020863772 709:6.448583e-05 710:2.1124579e-05 711:0.00066665321 712:5.9350816e-05 713:0.00023551342 714:0.0037162059 715:4.1770742e-05 716:0.00011911707 717:6.0952814e-05 718:4.4031687e-05 719:7.5188691e-05 720:6.1848768e-05 721:0.00049748714 722:0.0010623443 723:0.00072154473 724:0.00043190434 725:0.0003556915 726:4.0718456e-05 727:0.00022884789 728:0.00059088564 729:0.00028688138 730:0.00092576421 731:7.3762123e-05 732:8.929347e-05 733:0.0019079335 734:0.00030007763 735:0.00014658792 736:0.00025518824 737:0.00033642424 738:0.0003563466 739:7.6034084e-05 740:0.006183798 741:0.0076236194 742:0.00059243286 743:1.9758498e-05 744:2.0466208e-05 745:0.00019235497 746:0.00035757502 747:9.9344157e-05 748:0.00027016827 749:0.0019798912 750:0.00012196889 751:0.00035690574 752:0.00094656687 753:5.8914808e-05 754:0.001863939 755:0.00067900348 756:1.1976423e-05 757:0.0002787672 758:5.9622609e-05 759:0.00081474357 760:0.0002380948 761:0.00030710502 762:0.00026431776 763:0.00015906838 764:0.0002129487 765:0.00065237482 766:8.2212093e-05 767:0.00091138593 768:5.0960705e-05 769:5.2023952e-05 770:0.00023814634 771:0.031281024 772:0.00010751605 773:6.9495414e-05 774:7.6857243e-05 775:4.1735043e-06 776:0.0006055616 777:0.00018836124 778:3.401603e-05 779:2.6870224e-05 780:0.00032185682 781:3.4509158e-05 782:0.00070540048 783:0.0018027837 784:0.00013645468 785:1.861949e-05 786:0.0003619729 787:0.00028739247 788:0.00088651321 789:0.00016698355 790:0.00058439415 791:0.0013496889 792:7.6327633e-05 793:1.7176682e-05 794:0.00033734678 795:0.027666287 796:0.0013147572 797:9.3760718e-05 798:0.0084986892 799:5.132164e-05 800:0.00057199481 801:0.00013622531 802:0.00046143445 803:0.00017804853 804:0.00058458839 805:0.00063138496 806:5.8143283e-05 807:0.00031960587 808:2.5201109e-05 809:0.0001927368 810:0.0002499455 811:0.00053143309 812:0.002498504 813:0.00028863634 814:5.6057179e-05 815:0.00019850998 816:0.00014478584 817:0.0012006053 818:0.00034237208 819:0.00029364115 820:0.00017956019 821:0.0020980744 822:0.00027438067 823:0.0046623857 824:0.0001847216 825:0.00011183281 826:0.00017655936 827:0.00092741539 828:2.6178677e-05 829:6.5789158e-05 830:1.7577277e-05 831:8.3749481e-05 832:0.00028881474 833:0.00017105402 834:5.1857318e-05 835:9.9313227e-05 836:0.00045592923 837:0.00013335912 838:0.00052161096 839:0.00040101094 840:0.0003737981 841:6.5650514e-05 842:0.00049274438 843:0.00043133629 844:1.6361417e-05 845:0.00060093391 846:0.0001862163 847:0.0002920749 848:0.0010205461 849:0.00035711765 850:0.00030238257 851:9.8262783e-05 852:0.00038612797 853:7.2034461e-05 854:0.00014846982 855:7.2441988e-05 856:0.00021055761 857:0.00096820021 858:4.6561199e-06 859:0.0012000925 860:0.00053368963 861:0.00012436075 862:0.0026978594 863:0.0018211906 864:5.4538938e-05 865:7.2146635e-05 866:0.00017066395 867:0.000105377 868:8.7714521e-05 869:0.00023745272 870:0.0010710522 871:0.00019708375 872:5.0284325e-05 873:0.00013812717 874:6.047438e-05 875:0.015419011 876:0.0040647467 877:0.001372889 878:0.00037851644 879:0.0020670367 880:8.2937571e-05 881:0.00011117066 882:7.0504764e-05 883:0.002273323 884:0.00023730364 885:0.0014057625 886:0.00018495474 887:8.0558675e-05 888:0.00038097872 889:0.0010667113 890:0.0006007331 891:7.3589625e-05 892:0.00033791104 893:9.6144095e-06 894:0.0017838464 895:0.00042012022 896:0.00018834525 897:0.00016603419 898:0.00068410748 899:0.00031676248 900:0.0029686603 901:0.00056179787 902:0.0014487453 903:0.0045903744 904:0.0001193108 905:4.0759871e-05 906:0.00033424926 907:0.00027800712 908:0.00018650999 909:3.0896128e-05 910:0.00051017257 911:0.0025773309 912:0.00039613686 913:0.00036971111 914:4.5122702e-05 915:0.00016689878 916:0.00038365746 917:2.3311259e-05 918:0.0012266905 919:0.00013773156 920:0.0001121704 921:0.0026234563 922:1.1540263e-05 923:0.00097200728 924:0.0013525991 925:0.00024009898 926:0.0046420689 927:0.00020838894 928:0.00062164577 929:0.00012723736 930:0.00013729322 931:0.00043833363 932:3.1592754e-05 933:0.00091512577 934:0.00038916088 935:8.1879676e-05 936:5.2628762e-05 937:0.00053186936 938:0.00019281163 939:0.00031813604 940:0.0005437854 941:0.00042838001 942:0.00064033747 943:0.00042467541 944:0.00015498458 945:0.00017138943 946:7.4441145e-05 947:0.0001210854 948:6.1919767e-05 949:0.00010495647 950:0.00070580957 951:6.437605e-05 952:0.0010929776 953:0.00031312631 954:0.0014000023 955:0.0022227454 956:2.1939204e-05 957:0.00043724102 958:2.3489791e-05 959:0.0016127063 960:0.00012193435 961:0.00040987559 962:2.5698253e-05 963:0.00084726757 964:0.00070483563 965:0.00087969319 966:0.0012582621 967:0.0002772836 968:5.4997552e-05 969:0.00034220546 970:0.00012285472 971:0.00044087612 972:0.00040221994 973:0.0005429216 974:0.0014589644 975:7.491892e-05 976:0.0030049388 977:0.0013177333 978:0.0011882066 979:0.00088607671 980:0.00073250878 981:0.00011671158 982:0.003217441 983:0.0017631321 984:3.2973807e-05 985:2.9458275e-05 986:0.00047246268 987:0.00012773657 988:0.0015069423 989:9.3616683e-05 990:0.00026211317 991:3.7462156e-05 992:0.00059748575 993:0.0016785428 994:6.3583895e-05 995:0.00021242964 996:0.00059118809 997:0.00059225375 998:6.0193477e-05 999:0.0006665127 
