svm_type c_svc
kernel_type rbf
gamma 0.000244141
nr_class 2
total_sv 71
rho -0.0168549
label 1 0
probA -3.59426
probB 0.130682
nr_sv 35 36
SV
1 6:2.3880813 15:2.1293097 18:1.7118272 21:2.1014469 23:4.2198329 25:0.88863248 35:2.0535927 36:2.1379924 38:0.3727437 41:0.17603797 44:1.9049191 54:2.8698575 56:0.75360286 58:0.13038668 61:0.20438688 62:0.82616723 66:1.2366385 70:0.25962153 71:0.14843959 75:4.7519155 78:2.8882823 79:1.0400472 81:3.0497482 83:0.37921959 86:0.90172845 89:0.065590143 94:0.49913892 105:1.9532341 107:3.1739762 109:3.6960657 110:0.76453269 113:1.0169606 122:1.1771442 130:0.087134264 131:0.66515923 136:2.4795809 140:1.0818578 141:4.392859 143:2.4172122 144:1.5106106 146:0.34711266 147:2.40801 154:1.3995856 156:2.8340628 160:0.99024546 162:1.3330832 163:1.051733 169:0.86727285 172:4.8673334 174:1.1387591 175:3.0036483 179:0.070215568 182:0.20932992 186:0.86360288 190:2.7433319 192:0.46038109 195:2.5249181 214:2.5696216 215:2.3087947 218:1.7992995 228:0.43512648 230:0.77625418 238:3.2050519 254:1.1388116 257:0.47837353 262:4.3347769 282:0.90355438 286:1.0602651 297:1.6513577 298:0.40581951 301:1.9912292 302:0.60930157 308:3.4087129 312:0.82361102 321:0.28295857 322:0.20190766 323:0.45668221 329:1.8247262 331:0.103855 334:0.67940319 338:1.6552203 339:0.6927557 343:0.49226642 349:0.21024439 362:0.42513925 363:1.6144364 365:1.3130326 366:0.56021512 370:1.301268 371:0.78600574 373:0.53022695 375:2.9548919 376:0.56986272 377:1.2307024 384:0.31739688 385:3.8909893 390:1.06997 391:3.0640235 393:0.31821698 396:2.2499683 397:0.74261904 398:1.1872425 402:2.734807 410:0.56234437 413:2.7082896 416:1.8619699 421:0.58983266 426:0.25203836 430:0.11626792 432:2.1228309 433:0.88686287 434:0.23868158 436:1.3883364 437:1.1774027 442:0.069595829 443:2.1229281 444:1.5210536 446:0.87044549 449:1.6669784 450:5.7763519 451:1.3115355 453:0.24849014 456:0.72473949 459:2.5712552 466:1.6961176 473:2.3813214 477:0.71009243 478:2.721009 481:1.2220891 485:1.922071 488:0.73700345 489:1.9458106 491:0.56274086 496:1.4101357 498:0.89313233 499:1.7509742 500:3.6502428 502:2.6479707 505:0.35291851 509:2.136791 511:1.6340663 515:1.7536279 517:0.59418672 531:2.7503362 538:0.44969615 539:2.1109061 540:0.07322029 544:0.07476379 545:0.84580177 547:1.0065196 555:0.028728783 558:2.1271582 559:0.96863198 561:0.39363229 562:5.0046539 565:1.3440136 571:0.58951521 573:2.0690188 577:0.46363342 580:0.94265485 591:2.201441 598:0.27402079 599:0.78253412 604:0.48364848 611:0.52954584 616:3.9207251 617:2.1113577 622:0.10734652 624:3.8508978 628:0.87796617 629:0.11571363 638:2.8201394 639:0.79038441 640:4.4866924 642:6.7923031 643:3.4074755 654:1.2401407 655:2.1993618 664:0.032425284 666:1.6207354 669:1.009913 675:1.3873351 677:1.8705876 682:0.025414765 684:2.9783754 687:1.8102849 702:0.61401451 706:3.5373378 711:0.72896862 717:1.6757646 718:0.13183075 721:3.3000848 725:2.7017522 726:2.2240086 727:2.7041984 728:0.78562498 731:2.8537376 734:2.819294 739:4.6001492 742:1.5137501 743:0.85240614 744:1.3151827 746:4.3631825 750:2.202945 751:0.74629223 754:0.54985559 759:2.7104445 762:2.9424329 763:0.97911805 764:1.393856 765:0.45807827 767:1.2862245 780:0.22299266 785:1.0962226 786:0.86817628 792:3.3389397 795:1.0690105 808:1.8174925 811:0.07901673 817:2.2609999 823:0.31238133 825:0.42852777 826:0.99193323 833:2.9288714 850:1.8908874 855:0.924887 856:0.83295488 866:0.56452203 867:1.2316356 870:2.0520413 872:3.7681921 874:2.4372072 878:6.0951366 881:1.7942936 883:2.9522913 888:0.85873067 889:1.4497693 892:2.4431543 903:3.4288735 908:1.7214822 922:0.29936525 923:2.6026294 927:2.1149468 933:1.0604124 935:2.14715 937:2.199589 941:2.7675912 942:1.8328855 944:1.1620057 945:1.4573829 948:1.3097936 952:0.95665359 955:1.3362489 958:1.6129744 961:0.16632748 963:2.1467457 968:0.54776871 974:2.423418 976:0.22977546 978:2.6763306 979:1.3194215 992:1.4557874 993:0.15352425 998:0.26018694 1002:0.24481429 1004:1.7948089 1006:0.75463325 1007:0.53385437 1009:1.0197203 1012:0.36260843 1014:3.4418054 1017:2.3898034 1018:0.030797184 1022:2.7001517 1028:0.99374944 1030:2.2008362 1034:0.72648311 1042:2.8109119 1053:1.0527866 1056:0.98760033 1077:5.7159977 1080:1.8834715 1081:0.21310261 1087:0.31159973 1089:0.43468511 1095:1.8869212 1097:3.2870958 1102:2.6584244 1103:2.2650342 1113:1.2578418 1116:0.46168792 1122:1.785305 1127:1.019304 1139:0.28478879 1149:4.4635019 1163:1.7217801 1164:0.18782097 1169:0.055047303 1171:0.35453159 1173:0.21432021 1176:1.6265796 1177:2.0112803 1192:1.8819216 1196:0.080982834 1197:1.3320494 1203:1.4915311 1207:1.0448786 1213:1.7289841 1216:0.45819423 1221:0.76365912 1224:0.051293582 1228:0.082044333 1231:0.422959 1232:0.64120233 1233:0.72995257 1236:2.3216763 1240:2.8742659 1242:1.9298916 1248:1.2425609 1249:1.124845 1250:1.3977406 1252:2.5313556 1256:0.89285696 1257:4.9325657 1258:0.32063648 1259:3.8248544 1260:1.1397879 1265:0.62731344 1267:0.96195924 1273:0.14720193 1274:0.35058945 1275:0.26537722 1279:2.5505245 1289:0.30682793 1298:1.8507316 1306:1.1585295 1317:0.27525556 1318:0.97954017 1319:2.4735582 1320:2.4271755 1325:1.4570695 1332:0.41311592 1337:1.5997021 1341:2.1697037 1342:1.1867969 1349:2.8457768 1351:2.8202548 1355:0.61027068 1356:0.3633211 1374:2.7151821 1375:3.6360416 1378:2.1744494 1379:2.4360237 1388:1.5209397 1390:1.5808729 1391:2.4272623 1397:1.2945242 1401:1.2285269 1402:1.1830729 1404:1.7193233 1409:1.5212004 1411:0.59998828 1413:0.57045019 1414:0.62666607 1416:0.53088087 1426:2.2289891 1430:3.8832116 1438:2.1766932 1442:0.0772852 1445:0.042517304 1447:0.19769065 1448:0.85007501 1450:3.5600109 1455:2.0851831 1456:0.7887814 1457:0.39826113 1459:1.7238052 1465:0.7670821 1468:0.53849149 1469:0.35100457 1470:0.54761994 1475:0.24797937 1479:3.3839123 1483:0.68204433 1486:1.7063656 1490:2.1726949 1493:1.1299052 1496:0.30699909 1498:0.79220641 1499:3.8007867 1502:1.7832513 1506:1.8593463 1508:0.058413267 1509:2.2035511 1511:1.2802399 1512:1.7102174 1517:1.8988469 1518:1.0717978 1519:0.054190144 1522:0.7101872 1523:1.4844003 1525:0.96996963 1533:0.51818228 1537:0.57856274 1548:1.1010895 1552:3.7879021 1557:1.708755 1558:1.7960782 1565:0.10923688 1567:2.1696267 1568:2.2578778 1572:0.12047648 1578:0.07846719 1580:0.63492203 1582:4.0238028 1585:0.44898805 1596:0.56563902 1597:4.917098 1599:2.8473229 1602:2.1857922 1605:0.25894636 1606:0.25353152 1608:2.3466702 1610:2.4814768 1615:0.41583842 1616:1.9822271 1618:0.60338277 1629:0.1951192 1643:0.17154729 1646:0.63692117 1654:1.1268013 1655:3.7588181 1659:3.5764287 1666:0.24978599 1667:2.5460949 1675:0.43781716 1676:0.052661911 1690:0.80149949 1691:0.8582865 1694:0.022554874 1697:3.0595148 1699:0.12678462 1703:0.3238678 1704:1.1262077 1710:2.3403139 1715:1.4525625 1716:0.10532072 1717:0.20236075 1721:0.62200326 1727:1.2206297 1728:0.12274545 1729:2.3870723 1733:2.6373234 1737:2.6206365 1746:2.489476 1751:2.3947351 1754:4.2207508 1757:1.0923063 1758:0.28629416 1767:0.82971567 1772:0.29488593 1779:2.7764111 1781:1.4624407 1784:1.7638593 1787:0.79014045 1788:3.3370807 1791:1.0700418 1794:0.29599082 1798:3.9671798 1800:0.022457704 1804:2.0944028 1805:0.28177005 1822:1.9602108 1824:0.39671668 1825:1.7110418 1833:5.1004429 1841:4.5973997 1842:0.09884128 1843:1.3232585 1844:1.8105559 1845:4.3583131 1848:2.8350136 1849:1.353754 1851:0.31643379 1855:0.70098221 1861:4.0304027 1862:1.6969126 1866:1.9288349 1867:1.5339789 1871:0.6810863 1881:2.2488995 1882:2.8144445 1886:0.38919979 1895:3.7274287 1905:1.5227113 1916:3.1013722 1926:0.43214786 1928:2.2692709 1930:1.9327955 1936:0.033776224 1951:0.20338005 1958:0.82114434 1963:0.59029967 1967:0.20805092 1970:0.19789779 1990:2.0691402 1991:2.5946505 1994:2.7200356 2004:0.76326495 2006:0.55819124 2011:1.7044225 2013:0.12535655 2021:1.1868128 2038:0.21410269 2043:1.5486543 2049:0.16969128 2050:0.44690871 2051:2.1359513 2052:0.55699641 2056:0.51468235 2061:0.19822653 2065:2.0644274 2075:1.9639148 2078:1.9414096 2080:1.6007553 2086:0.26572716 2090:0.063807935 2099:0.72054696 2103:0.31128019 2104:0.43188098 2109:2.7244105 2110:1.0292455 2111:0.10636961 2117:0.74703431 2120:4.2641068 2123:1.8447223 2128:5.5919843 2130:0.80883491 2132:1.5048103 2139:0.49857029 2141:0.19568187 2146:0.65278971 2150:1.9566292 2160:0.61213106 2170:1.7757499 2171:0.14608592 2177:0.20528167 2178:0.2698645 2179:1.7404621 2181:1.4347351 2186:0.72839475 2188:4.2647133 2192:0.0077160001 2198:0.90431565 2199:0.49972859 2203:1.4394388 2208:0.21180008 2211:0.717583 2213:0.93318188 2214:1.3037419 2216:3.6153264 2217:1.1761351 2229:1.3184414 2237:0.65554476 2245:0.96106905 2253:3.3583496 2263:1.408455 2267:1.435344 2269:3.8790238 2273:1.0114331 2278:1.2338631 2281:5.2131891 2286:1.0343997 2288:1.1696831 2291:2.0549178 2292:3.1960094 2296:2.8407228 2297:1.4106549 2298:0.19747888 2299:0.52084696 2300:0.83865142 2307:4.6633425 2309:1.100546 2311:1.5232471 2317:0.36114445 2322:3.8678262 2334:1.9816487 2342:1.6252418 2345:0.057065427 2354:2.6541536 2358:1.2912465 2361:0.36671036 2365:0.81143689 2370:0.94576228 2372:1.9853368 2383:0.96439147 2384:0.52444446 2392:0.018077068 2402:1.5441228 2410:1.3349451 2416:3.5310967 2422:1.9188679 2428:0.8482914 2437:1.8731434 2438:1.5614663 2443:0.18816982 2446:1.118838 2449:0.25622937 2453:2.0028775 2458:0.10884109 2474:1.2540224 2475:0.30097872 2487:1.5087249 2489:2.6510289 2490:1.0837336 2494:1.2571794 2495:0.3681927 2507:2.5319757 2510:1.1834052 2512:0.28237444 2516:4.9350977 2526:0.3573606 2535:4.4158459 2536:0.13652103 2537:0.7108227 2539:2.3836684 2540:2.0297852 2542:0.30510277 2543:5.0151114 2544:0.46520281 2552:0.27004349 2563:0.81052685 2566:1.3795879 2567:2.3894131 2583:2.4733167 2592:3.3617966 2594:1.6442401 2596:3.5096166 2599:2.6410706 2600:0.99561071 2609:0.61636931 2619:1.9721813 2622:1.2425095 2623:1.0208173 2624:0.10634542 2629:0.60377866 2631:0.32412431 2634:0.8127327 2635:0.68258363 2639:2.4670711 2641:1.5078405 2642:2.1241469 2644:0.30593902 2646:4.0866437 2651:1.115716 2652:0.63676512 2654:2.213738 2656:0.71339977 2658:0.17115527 2659:0.95283633 2662:0.32546538 2664:0.052496091 2665:0.46753237 2674:0.43131405 2688:0.17580765 2689:1.2927612 2690:2.2772405 2702:0.027258277 2704:0.90245891 2706:1.429159 2708:2.3225334 2716:0.7808851 2718:1.2485151 2726:3.1286442 2727:5.1235375 2731:3.7515213 2732:0.13142669 2742:0.63673759 2747:0.2380316 2750:0.96653569 2751:2.1960044 2753:1.4592383 2754:1.2523658 2756:1.5537734 2774:0.50776339 2783:0.055322796 2785:0.1240962 2792:4.1280699 2795:0.25161278 2796:1.0263903 2800:1.3363156 2803:0.19378437 2804:1.0409083 2806:0.76594019 2807:3.2709687 2811:1.8961999 2820:0.059504822 2821:3.9995587 2823:1.4901294 2830:4.0438724 2834:2.7870979 2837:0.055929452 2849:2.8528993 2853:0.28033552 2860:1.364198 2864:0.81693166 2869:2.774085 2872:0.075684607 2878:0.60395354 2882:3.198523 2886:0.26278904 2888:0.086165331 2891:1.4847764 2894:3.0063865 2896:0.24928698 2898:1.0061791 2899:0.080095857 2903:3.8842275 2912:2.1679857 2913:0.18873797 2915:3.0919683 2917:0.5098362 2922:0.76879179 2929:0.38342798 2931:2.9477105 2934:3.3288548 2936:1.0233645 2937:0.31713676 2938:4.2145028 2940:3.3417799 2946:0.52539223 2950:1.5513027 2953:0.32782117 2958:2.266367 2961:0.033159822 2962:1.5788971 2965:4.2985506 2966:0.7943753 2970:0.2497333 2971:2.9641562 2974:0.75979239 2977:1.7112086 2981:0.8212322 2982:2.1436596 2992:1.386278 2996:0.60947561 2999:2.203615 3001:0.10986412 3002:0.46433485 3006:1.1854922 3009:0.23592924 3016:3.5372458 3019:2.5293436 3020:1.98145 3025:0.7091127 3037:0.34650677 3038:0.97301602 3040:4.9309125 3042:0.87909114 3044:0.10461614 3046:2.9953501 3049:2.0549757 3051:1.8374568 3052:3.3470702 3057:3.5031409 3059:1.1593246 3060:4.4417171 3063:0.84606284 3067:4.6458406 3069:1.2127975 3074:1.6709505 3085:4.3250437 3087:0.99476135 3090:3.3189011 3103:0.38256341 3118:1.2852013 3119:0.56411284 3121:0.18375769 3124:1.2584817 3135:0.47539443 3138:1.8658441 3139:0.075678334 3141:2.8570085 3145:3.93696 3147:0.97661602 3148:0.13394758 3149:0.73138797 3153:0.45492563 3159:1.9995943 3160:2.3494909 3162:1.4891882 3163:2.4225349 3167:1.4558464 3169:0.63970625 3172:2.1621082 3177:0.95313948 3183:0.56282473 3185:0.11392025 3186:0.1920374 3187:3.7512784 3189:2.2069664 3190:0.66986537 3191:1.6323694 3206:0.72990501 3209:0.23988962 3211:1.7508621 3215:0.64569342 3219:0.12668996 3222:0.32584882 3225:0.33580598 3228:0.29254076 3230:0.32394689 3231:0.66200519 3233:2.0635693 3234:0.48205566 3237:2.8094118 3238:0.27518958 3248:1.0568379 3251:0.69126344 3256:2.1269486 3259:0.55382872 3265:2.0117462 3270:1.0073615 3271:0.31119257 3272:0.8515898 3277:0.6327219 3284:3.1156399 3290:1.0941088 3291:1.7870671 3293:3.3745892 3296:0.78699863 3298:0.25086552 3299:0.5546056 3302:0.26510322 3310:1.1980258 3317:2.311713 3325:2.8068771 3333:0.11346801 3334:1.2816333 3341:2.1880393 3344:1.5236796 3346:2.0879142 3347:3.660305 3348:1.207749 3349:0.28080189 3350:0.59651345 3351:0.11111754 3359:0.74923539 3360:0.5394789 3362:0.53236091 3364:0.97379011 3365:2.2285721 3375:0.3679598 3384:3.104984 3386:0.84403008 3390:0.032468945 3396:0.043996304 3401:3.2807918 3402:0.8646822 3403:0.63070279 3405:0.27053842 3411:1.7434504 3416:1.1020713 3422:3.7832839 3427:0.7713955 3431:1.6738625 3438:0.50155371 3443:0.087620616 3451:1.3293195 3452:1.817827 3456:0.42968777 3465:0.68447489 3467:0.66416782 3468:3.9107842 3470:0.12912723 3471:2.447458 3475:2.0500078 3476:0.99001837 3484:0.1790888 3493:2.7334332 3496:0.72456646 3500:1.1296126 3505:1.7305441 3508:0.24279019 3509:1.6881287 3515:2.6230469 3520:1.5165378 3528:2.035332 3530:0.69177961 3547:2.6785386 3548:0.2979416 3554:0.011150002 3557:1.25784 3564:1.355001 3570:1.1955879 3576:0.019900532 3580:1.5254977 3581:0.28634125 3583:0.28637069 3599:2.609149 3604:1.3636009 3608:3.6877899 3611:0.2315371 3612:0.29243758 3613:3.6534629 3616:0.63573134 3618:0.36478466 3619:1.1159151 3626:4.5712461 3627:4.7088275 3639:1.2344509 3640:2.7642591 3650:5.2085748 3653:1.4934329 3657:2.917475 3658:4.7607017 3662:0.2968201 3677:2.1943226 3680:0.85790646 3690:0.51013601 3700:2.366631 3709:3.261945 3717:3.3878379 3718:0.37749434 3719:2.1696966 3724:3.1927376 3728:0.75171566 3729:0.29645953 3733:0.23946339 3736:0.63206542 3739:1.370286 3749:1.4332161 3751:0.76062369 3769:1.3204124 3771:1.0076699 3778:2.0480795 3780:0.58964777 3782:0.52776843 3796:1.1619012 3801:0.81757689 3804:1.1823776 3806:0.10783482 3820:0.048610181 3821:0.57410645 3828:0.91675544 3834:1.1520892 3835:1.2409852 3841:1.5843365 3844:2.6778605 3848:0.22235529 3849:0.31344199 3853:0.1956256 3860:2.0721786 3864:3.6024086 3868:1.1719954 3875:0.48602933 3882:1.4410324 3884:0.28051659 3886:3.8138988 3888:0.30336362 3908:5.6682177 3909:2.3254051 3910:0.52400792 3912:4.0775652 3934:2.2043767 3936:1.3708024 3938:3.7493594 3942:1.0561618 3950:2.9790287 3951:1.295763 3952:0.51588374 3959:3.5417881 3962:1.4357138 3963:1.831718 3968:0.10772608 3970:0.64990252 3973:1.4920399 3974:0.034480274 3995:2.0640054 3998:0.89206338 4000:4.2711864 4001:2.8507206 4004:2.2348924 4008:0.49127311 4014:0.86509752 4022:2.7332532 4023:1.5653765 4030:2.939301 4032:0.87745917 4041:1.4392533 4042:1.2825985 4051:0.19246793 4058:0.40239567 4062:0.28434435 4068:1.0541556 4069:2.7018287 4070:0.27800852 4074:1.2932504 4081:1.3585067 4083:0.7212913 4085:0.36358458 4087:0.93911529 
0.2182018157311613 2:0.29618582 9:0.10254291 14:0.7737149 16:3.1575112 17:1.4112567 22:0.0041408092 23:1.7041006 24:0.72040057 50:1.3621612 53:1.4146514 60:0.45924002 74:0.31160912 79:2.5818532 96:3.5947182 124:0.029255971 128:1.2536085 136:0.88379151 139:2.87817 149:0.50033915 150:0.12003335 153:1.6928849 169:0.34694344 170:0.79578048 179:3.5379436 180:3.0582597 184:0.88716877 189:0.4942857 194:1.9244361 211:0.06299822 212:0.237766 214:1.0598168 218:1.3354785 220:1.6644894 225:2.2524915 227:0.52246213 248:3.0879855 253:0.97454166 256:0.95034307 276:3.11692 280:3.4076955 282:4.1159945 284:0.98139316 295:1.2630011 303:0.74379361 336:0.66734612 342:0.69728655 344:0.21067908 346:1.8981423 360:3.5542891 363:0.95508164 364:0.36129197 377:0.20746523 380:1.8315756 381:4.19804 389:0.879547 393:1.0631552 401:0.73572642 402:0.51429623 405:2.4271405 406:2.3905501 410:0.061755449 411:0.68659049 413:1.9418306 414:3.9608076 417:2.7876806 431:1.1692022 433:1.3455176 444:3.8830142 451:1.1067984 458:1.1244754 468:2.1383343 473:3.1844206 475:2.6590891 477:0.30234644 486:3.7784834 487:1.9989514 501:1.7605369 511:1.9676799 512:2.3268809 514:0.79136634 516:2.1975274 521:0.89314675 524:1.4548202 526:3.9302189 529:1.2621309 539:2.5634594 542:0.73614097 545:1.1351407 555:3.7006481 556:3.9978735 558:1.1849418 561:0.43984494 598:0.24815089 614:3.8239686 620:1.3389895 622:0.019964516 627:3.3190713 628:1.5759181 638:1.8056481 639:3.4930575 643:1.4965618 676:3.8060684 681:0.89805055 685:2.8457603 688:4.3561091 699:3.6043975 702:0.51039463 714:1.2429929 719:2.1802483 728:1.4052629 734:1.7999039 742:1.1234726 748:1.5989867 750:2.7651358 758:4.2355084 763:1.8206693 764:3.7362838 769:1.1301167 770:1.4393606 783:2.1682856 790:1.9486489 798:1.8504237 801:0.085459113 809:0.27219018 810:0.3945052 817:6.6260061 818:1.8439696 821:0.37859562 825:0.18672994 829:0.26674244 833:0.29939187 842:0.98649955 847:1.6384882 850:6.0045743 851:0.82859689 856:0.93523383 886:0.03518346 892:0.52168083 896:1.6139438 903:1.061866 904:0.6675272 910:0.90847063 932:0.1148662 941:2.6904335 942:0.78189111 945:0.60320497 949:0.54933608 951:0.33142954 953:7.8672438 956:0.17289624 962:0.59086555 967:0.20897278 973:0.43313038 978:0.77617157 980:0.53760624 998:0.52886564 999:1.6578078 1013:0.67434829 1017:1.8631235 1034:3.1276355 1036:3.4092913 1046:0.15995556 1060:1.7255186 1063:1.1649082 1069:5.3686686 1070:2.1416268 1075:1.8804011 1076:2.7447245 1093:0.82726556 1095:0.55674356 1105:0.48488843 1113:1.4132787 1114:1.24228 1123:1.3994504 1124:2.228615 1147:2.1275668 1149:0.87134564 1150:0.13078991 1152:0.68091738 1160:3.0546772 1169:2.8430586 1179:2.3600616 1184:1.8915951 1187:2.3634048 1190:1.655493 1191:0.10893464 1209:1.3250871 1223:4.3093929 1224:0.64361799 1230:0.74359071 1232:2.7850199 1237:0.99230593 1238:1.8870516 1252:4.0270829 1259:1.8494846 1265:1.3743949 1266:0.72036219 1270:2.4185393 1271:2.8696632 1272:0.96022606 1273:5.3468852 1274:0.026290908 1284:1.7127655 1289:0.42307132 1294:0.56073242 1297:0.7004509 1304:0.95815933 1315:0.81136274 1317:0.22988026 1318:1.8903599 1322:0.88545358 1324:0.91615015 1327:2.6980846 1334:0.40384346 1342:0.18417701 1345:3.7501669 1347:0.80262113 1351:1.4369073 1355:2.4072657 1367:0.83188063 1374:0.014341086 1386:0.72721183 1394:1.1135868 1398:0.13887106 1401:2.8050814 1405:0.50529373 1406:0.72316903 1415:2.582082 1426:0.66875076 1427:0.54607654 1437:6.5690928 1442:2.3424718 1449:2.9385293 1452:0.24892847 1455:0.046774983 1458:3.134253 1466:1.6196064 1468:7.2305284 1477:1.6691819 1483:2.1492543 1485:2.0651808 1495:1.3735454 1502:3.8899894 1504:0.02551344 1505:0.72256088 1507:4.6001949 1518:1.5179594 1520:1.2573538 1525:0.94064057 1530:2.0566254 1543:0.52402246 1550:0.48197782 1552:0.19447991 1555:0.27852213 1558:0.86058712 1561:3.2443867 1565:2.4700177 1570:0.59086424 1576:2.1899612 1578:2.5890265 1588:2.6270685 1595:2.452075 1597:0.28147292 1600:1.5636835 1615:0.28392392 1618:0.35111028 1629:0.99440819 1642:3.8675478 1654:2.3534923 1665:0.16279483 1675:1.4587336 1686:1.9763557 1704:1.0475425 1713:3.0618896 1718:0.070721358 1723:0.99991167 1734:3.1154528 1738:0.21979642 1755:2.9545016 1760:0.75164652 1763:0.47953466 1767:1.991275 1768:0.050941944 1771:1.3673719 1784:2.1015754 1791:3.1060522 1798:1.3208783 1807:0.10474229 1817:1.1286862 1831:2.2210064 1837:0.36030608 1840:0.090065747 1843:2.889807 1850:0.2132121 1873:4.4372683 1882:0.38377309 1889:0.20861335 1891:1.2307816 1894:2.3714497 1895:1.7320284 1898:0.40613937 1903:3.2604976 1907:0.043221951 1915:1.0207102 1916:0.128989 1917:2.2699022 1918:2.556942 1921:1.067328 1929:1.2510864 1939:2.7617781 1940:7.0785751 1941:5.934557 1942:2.3195705 1944:1.8018209 1947:4.1123238 1953:2.8675501 1974:0.9652791 1976:1.8452182 1980:1.0228691 1994:4.7585878 2007:1.9819083 2008:0.026416868 2011:0.99218941 2014:2.0820501 2015:1.4910197 2016:1.7507077 2019:0.24873364 2024:0.17045039 2026:0.68497097 2033:0.14038551 2040:1.6491894 2044:2.5346234 2062:1.7126101 2065:0.38723612 2073:2.8089411 2078:0.96837163 2081:0.10521831 2098:0.44568425 2127:0.22893035 2130:0.99345672 2150:1.1403381 2160:2.8379068 2162:0.29837215 2164:3.0087621 2173:1.5103505 2178:2.4560454 2197:1.0147259 2204:0.454532 2210:0.040028811 2216:0.95305693 2219:2.6027017 2224:0.41321 2225:0.18220545 2226:0.18539304 2227:1.6039678 2235:0.89062738 2238:1.5539176 2240:2.2447867 2241:0.11559168 2248:5.4808798 2253:0.00064828992 2264:0.059986576 2283:1.0958416 2300:0.47104317 2309:0.072368741 2315:0.67756152 2316:1.0269744 2317:0.27071905 2332:2.4340639 2343:1.7038867 2344:0.78833771 2359:0.1930818 2360:0.17502907 2371:0.41220748 2373:0.21152502 2375:1.2862453 2380:3.8751292 2382:1.0975721 2389:2.5029559 2402:1.3530339 2403:1.1804469 2404:1.5532159 2408:0.5885793 2409:0.059251696 2411:0.29302341 2412:0.79259235 2415:2.6573966 2424:2.6005464 2426:0.86506945 2427:0.46628398 2430:0.99458134 2439:0.44104826 2440:2.2205973 2445:0.15297875 2448:1.2469208 2454:0.82036918 2458:1.050985 2461:0.50438565 2462:3.9268913 2479:5.743958 2491:2.11376 2493:2.3688636 2497:1.6044775 2509:2.3370991 2515:0.042651206 2516:2.8782609 2521:2.5938296 2561:0.13533007 2562:0.23350719 2566:1.5883596 2590:1.7619128 2591:0.81999171 2600:2.2024338 2604:1.7524486 2609:0.92409009 2610:2.6269772 2616:2.7099023 2624:0.91529787 2626:0.29448277 2628:1.0607002 2631:1.4969776 2636:0.79661536 2653:1.171746 2655:2.0875928 2677:2.0435166 2687:2.6108618 2695:0.81931567 2699:4.0818729 2701:1.223491 2703:1.3021789 2707:0.80987275 2708:0.030363299 2716:3.7438126 2731:1.3294489 2742:2.2202597 2743:2.2879941 2749:2.838841 2750:0.87880665 2751:0.83028436 2763:2.3776786 2770:0.028156996 2779:1.620513 2784:1.131759 2785:2.7446973 2788:0.56776714 2789:4.1646452 2796:3.4262331 2810:1.6587468 2811:0.36479926 2812:1.0177776 2829:0.89210963 2832:2.0808654 2836:1.2337387 2837:0.52744305 2857:1.9147925 2860:0.20099521 2867:2.5505028 2878:0.83042288 2880:3.6941345 2881:0.30539593 2883:1.3927686 2886:2.7127991 2894:4.1100669 2897:0.69899416 2901:1.5849893 2906:5.2910519 2913:2.3667247 2914:1.123861 2917:1.3196206 2918:3.6306298 2925:1.1524065 2926:1.3545958 2930:2.0972314 2934:1.6641624 2936:0.25013971 2937:1.9380722 2938:0.22159764 2940:0.40206569 2945:3.6332097 2948:2.4458208 2952:1.4877138 2958:0.081585616 2962:2.4079814 2966:0.083187878 2975:2.3153713 2982:0.99949181 2984:1.4118128 2992:0.47947326 3016:1.2840927 3042:0.94687724 3043:2.3393047 3046:1.1371931 3048:4.6004438 3057:1.452629 3074:2.4607904 3076:1.46895 3082:0.51647872 3085:0.17267308 3086:0.10036767 3087:1.2551903 3088:1.7696083 3107:3.5439434 3110:0.017311975 3112:4.263555 3128:0.2856006 3139:1.8922094 3146:0.11622092 3153:3.0153096 3162:0.66392094 3165:0.69921052 3181:0.081574678 3186:1.2794321 3187:0.21809587 3189:1.7418776 3194:2.8751066 3208:0.25567397 3212:0.46643442 3218:1.2038448 3220:0.61344099 3225:1.4375739 3229:1.4137404 3234:3.0855188 3241:0.22282466 3246:1.3657204 3248:0.45426953 3265:3.5698242 3269:2.5638666 3270:1.6209794 3281:0.42128167 3294:0.14788902 3295:0.57253981 3307:5.6754704 3309:2.2543645 3315:0.79113483 3319:2.0137172 3322:1.3767619 3328:1.5912199 3330:5.4049735 3344:3.2816043 3346:3.9519734 3347:3.6075723 3354:1.1866951 3371:1.700091 3381:2.2488117 3382:4.0116696 3395:0.9518047 3396:1.1116433 3405:3.4948633 3406:0.18391809 3416:5.6488748 3419:0.28647357 3421:0.005674839 3425:0.69599497 3427:1.0329444 3431:1.3867319 3435:2.1762512 3436:1.7147183 3441:0.56157851 3444:2.575223 3460:0.93658316 3461:3.1577423 3463:1.005102 3465:1.2456532 3468:0.30405545 3472:1.7010684 3485:0.99092901 3486:2.3753037 3488:0.15306213 3490:1.5411937 3498:2.6861141 3501:1.2892947 3502:1.9308009 3503:0.18509395 3505:1.4988637 3506:2.4274645 3515:2.1775234 3517:0.68145585 3522:0.30513939 3530:1.2225363 3532:0.18241051 3533:0.054972813 3535:1.2998078 3536:2.8764315 3542:3.2269826 3548:0.19171774 3552:2.0895278 3557:3.0911722 3559:0.25135353 3563:1.306288 3568:0.73754966 3574:0.89790541 3579:0.6144523 3580:1.763074 3589:0.49836263 3596:2.3919036 3598:0.73625106 3603:0.19061324 3613:0.090827242 3619:5.7742538 3621:4.4088364 3626:0.053304326 3633:2.8580251 3636:0.92759001 3642:0.92003965 3654:0.2513856 3658:0.81883383 3661:0.70682025 3663:0.19345742 3664:2.0366299 3670:3.0576639 3671:0.32761738 3677:1.5863321 3680:0.26392213 3694:0.69132167 3695:0.1706908 3698:0.5685578 3701:0.035595626 3708:0.7149536 3711:2.9663718 3716:2.1851368 3718:0.71982765 3721:0.47891602 3732:1.0911695 3737:0.33759603 3739:5.0795116 3742:0.26062658 3744:1.0930505 3751:2.050869 3756:1.4925566 3765:0.21184066 3771:1.0748816 3773:0.53090125 3788:0.45478702 3810:0.99464899 3816:0.49581632 3824:1.5527554 3829:0.36529699 3831:0.65494186 3841:1.4044648 3842:0.87901783 3844:0.52173698 3868:0.16155231 3876:2.1636851 3879:2.7768881 3880:0.056910157 3882:2.2688453 3884:0.40778896 3889:0.16572577 3897:1.0819805 3910:1.6959776 3912:4.3170314 3916:0.28452292 3932:0.78760833 3939:2.0141854 3947:1.430764 3949:0.95944303 3950:4.0160651 3962:1.3918537 3968:3.0560548 3970:1.0134021 3990:1.4786768 4000:1.7360857 4004:0.3573007 4009:3.2978392 4012:1.674345 4019:0.91646391 4030:0.65196645 4033:2.2195652 4036:1.4198005 4037:4.810842 4040:2.1678135 4041:0.81710672 4043:0.99931473 4045:0.59236854 4062:1.7607062 4076:1.8826079 4079:1.6254004 4083:3.1291866 4084:3.9984653 4096:2.0176611 
0.03305854649238616 7:0.95122421 9:1.203926 14:0.17530301 16:4.5194759 17:0.63576567 22:0.10163487 23:0.5597713 24:0.22373106 53:0.17300078 60:1.1585432 79:2.2844601 86:0.037725814 96:3.672014 99:0.66799212 139:0.73116565 150:0.4757168 153:1.1692789 154:0.277367 170:0.26807323 179:4.2193141 180:3.9100709 194:1.55027 195:0.0062581375 211:0.27301139 214:0.73866457 218:1.4554579 220:2.9555323 225:1.7660196 248:4.0011477 253:0.59991223 256:1.6720463 276:1.9359499 280:3.4040294 282:4.0397115 284:0.8831532 295:2.8148131 300:1.7288166 303:0.36099535 316:0.82033056 322:0.072709322 336:0.57130396 342:0.026240788 347:0.0043382943 360:3.8488953 363:0.0055817366 364:0.32562688 377:0.037711687 380:0.59920025 381:2.9832261 382:0.77189314 384:0.1299274 389:2.5935597 396:0.13608724 399:1.1491246 401:1.379607 402:0.80069137 405:2.2865942 406:2.2907064 411:0.016632989 413:2.7493382 414:0.7417134 417:2.3408411 419:0.20510682 431:1.6748098 433:0.48129064 438:0.579862 444:0.66806096 451:1.1784186 458:2.9560747 468:2.5820656 470:0.33367702 473:2.5048046 475:2.1947503 477:1.0551977 486:3.1464591 487:2.3667738 493:0.5563612 501:1.3913445 511:2.2302668 512:1.535374 514:1.5098028 516:2.6525702 526:3.4834564 529:1.1055293 539:2.4787142 540:0.53661799 547:0.81927598 556:4.9271884 558:0.85868943 563:0.92607087 564:0.56763208 571:0.076601982 598:0.27376789 614:2.4618235 620:1.8574293 627:2.3413649 628:3.2676096 638:1.8350301 639:1.5873797 643:3.9958708 676:4.0766463 685:1.6512753 688:2.9018545 699:2.7884641 714:0.1272167 728:0.80914474 734:2.1183388 742:1.6846497 744:0.92339391 748:1.2131953 750:2.4489756 758:5.4380517 763:0.75130302 764:3.8097472 769:1.2308561 783:1.9854519 790:2.3663464 795:0.56659484 798:1.365586 809:0.91729033 810:1.7347599 816:0.72695148 817:6.8248811 821:0.65836871 825:0.23810002 829:0.89880425 833:2.6389263 842:0.36659941 847:1.150497 850:6.3233304 856:1.1735643 858:0.47729266 862:1.8130078 880:0.5749979 886:0.19951433 896:0.94372278 903:1.4748174 904:0.83971977 910:1.7877811 941:3.6632781 942:2.0737495 948:1.212703 949:1.1243615 951:0.95175719 953:6.372767 956:0.9951601 962:1.8951908 968:0.33136386 978:2.4095817 990:0.39386281 999:1.5522451 1010:0.22144336 1017:0.85189444 1034:4.4065957 1036:4.0170746 1063:1.764982 1069:2.4786811 1070:2.5959148 1075:0.1813834 1076:2.1211028 1085:0.17122772 1095:0.23347214 1113:1.2608614 1114:2.026897 1115:0.72418725 1123:2.0138333 1124:1.0974333 1147:2.6916664 1149:1.4534837 1152:0.18885472 1154:0.7856617 1160:4.5102859 1167:0.1082679 1169:0.27491271 1179:1.6524574 1184:2.9749055 1187:1.6931627 1190:1.2689325 1195:0.083139777 1223:2.8834252 1224:1.250668 1232:3.0249233 1237:1.415415 1238:0.1600343 1239:0.61151743 1252:3.7826974 1259:2.5014009 1266:2.1336572 1270:1.8485399 1271:2.0246425 1273:4.9625902 1284:2.9010746 1294:2.05194 1304:1.4513795 1312:0.24511951 1315:0.87120444 1317:0.91067189 1318:1.5238507 1320:0.10304546 1324:0.93335533 1327:1.1208315 1341:0.3076005 1342:0.49276912 1345:2.2941635 1349:0.62861568 1351:0.1883288 1355:2.2134399 1377:3.2858963 1394:0.45680028 1401:2.624651 1405:0.58806908 1406:0.0065713525 1415:2.9714482 1427:0.64446139 1437:4.723525 1442:2.5045099 1449:1.1915108 1454:0.70579737 1458:1.7813365 1466:2.2136433 1468:6.1935678 1469:0.10994454 1473:0.22570632 1477:2.2136936 1483:1.8425953 1485:1.2344532 1495:2.8368037 1497:1.2231269 1502:4.9283319 1505:0.38322082 1507:4.596168 1508:0.5454455 1518:1.8520309 1520:1.677031 1530:1.259889 1543:1.3021947 1548:0.099432349 1552:0.53183258 1555:1.8725742 1558:0.5700717 1561:1.6573007 1565:5.3447399 1566:0.2328942 1569:0.19529283 1570:0.3071309 1573:0.062525183 1576:1.4228995 1578:2.7475922 1588:0.38373587 1595:2.1989145 1597:0.78654152 1600:2.0682786 1601:0.40339923 1629:2.3142347 1631:0.47740373 1635:0.34531724 1642:3.2817354 1654:2.9774084 1675:2.6263101 1686:0.98466414 1713:2.9480543 1718:2.3750193 1728:0.72272789 1734:3.9507141 1738:1.6908867 1750:0.63200223 1755:1.8502098 1756:0.6794318 1767:2.8824244 1768:0.080799952 1771:1.3981985 1784:1.3142284 1791:3.0416889 1807:0.034958363 1813:0.23143314 1830:0.0021427572 1831:1.7302351 1840:1.8483438 1843:4.2319632 1849:0.60302103 1866:1.4340644 1873:4.5324159 1882:1.4789271 1894:2.0851541 1895:2.0323837 1898:0.27086183 1903:3.682096 1916:2.5255272 1917:2.4683573 1918:3.2698474 1921:1.1569885 1929:1.2573346 1939:1.2226043 1940:5.0685577 1941:6.060534 1942:1.9412539 1944:0.47460613 1947:3.3709753 1953:1.6069521 1956:1.3512224 1958:0.80666137 1965:1.1100366 1969:0.80911356 1974:0.54637229 1976:0.56876886 1980:0.89822865 1994:3.8555799 2007:1.9321995 2010:0.66800791 2014:1.7426819 2015:3.2814913 2016:2.3312788 2034:0.46606266 2040:0.5798676 2044:2.6343839 2047:0.09225744 2056:0.81573194 2062:0.73415148 2073:2.5074964 2078:0.58085668 2080:0.23691893 2083:0.035467863 2127:0.42830229 2130:3.0232732 2150:0.71624529 2160:2.8794568 2164:2.7195749 2173:0.053731054 2178:2.3524604 2188:0.50458276 2204:1.5753036 2219:3.2726617 2224:0.19627479 2225:0.28912559 2226:0.82577729 2227:3.0854697 2237:0.35665298 2238:0.17493916 2240:0.92846429 2241:1.1954243 2246:0.35804451 2248:3.5006182 2266:0.10149595 2271:1.2312751 2286:1.3022076 2316:1.4062318 2317:0.30303857 2332:2.364078 2343:0.80585629 2344:0.51442868 2359:0.34370589 2360:0.29946089 2380:2.5580134 2389:1.5378816 2402:0.68062323 2409:0.29630348 2411:1.0418658 2415:0.46450412 2424:2.3436217 2430:0.49438405 2439:0.26470113 2440:1.0403237 2448:0.91248071 2455:0.089127749 2458:0.37507346 2461:1.3013586 2462:1.3701353 2479:4.505558 2490:0.61626536 2491:1.2702289 2493:4.8525577 2497:0.46670496 2502:1.7912207 2509:1.2152781 2516:1.655781 2521:3.7997396 2540:0.094623327 2561:1.7208422 2566:0.73053235 2584:0.26309618 2591:0.52534312 2600:1.351904 2604:0.83253372 2609:1.5067029 2610:1.9773515 2616:2.1900628 2624:0.96578735 2628:0.65381652 2629:0.71300298 2631:0.61382288 2636:2.1128445 2655:1.6724339 2661:0.21694317 2677:1.5541217 2687:1.6853683 2690:0.48023623 2692:0.44550398 2695:0.58556324 2699:4.4102778 2701:1.089922 2703:1.9373412 2707:0.85860109 2716:3.3821473 2731:0.68098402 2742:3.3780484 2743:0.73941255 2749:0.6985836 2750:1.0174379 2751:0.20839977 2763:1.72688 2770:0.92520463 2779:1.7897651 2784:1.2296187 2785:2.4533503 2788:1.6208376 2789:1.7212768 2796:1.2073901 2811:0.49096525 2821:1.5368818 2832:1.3114296 2838:0.045588225 2857:1.4877715 2867:2.3311057 2874:0.16232008 2878:2.1578631 2880:3.7527308 2883:0.32111901 2886:5.6156273 2891:0.42204431 2894:4.513104 2903:0.29108936 2906:6.2665782 2912:0.11391637 2913:2.2148876 2917:1.5155728 2918:2.1125398 2925:1.0828167 2926:1.011246 2930:1.9471426 2934:0.36722812 2936:0.16531736 2938:0.70363295 2940:0.43345213 2945:3.81742 2948:3.7361782 2952:1.2049512 2953:0.4990446 2958:0.58164805 2962:0.88051832 2966:1.2205434 2975:0.98673922 2982:1.4461248 2984:1.241046 3006:0.20689574 3016:0.093024194 3042:0.97715497 3043:1.6238091 3046:0.99390721 3048:3.3033664 3074:1.0619929 3076:0.2642898 3085:2.1570332 3088:1.218637 3096:0.47633269 3101:0.93202531 3103:0.69491857 3107:1.3416805 3110:0.46316686 3112:2.0179701 3139:0.7601558 3143:0.0030158088 3147:0.64166927 3153:2.2037334 3162:0.79105306 3165:0.049384385 3167:0.16806008 3187:0.24668387 3189:1.5997744 3194:2.9758565 3208:1.1824996 3210:0.0041924715 3212:2.2547817 3218:0.97864157 3225:0.5701983 3227:0.31872761 3229:1.1141262 3234:1.4160401 3241:0.66165721 3246:0.3870734 3248:0.67176539 3265:2.7773805 3269:2.91783 3270:0.39828628 3281:1.3172482 3290:0.40424123 3307:6.6511669 3309:2.3727746 3315:0.63400698 3319:0.2368056 3322:0.34584457 3328:0.54120523 3330:4.3477926 3337:0.72481596 3341:0.63245636 3344:4.4904404 3346:3.5950789 3347:3.645102 3354:0.14152259 3371:1.0841788 3381:0.79241276 3382:2.2680881 3395:0.77261859 3396:2.2085111 3405:4.1231871 3416:4.2022324 3421:0.2847046 3425:0.48131359 3427:1.1714154 3431:0.63444138 3434:0.1104192 3435:3.5178823 3441:1.0344805 3444:0.52767092 3460:0.055888295 3461:2.957417 3465:1.2055604 3468:1.7055931 3471:2.0303187 3472:1.4813963 3486:3.5942888 3490:0.56528878 3498:1.1911602 3501:1.9585919 3502:1.0121974 3503:0.25677988 3505:0.83711743 3506:2.3627851 3515:2.0513282 3522:0.20284116 3530:1.7714393 3533:0.90766001 3535:1.3980039 3536:2.6917777 3542:1.8890573 3548:0.47623771 3552:1.9770099 3557:3.1500368 3563:3.4737437 3568:0.0016988516 3574:1.5453081 3579:0.97389245 3580:2.373313 3588:0.016966529 3590:1.9941607 3596:1.5797642 3598:1.964367 3619:4.8570552 3621:4.9205666 3626:1.9658477 3633:1.8499901 3635:0.57068622 3636:0.53597128 3654:0.45649397 3661:1.5601314 3664:2.5948284 3670:1.1381624 3671:0.95344663 3677:0.88313639 3680:2.2042687 3695:1.068243 3711:3.2472587 3716:0.46077418 3718:1.0086418 3724:0.64593643 3727:0.81916159 3732:3.5969527 3737:0.14836174 3739:4.7801609 3744:0.1983805 3751:3.0912762 3756:0.29513255 3765:0.64544165 3771:1.0441226 3806:0.4659124 3810:1.3470387 3841:1.9810383 3844:0.84026515 3852:0.43308759 3868:0.55757999 3876:0.79407823 3879:0.04937616 3882:1.9555125 3889:0.84463173 3897:1.6895686 3910:2.1814864 3912:4.1525011 3916:0.86742961 3929:0.63082099 3935:0.87307799 3939:0.48627016 3947:1.2640123 3949:1.1228919 3950:2.4872332 3962:2.2310352 3968:1.7879694 3970:2.5921073 3990:1.6879108 4000:2.1153393 4004:0.48367789 4009:3.0159016 4012:1.0160158 4019:0.37571168 4020:0.15617274 4033:1.7850924 4036:3.7878664 4037:3.5928478 4040:0.86372352 4041:1.0046905 4043:2.05039 4062:2.6267869 4076:0.58301663 4077:1.3354166 4079:0.64338046 4083:0.49117097 4084:2.553993 4096:1.1664639 
0.1345403368653579 12:0.78192431 15:0.79250282 16:5.5434198 17:0.77586555 22:2.5048156 23:0.35689634 24:0.63928819 28:0.51425546 50:0.049262375 53:0.82696849 60:0.75041568 75:0.27512199 79:1.2175776 81:0.42414331 86:0.44768599 96:1.8663864 110:1.2337832 114:0.16499659 124:0.11618014 136:1.8664725 139:1.7363089 150:0.6408729 153:2.2917237 154:0.37203705 170:0.22549504 177:2.6584051 179:2.7952347 180:4.1495609 184:3.8308725 189:0.61867511 194:1.66572 211:2.1173151 212:1.1431439 214:1.2950668 218:2.3222034 220:0.3409878 224:0.25961053 225:0.79204363 227:0.17010576 246:2.2009723 248:0.55385345 253:1.1097552 256:2.7004333 262:0.73723584 276:1.3895423 280:3.0702636 282:2.583977 284:0.035131276 295:2.8450477 315:0.74349856 316:1.1412432 322:1.7702526 327:0.46356541 336:1.5088725 351:0.31788364 360:6.2391624 377:1.2532147 380:2.0358737 381:4.7447615 382:2.2071793 384:0.65158433 389:3.1930287 393:1.6357462 399:0.76775903 401:2.3623052 402:0.45112205 405:5.3704219 406:1.8863405 413:2.692904 414:0.86918032 417:1.1401585 431:0.36511227 433:1.6861438 458:1.931271 468:1.0512857 470:0.3031399 473:1.7100518 474:0.47490758 475:3.6539204 477:1.2805673 486:0.17832994 487:3.6842744 511:5.4492006 512:2.6820898 514:0.068745822 516:2.5700645 519:0.00088229775 524:0.85836983 526:2.0914745 529:0.76433194 539:3.8742821 540:0.41512623 542:0.85723627 545:1.832763 547:3.0512164 548:0.23591989 556:2.8856924 557:0.86730134 558:1.4716551 559:0.43228403 563:0.81098157 565:1.2952276 571:0.28024998 608:2.1225462 609:1.3847264 614:1.9996284 620:1.6584451 627:3.9340677 628:0.78672808 638:0.34619027 639:1.7504207 643:5.7376738 674:0.45693788 676:2.4100261 685:2.7665887 688:2.6883485 699:2.1591399 700:0.80017704 702:0.78552383 714:1.5249368 719:0.84187198 744:0.51875669 748:0.68840063 758:4.2126646 764:4.5658193 770:0.14581968 783:1.9197265 790:0.92518258 795:0.011300325 799:0.58793116 801:0.51421648 802:1.4666615 805:0.10460078 809:1.0475916 810:2.9338977 817:5.7791471 821:0.73459518 828:1.7000662 833:2.7621055 842:1.2231774 846:0.090029314 847:1.5700833 850:8.5339575 856:3.3259244 885:0.073096231 894:0.11069238 896:1.6554961 903:0.15139171 904:0.44814101 910:1.4380435 923:0.40812317 941:3.5060391 942:1.0316908 945:0.87739027 949:2.9931595 953:5.0915074 962:0.91071868 963:0.64375377 968:1.5707088 978:1.9634173 985:2.0782421 990:0.39001042 999:1.1365144 1013:0.74390376 1017:1.9277357 1030:2.0683699 1034:2.6040549 1036:6.5857301 1063:0.22311404 1069:3.8524151 1070:2.6347599 1073:1.0115166 1076:2.7505925 1082:0.77523446 1095:0.27743316 1113:0.2088913 1114:1.358922 1115:1.0730288 1120:0.34052345 1123:0.74837691 1124:3.4388757 1140:1.5885359 1141:1.3134384 1147:1.6511638 1149:3.7203469 1150:0.64060616 1152:2.1512923 1154:0.70855939 1160:4.5670948 1179:0.62928414 1184:1.1261746 1187:1.3163503 1189:0.99539793 1190:4.3563461 1207:0.76435101 1209:0.7527824 1223:2.2562742 1224:1.1139408 1230:3.1252441 1231:0.035387933 1232:4.4360085 1237:0.58602178 1238:1.4075319 1250:1.3365746 1252:2.0079563 1259:4.0789471 1265:1.5246717 1266:4.2833986 1267:0.71825707 1270:0.30621529 1271:3.9803286 1273:3.1796954 1274:1.9208169 1277:0.17937243 1284:1.9989932 1289:3.8478148 1294:2.4137232 1312:0.29625458 1315:0.04640159 1317:0.21580566 1318:2.8196843 1324:2.5861409 1327:1.179179 1341:1.9288416 1345:1.3852468 1347:1.6920211 1351:1.9850975 1355:0.38072369 1405:2.0118618 1406:2.3269954 1415:3.512656 1423:0.031438723 1426:0.33820972 1427:1.3484777 1437:2.7527368 1442:3.710463 1446:0.6576786 1449:1.7689694 1458:3.6657352 1464:1.0928209 1466:1.0070499 1468:4.6329832 1469:1.6572337 1470:0.26587376 1473:0.28948349 1477:0.29312932 1483:1.3161144 1497:4.0397224 1499:1.4607127 1502:0.56510347 1505:0.044875473 1507:4.1055112 1518:1.0372014 1520:0.83313471 1525:0.20070013 1530:1.9182602 1543:3.3438163 1547:2.3305948 1551:0.09194506 1552:0.32126567 1555:0.44968259 1558:2.3321469 1561:2.3454974 1565:1.107949 1569:0.22748101 1576:2.6851985 1578:2.5714481 1595:2.4648089 1597:1.0976069 1599:1.3007038 1600:0.70846331 1601:0.35303482 1618:1.4754716 1625:0.1264295 1626:1.4649255 1629:4.5318089 1639:0.89803565 1642:5.9737926 1654:5.7567263 1686:1.5894388 1710:1.5131661 1713:2.519618 1718:4.6599483 1724:0.43385571 1728:1.9456311 1734:0.099027321 1739:1.2485466 1748:0.58126885 1755:2.7423174 1756:0.91265541 1763:0.17244518 1767:0.37074316 1771:2.2717052 1784:1.071123 1791:1.633214 1798:0.59163463 1800:1.0144166 1811:0.45943931 1828:0.21387488 1830:0.19022441 1831:1.5183299 1838:0.97429085 1840:3.3644714 1843:5.0209279 1849:1.5186365 1866:2.0754759 1873:4.0712423 1879:0.4580453 1882:1.6822968 1894:1.985065 1895:2.1091156 1899:2.1559486 1903:5.0089245 1907:0.15772647 1912:0.033444613 1916:3.7847042 1917:1.0541797 1918:1.4204247 1921:2.6252973 1922:0.058584094 1929:0.64677083 1939:1.9693888 1940:2.5827792 1941:4.6730161 1942:2.9179215 1944:2.0926139 1947:3.5424323 1953:2.1865559 1958:3.0272093 1974:1.3357116 1976:2.7407141 1994:4.2851553 1997:0.50350118 2007:3.0206566 2014:4.2109561 2015:1.9351273 2016:0.62889159 2018:0.97187448 2019:1.1578729 2023:0.22909394 2024:0.76674408 2033:0.53764284 2034:0.91792691 2038:1.3135625 2040:0.35585576 2042:0.22084081 2044:1.711096 2073:1.7484907 2076:0.81822681 2078:1.6788665 2080:1.2108752 2105:0.8608439 2120:0.51863992 2130:3.3257196 2141:0.92693818 2150:1.4350967 2158:0.99686784 2160:2.3030889 2162:0.38682139 2164:1.7263294 2166:1.3345013 2178:0.69782853 2188:0.67313838 2219:2.0488474 2224:0.75388718 2225:1.2353275 2226:2.6056259 2227:3.5325985 2237:0.3702637 2240:2.073698 2241:0.72069544 2243:2.0623331 2246:1.0113647 2248:6.1524649 2268:0.40404123 2273:2.6399426 2286:0.33667719 2290:1.1024301 2300:0.85523522 2316:0.65128583 2317:2.6251755 2331:0.09233883 2332:4.2055812 2346:0.010524899 2350:0.27357382 2352:1.5726817 2380:0.2149162 2387:0.1932838 2389:2.7501364 2402:1.4203945 2403:0.10069275 2404:0.48818374 2408:0.92665112 2409:0.31767493 2411:1.0908296 2412:1.4653648 2415:0.054443255 2424:1.1243033 2430:1.1684649 2439:0.81058431 2440:2.3069644 2446:2.246527 2448:1.1307708 2455:4.3606062 2458:1.5731765 2461:2.1093993 2462:0.67690086 2479:3.2440605 2490:0.96721053 2491:0.64485455 2493:1.4776032 2499:1.9290395 2502:1.6823431 2509:0.85780674 2515:0.02130565 2516:1.3939291 2521:3.1837096 2540:2.0662231 2549:2.1987872 2566:0.80407232 2590:0.74054539 2600:3.3331144 2609:0.96182144 2610:1.6698775 2616:2.5531793 2618:0.08198379 2624:0.59344882 2629:1.5139742 2631:2.4389234 2632:0.14870805 2634:0.50460482 2636:0.53811753 2653:1.6936231 2655:1.576727 2661:4.6896782 2668:1.6641765 2677:0.72202325 2681:1.4304205 2687:0.38429695 2690:0.1472978 2692:0.94823873 2693:0.73010862 2695:0.45666921 2699:5.7829137 2701:2.7774694 2707:0.8743608 2716:1.7501773 2718:0.18580198 2731:0.20342186 2742:1.7119346 2749:1.9313403 2750:2.8694634 2751:0.7618475 2770:0.33156329 2784:1.9499518 2785:1.1146483 2788:2.4964104 2789:0.97180367 2796:1.8254771 2818:0.38363811 2821:1.8849508 2830:1.4565569 2832:1.8788038 2838:0.076426864 2846:2.0027421 2857:3.142344 2867:5.1013336 2878:0.12498373 2880:2.071363 2886:2.513767 2891:1.1086124 2894:0.91429526 2903:0.69628638 2906:5.4532762 2912:0.99407589 2913:0.84607065 2915:1.2742232 2917:2.1548927 2918:1.4696686 2926:0.059070885 2927:2.6799307 2930:1.7453837 2934:0.68525678 2936:0.12587577 2937:1.9908626 2938:2.2934909 2940:1.8999147 2945:1.5155666 2948:2.3897331 2952:4.8269858 2953:0.23562253 2958:1.26157 2961:0.39602032 2962:0.24870118 2975:0.89641744 2992:1.303427 3016:0.81752473 3040:0.54130292 3042:0.7256366 3043:1.9281042 3045:1.437132 3048:1.8851242 3061:0.28649896 3071:0.81671441 3074:2.2525058 3076:0.86100245 3085:0.11545035 3088:2.1097457 3096:0.49142706 3101:0.69980586 3103:1.3452072 3107:0.2283268 3110:0.34591398 3112:1.7651789 3135:0.34560263 3139:1.8967638 3149:0.25029176 3153:4.3816161 3159:1.2835519 3162:0.083019257 3166:0.98304057 3167:1.1780232 3170:0.41214851 3189:3.0297863 3194:4.1961384 3208:2.9187901 3210:0.79134333 3212:3.5425417 3219:0.1058059 3220:0.48950744 3225:1.5489483 3226:0.70158726 3227:0.053800136 3234:4.1919842 3241:1.0609382 3246:2.8215814 3248:0.11772946 3265:2.7730997 3270:0.52699333 3281:1.8419014 3307:7.2090063 3309:3.3428831 3319:2.525589 3322:1.213879 3328:1.7613215 3330:3.9374902 3337:0.58968556 3341:0.56105852 3344:4.4665132 3346:7.2929111 3347:3.1767778 3354:1.51877 3378:0.0657489 3381:0.72231895 3382:3.7842221 3396:2.0800889 3398:2.7281132 3405:4.2983665 3416:3.9025769 3419:1.49796 3421:1.4874146 3422:0.012253076 3425:1.5031867 3431:2.4139547 3433:0.92506343 3434:0.04355076 3435:0.80156404 3461:2.4693923 3465:1.1585028 3468:3.1532395 3471:0.86216915 3472:0.20474273 3486:2.7863703 3490:0.30957344 3495:0.00095885992 3498:1.7565298 3501:1.5732862 3502:0.045019925 3505:2.45331 3506:1.1900702 3515:5.0540595 3528:0.11748898 3536:1.816247 3542:1.2621598 3548:0.59706211 3552:1.4358464 3557:2.7858803 3559:0.2655068 3563:5.9538689 3566:0.12143207 3568:2.2298489 3574:2.0045226 3580:1.6784806 3584:1.7233731 3588:0.37305713 3596:0.55804396 3598:1.197561 3611:0.34028864 3613:0.25404486 3618:0.16116971 3619:2.9148061 3621:3.2841306 3633:1.5786753 3635:0.58389068 3636:1.6706625 3643:2.2227719 3654:1.6287742 3655:0.70637542 3658:1.2481594 3664:4.2927275 3670:3.6737761 3671:0.62504852 3677:1.5308065 3695:0.0018676519 3711:2.4082625 3713:0.96943939 3716:0.74155295 3717:0.94566035 3718:4.3505383 3724:2.0751951 3727:1.7812738 3732:1.6676599 3736:0.31486881 3737:0.21119179 3739:4.6097398 3742:1.3745877 3744:0.39273158 3751:1.8928344 3765:0.98563755 3771:1.0164161 3773:0.043928385 3780:1.4807481 3783:0.94847673 3788:0.42369443 3801:1.7088619 3802:0.034828804 3810:0.88792413 3827:0.76303089 3829:1.1163808 3830:0.98267925 3833:0.49071294 3841:2.1328955 3844:2.2403355 3852:0.13849407 3864:0.63014954 3876:0.93009245 3879:0.15922229 3882:5.4383106 3896:0.69060707 3897:2.1292617 3910:0.27815178 3912:4.3681107 3921:0.33984485 3926:0.71183318 3928:0.35755089 3929:0.66530824 3935:1.36252 3947:2.4771276 3948:0.41536355 3949:0.68175578 3950:3.7481792 3962:1.24343 3968:1.8090042 3970:0.80120778 3972:0.14614809 3990:0.73474109 3995:0.34932399 4000:2.0503211 4008:1.7061527 4009:2.782125 4012:0.65291655 4019:1.7418755 4030:0.31038707 4033:2.0744021 4036:1.3510314 4037:3.626864 4045:1.6129708 4062:1.3920057 4077:1.8032522 4079:3.5813205 4083:2.3082023 4084:4.3702478 4087:1.2298794 4096:3.3892732 
0.9595930794087769 10:1.4201391 12:0.34365886 14:1.6740658 16:4.4881105 21:0.22485353 22:0.53946984 24:0.77004027 30:0.59541953 37:0.2473025 41:0.052886575 53:0.65086639 56:0.45705277 57:0.11203039 61:0.013450176 71:1.62553 75:2.3984573 78:1.452427 86:2.0841634 96:2.8980112 99:3.2428985 105:0.5770275 110:2.1136835 119:0.90955496 136:0.99331301 139:1.9543746 143:0.23986682 167:0.17236692 169:1.1936425 177:1.0926017 179:1.2546837 180:3.6948993 184:0.494306 194:1.2623208 195:1.4929314 203:0.59224969 211:0.57126498 212:0.097913116 220:0.72246993 237:0.4994919 240:0.029015005 248:3.8849807 253:0.1866838 254:0.56249714 256:1.1555753 258:0.28982651 262:0.82686746 280:2.33566 282:2.2600985 284:0.22178966 295:0.2439234 300:1.0173231 301:0.38905427 310:0.94899487 315:2.1687987 336:1.8932662 340:1.0671283 343:1.0503104 347:1.1299534 351:0.88064086 352:0.96006238 363:1.9335442 364:0.080706865 365:0.6285131 371:0.80627513 381:2.6276186 382:2.2688894 389:2.6684639 398:0.20730346 399:2.5653629 401:0.13359696 402:0.71113777 405:2.8543704 406:0.17732279 411:1.1779646 413:3.5883212 414:1.7875332 417:1.4199547 421:2.0862656 438:0.66097903 443:0.16407856 444:0.32157126 451:0.57510924 458:4.2073984 466:1.1729743 468:0.78393781 473:4.3452272 476:0.2613804 477:0.53361821 486:0.14116541 487:3.5376673 493:2.6644409 501:2.9229128 514:1.3251717 516:1.3922532 520:0.097292304 523:0.5905118 526:0.98461425 539:1.9781634 540:2.2764161 547:1.8905206 556:5.6878591 557:2.3175311 558:2.0501311 564:0.39933711 612:0.43016732 614:2.6608665 620:0.10935477 627:1.5277712 628:2.640187 637:2.7401152 639:0.73648179 643:2.863641 652:0.49509215 674:0.00017565489 675:1.4482813 676:2.940979 681:0.88544637 685:1.6945961 689:0.049354762 690:1.4333947 699:0.16444428 702:3.496351 714:0.77099407 719:2.2462771 728:1.7579273 734:0.5523262 739:1.3106457 749:1.152501 750:2.4978957 751:1.2284 754:5.1299028 758:3.4472036 759:0.095605552 762:0.97310746 763:0.85953534 764:1.7988385 766:0.52529478 775:2.5029495 783:2.2349441 786:0.84652591 790:0.82712185 795:0.53033698 816:1.1369896 817:3.2580798 818:0.047330767 821:3.2800498 823:0.60898364 825:1.2846057 829:0.21317337 831:1.9728202 833:1.0828838 846:1.2888906 850:2.6201215 856:1.7797037 858:2.0384603 862:1.4005141 869:0.83711261 875:0.34636682 878:0.015471101 891:1.1747754 896:0.28185329 904:3.8150909 910:2.1336832 923:0.65468454 927:0.54082239 928:0.2448138 933:0.1265941 941:6.1846795 942:1.3046829 945:0.21910331 948:3.9006264 949:0.17597242 953:2.2071419 956:1.5386941 962:0.28611013 963:0.64130116 974:1.0053008 978:2.176445 980:0.8024357 990:1.0554012 998:0.27866802 999:0.6327064 1008:0.026227832 1017:0.60852087 1020:0.20794317 1034:1.3670998 1036:2.5997345 1042:0.12526909 1051:1.2269826 1053:0.59843856 1063:1.2369853 1069:2.2606752 1070:2.0718844 1076:0.39023551 1077:0.53803587 1089:2.2574089 1091:0.85820818 1095:0.35149458 1103:0.37946445 1105:1.7115363 1113:1.4580365 1114:2.3046012 1117:0.65775502 1123:1.8834375 1124:0.24768701 1147:3.3924913 1152:0.65561146 1154:0.47702375 1160:2.1337183 1164:0.94789279 1165:0.47104603 1173:0.23530231 1178:0.55683494 1179:3.4874496 1184:3.0513802 1190:0.93120503 1212:0.046688437 1219:1.8297966 1220:0.66943175 1232:3.5863004 1237:0.07977742 1239:0.88149923 1252:2.3955085 1257:0.059016004 1259:3.5374424 1265:1.7545702 1267:1.9895648 1270:1.2378645 1271:1.7631843 1272:0.28240708 1273:1.073864 1289:0.021371692 1294:1.3257341 1297:1.2698649 1298:1.0053787 1300:0.10546698 1302:0.76434314 1305:0.96326292 1315:1.0708313 1318:1.5192301 1325:0.57852453 1327:2.7181761 1337:0.035164475 1344:0.61454558 1345:0.10344093 1349:2.5292943 1351:1.0476904 1355:0.69062972 1367:0.020029515 1377:4.3993468 1379:0.43214449 1385:1.5017726 1394:0.31121284 1398:2.0427268 1401:3.1398931 1405:0.10704064 1415:1.4485219 1426:0.71411979 1427:0.08458668 1435:1.7711686 1437:3.3889823 1442:2.8380182 1444:0.2329039 1447:0.99091619 1454:1.408237 1458:1.3539374 1460:0.32977217 1465:0.69857657 1466:0.29886425 1468:3.9067676 1473:0.62403846 1477:1.4479026 1485:1.2001181 1488:0.54740381 1497:0.15041047 1502:6.9398675 1505:0.5432055 1506:0.32169107 1507:0.71109986 1508:1.3697603 1518:1.9770528 1534:0.044568002 1543:1.6514111 1552:0.13981703 1555:1.2561735 1561:0.51793563 1562:1.3429232 1565:3.4422488 1566:2.2474103 1569:1.3251648 1571:1.5351753 1573:1.4928439 1574:0.71289062 1578:0.095810264 1588:1.5534457 1595:2.474679 1597:1.5656301 1600:1.343037 1601:2.5123267 1615:1.6471202 1617:0.67638063 1618:0.09416163 1628:1.624567 1629:0.39237273 1633:1.8188999 1639:0.22697404 1642:1.1959265 1654:1.9295928 1675:4.4347882 1677:1.6925888 1701:1.596506 1718:0.65795285 1724:2.9287684 1727:0.48147178 1729:0.40189087 1734:0.61311877 1738:0.57241428 1750:1.3591502 1756:1.6651016 1757:0.22702971 1761:0.059502065 1767:2.5663137 1768:0.40139315 1771:0.99544108 1776:0.28944615 1784:2.866225 1791:3.0782278 1796:1.1684316 1797:0.16166565 1798:2.2575355 1807:1.2950691 1808:1.8775021 1818:0.80665553 1824:1.6550324 1828:1.4434003 1830:1.1647201 1831:0.4186945 1836:0.28083426 1840:1.6723622 1843:0.63443542 1847:1.2921344 1849:2.6448903 1850:0.32927376 1853:2.0166883 1865:0.53479445 1866:1.3946314 1873:0.72993267 1875:1.409654 1882:3.0524178 1884:0.44033867 1886:1.6631825 1894:4.7313046 1895:2.1761627 1898:2.3790038 1902:0.66512263 1903:3.2389112 1905:0.081214122 1907:0.77357227 1909:0.42903936 1915:0.7288065 1916:3.6545124 1918:1.8213948 1921:0.42416909 1939:0.31038821 1940:3.9641981 1941:2.1578786 1942:2.2131939 1944:0.14683931 1947:2.4441574 1953:2.6935632 1956:1.2592163 1965:1.1473721 1969:0.60064763 1976:0.43766245 1994:1.9379979 1997:2.676652 2004:1.151315 2010:1.355877 2011:0.43739644 2013:0.63717782 2016:1.0322624 2017:0.34718287 2044:0.59101802 2047:0.19102347 2065:0.62169218 2073:2.1658025 2080:2.2811141 2082:0.1887269 2088:0.47270334 2098:3.3884003 2105:1.0469432 2113:0.49453843 2129:2.1358821 2138:0.77860004 2141:1.1549883 2149:0.036605388 2150:2.1949458 2160:0.86171818 2166:2.1363046 2170:0.7047686 2173:0.59524751 2177:0.43969482 2178:1.9655364 2184:0.42623866 2186:1.8337759 2199:0.22022152 2204:3.0453465 2210:0.30560827 2219:2.8469987 2225:0.2620312 2227:3.4630504 2241:2.7212038 2246:0.43140492 2248:2.683167 2250:0.78425914 2258:0.58119631 2264:0.2341916 2273:1.6414572 2286:1.2808168 2300:0.57631063 2302:0.35264498 2307:0.94439411 2311:2.0439041 2316:3.0207725 2323:1.0626551 2332:2.4761457 2344:0.81024265 2359:1.1343189 2360:3.5901737 2368:0.031166658 2373:2.2461238 2389:0.59380722 2402:0.027458012 2404:0.4848063 2408:1.2852627 2411:1.2214081 2424:0.94453812 2428:0.11142722 2438:0.57316142 2449:0.50541061 2452:0.22698772 2453:1.7051991 2454:0.13186112 2455:0.21800157 2459:0.38159123 2461:0.34234893 2462:3.4728618 2479:4.0891194 2490:2.1830323 2491:0.9612267 2493:2.5649543 2497:0.72697812 2509:0.99645865 2516:1.8322968 2521:0.81777561 2532:1.174425 2535:0.69332039 2540:1.9857719 2564:0.12121555 2566:3.6305144 2583:1.8802911 2586:0.22335237 2590:1.1333251 2591:2.1251504 2609:0.98329842 2610:0.84198838 2616:3.8629572 2624:1.0201693 2629:1.3739719 2632:0.38529804 2635:0.6158129 2636:0.27729416 2639:0.037631691 2649:1.145261 2655:1.0148212 2660:1.0360675 2665:2.473716 2687:1.2846615 2692:0.059362382 2699:1.5697299 2716:3.8587885 2731:2.4529161 2738:0.48505566 2740:0.044794217 2742:1.0427541 2743:0.83969676 2749:2.6540217 2750:1.5217404 2756:1.2419541 2759:0.81258607 2770:1.0827087 2784:0.46373111 2785:1.9119105 2789:1.2502515 2791:0.95098269 2792:0.97666717 2796:0.68229032 2807:0.068282723 2811:1.5688481 2821:3.5779929 2837:0.74373412 2840:0.43910828 2843:1.6525098 2856:0.4053973 2860:0.83798039 2867:1.4649099 2868:2.2169113 2878:2.1620934 2880:3.9507451 2890:1.9169734 2894:5.3136067 2896:1.608893 2897:0.24384286 2906:1.8312914 2912:0.99369627 2913:1.687768 2914:0.14029363 2917:2.2740133 2918:1.504359 2925:0.96153438 2926:0.98816884 2930:0.45214215 2934:1.4497035 2936:2.1723866 2938:3.6447098 2940:1.9396017 2945:3.8644538 2948:3.9255741 2953:2.5709915 2960:0.36987355 2962:0.7948755 2973:1.7663629 2980:0.30534896 2982:1.5440168 2985:0.15980542 2992:1.0029674 2996:0.92833924 3006:1.1682042 3033:0.74078667 3042:0.28866944 3043:0.88573575 3046:2.3197367 3060:2.3734777 3074:2.6776786 3076:1.8037368 3085:1.4977162 3086:1.2067233 3087:1.168368 3103:0.048136473 3110:0.61688459 3112:1.3062267 3114:1.202957 3118:1.7760698 3122:1.7057493 3136:0.78776312 3147:1.4948962 3153:1.4375145 3160:0.78721917 3162:0.45797935 3163:0.91307992 3165:0.48028028 3167:0.41496888 3169:1.4644436 3175:0.55187601 3186:1.7869718 3190:3.6848521 3194:3.0239069 3195:1.7084411 3202:0.52221304 3203:1.7127941 3207:1.4316149 3208:1.9023911 3210:0.23482433 3212:2.0963638 3217:0.0081577301 3218:1.9212418 3219:0.2558533 3225:1.1270716 3229:1.3177288 3234:1.4840455 3240:0.3829641 3246:3.3459928 3254:0.83014089 3263:0.4242813 3265:1.4352719 3269:1.8292559 3270:1.6881688 3274:0.62761247 3281:2.8115146 3282:0.22182518 3284:1.3285949 3289:0.14178169 3290:3.0062685 3291:0.17190778 3306:0.9381932 3307:2.4905944 3309:0.47048837 3310:0.47215638 3315:1.4009415 3325:1.33887 3337:1.2600925 3344:3.728066 3346:3.0646241 3347:1.6652551 3354:2.2604387 3359:2.1256976 3381:0.63474917 3389:0.20196842 3393:0.17923969 3396:0.7143513 3405:2.0559442 3406:0.79065406 3416:2.829422 3423:0.00053671002 3425:0.044116542 3427:0.61404634 3441:1.8877081 3444:0.73690522 3455:0.6054517 3460:1.1268716 3465:0.57458752 3471:0.97811103 3472:0.75879335 3474:0.41075402 3479:1.1235673 3486:2.5980909 3490:1.1341707 3498:0.052555621 3501:3.1871159 3506:2.0365934 3511:0.031037912 3515:1.747664 3519:0.24660054 3522:0.35121787 3530:1.3289692 3533:2.8339183 3535:2.8057182 3536:1.0231417 3548:0.11190286 3551:1.3309175 3552:0.26679075 3557:1.6362562 3562:0.30117187 3563:0.18627949 3577:0.43936598 3580:2.3431792 3588:1.8545786 3590:1.6593137 3603:0.95063758 3610:0.93394417 3613:2.395695 3618:0.36701289 3619:4.0628362 3621:2.4541078 3626:0.36649111 3632:0.075898439 3635:1.0726576 3636:0.11537668 3644:0.57745749 3645:0.63598621 3648:0.52412903 3650:0.89243215 3653:0.71654415 3654:0.26639602 3658:1.1317453 3661:2.9679973 3662:1.8157272 3664:0.22244832 3667:0.088815227 3671:2.293824 3677:0.65346813 3678:0.41884103 3679:1.8712578 3694:4.1230001 3695:0.42849821 3708:2.4224055 3711:0.17873216 3720:0.88638711 3727:0.56407326 3732:0.66768795 3739:3.2654452 3744:0.088858396 3756:2.4333146 3769:0.48376352 3773:0.81003559 3784:0.87762284 3785:0.9892481 3796:1.5718411 3801:1.8189853 3806:0.73891103 3810:0.27485842 3816:0.88604712 3824:2.2152867 3831:0.41956431 3840:0.019922853 3841:2.7716272 3852:0.35080618 3856:2.0452094 3861:1.8942595 3872:2.4871528 3882:0.30869001 3884:0.1237047 3889:0.33805555 3893:0.026315331 3896:1.1341386 3899:0.33392754 3909:0.6602447 3910:3.010148 3912:3.7797036 3913:0.19976783 3927:1.5380851 3928:0.77137464 3935:1.5614374 3936:1.8447943 3939:1.1459885 3947:0.66600704 3948:1.8084352 3949:0.7296899 3950:5.7669024 3959:0.74861521 3962:2.5757594 3965:0.27280462 3966:0.21927208 3968:0.52876002 3970:4.4502697 3990:2.2794349 4000:1.45689 4004:1.4414719 4009:1.9630485 4012:1.9888434 4014:1.6699066 4017:0.79072267 4020:0.77002573 4022:0.13167837 4029:1.5523294 4030:1.9804657 4033:1.6442378 4034:0.49642313 4036:3.4222555 4037:1.1174747 4040:1.1865332 4042:0.77107203 4048:0.21730107 4062:0.24039209 4063:0.46266359 4067:1.0455668 4069:1.6998472 4079:0.32598007 4084:1.9465928 4085:0.06976828 4096:0.90303862 
0.4378306873113848 7:0.17088476 10:0.23228246 12:3.6204603 19:3.6835375 22:1.5284405 24:2.2322049 28:6.6715126 30:0.16651493 45:2.1171839 50:0.44736794 60:0.75137424 73:1.052099 75:0.77408272 76:0.17480129 79:1.5806884 86:3.4903462 90:1.0248508 96:0.36777812 110:2.9086549 136:0.51828289 139:4.411469 140:0.2744942 150:1.2800692 153:6.5481539 159:0.39517295 162:3.8567975 166:0.93825865 168:0.21492222 175:0.17258412 177:3.7028811 179:0.4169752 180:0.2364535 184:2.83517 188:1.3270814 194:5.2549906 197:1.0630584 211:2.6181524 212:4.0395007 215:0.9852376 220:0.39147055 225:0.97160846 237:2.020992 252:2.4233732 256:4.7760177 258:4.7773557 267:0.29665831 269:7.3173451 275:0.34799728 276:0.21896276 284:0.48554847 288:2.5492091 295:0.31950116 311:1.0231078 316:1.0014224 319:0.77497256 322:0.78851569 333:1.2472274 342:0.58990598 347:0.3855699 349:6.5125279 350:3.256633 360:0.81221592 366:0.28792775 370:2.615252 372:0.45171404 377:2.5205483 380:2.5592735 381:0.94005513 384:0.011042893 385:2.2710114 387:0.8308363 389:0.20450452 398:2.1653583 399:2.1201882 402:0.3955788 405:0.82815754 406:0.36007875 414:1.8297162 418:1.2042449 420:1.3136508 421:0.42993301 423:2.9136636 427:1.5412734 430:0.58653587 431:1.2700182 432:2.4625416 433:2.0231059 434:1.3460351 444:2.6948259 445:1.3905869 456:0.4292812 460:1.1293133 474:2.8747735 477:3.1628687 479:1.3115467 486:0.30449134 487:2.855644 495:0.8304925 499:0.6209662 511:0.089514256 512:6.2374463 514:2.6035588 515:1.4882454 516:2.2120223 523:0.91535789 524:1.268293 530:0.60667253 535:1.1101227 545:3.3391609 546:1.1322554 547:0.66667163 548:2.8257737 549:2.0901175 557:1.7378966 572:0.074517757 576:1.6047592 584:1.6916293 586:0.13121051 595:0.5901199 599:2.401145 602:0.85786021 607:0.51490879 608:1.0552454 609:0.99370468 611:0.11481446 614:1.555144 620:1.4856272 629:0.72657096 639:6.4145145 642:0.47426423 643:5.6462169 645:0.72201747 671:1.3839545 674:1.991101 679:4.1770892 682:2.4952185 694:0.97418606 707:1.1044064 709:1.0966942 712:2.2242002 718:1.326488 720:0.26405603 724:8.1886759 725:1.9505939 736:2.8502076 741:2.0798302 742:0.042992033 744:1.0382694 748:4.7927513 759:0.92860055 764:2.8587232 769:1.0465732 772:4.8095398 785:0.96691823 789:1.0697352 797:0.86359626 798:1.6132076 802:2.3931401 809:0.076027453 817:1.4426267 818:1.1868184 821:2.7297976 828:1.2935048 830:0.65158343 832:0.014361858 833:8.3286724 842:2.4468546 847:4.2823353 850:4.6973596 853:2.9405923 856:6.7479515 870:1.1772748 882:1.6406151 887:1.954295 892:0.80589896 894:5.955512 896:5.3102188 904:0.52108955 908:2.011039 924:1.324429 932:3.1744952 935:0.51071119 941:2.0852535 942:4.1123514 945:0.74844694 949:0.62269098 953:2.4026494 962:0.17114931 968:7.7478862 970:0.45566946 977:1.7596081 985:1.696952 999:2.5087266 1008:0.81465018 1010:0.46910065 1013:0.55463576 1022:1.1383787 1024:4.5322738 1030:0.6046145 1036:5.1428738 1037:1.7595965 1046:2.0788598 1050:3.7477593 1053:3.2194548 1063:0.15087068 1069:1.3998921 1070:1.8145876 1073:0.45987833 1076:1.0728228 1080:2.9523854 1090:0.45361105 1091:0.58572537 1093:0.26550496 1095:2.500747 1117:0.86968744 1121:2.7542095 1122:1.1120453 1123:1.1102362 1124:4.9736495 1125:3.3130183 1128:1.1051323 1135:0.98294884 1139:1.7570626 1140:0.37787011 1141:1.6691413 1149:5.5919061 1152:0.30027956 1163:0.70095313 1183:4.1925406 1187:0.5653944 1190:2.5696712 1193:2.1064708 1195:2.7541292 1205:3.0982733 1208:0.9096753 1209:0.92750013 1213:1.402179 1232:0.90843534 1240:3.9004242 1252:1.0919394 1255:1.4798664 1260:1.1848509 1263:0.83216971 1265:1.244346 1266:6.3350143 1271:8.4094067 1273:4.1265664 1274:1.8754188 1277:2.590415 1291:1.6541867 1294:2.9105084 1298:0.015558898 1309:0.079455256 1311:2.294111 1312:0.66377056 1313:0.3053242 1317:2.6086206 1318:2.4443972 1329:1.8592019 1337:1.3999314 1345:2.2868941 1347:2.5533714 1360:5.0467267 1376:0.78536153 1377:3.8698058 1385:1.8744017 1394:0.62400007 1396:0.87823308 1398:2.4493918 1401:2.1444263 1403:0.93772709 1405:2.8647685 1406:2.4296067 1408:0.056251198 1409:1.2045482 1415:0.15810791 1423:0.47431552 1426:1.3700763 1437:2.3030491 1438:0.12886512 1442:2.805773 1446:2.8793035 1449:2.2248662 1452:0.79576218 1454:2.2308688 1458:5.2511392 1464:4.2167106 1468:5.8570952 1470:2.0506783 1471:0.43534818 1473:1.1143728 1477:2.1898577 1488:0.87403125 1495:2.0264158 1497:5.4391036 1504:0.033001453 1505:1.482779 1506:1.6808126 1507:2.8868656 1511:0.029420227 1512:0.1529035 1515:1.5215504 1519:0.26461017 1520:1.0567818 1524:0.53541315 1543:1.5846797 1544:0.090170979 1547:0.9549433 1551:2.9066329 1559:2.8929441 1565:0.8574577 1566:0.30260867 1570:0.006570667 1573:0.39801356 1576:3.4933445 1577:0.23616068 1593:0.67074043 1596:3.6998808 1597:0.7970221 1600:2.5320084 1603:1.4934565 1604:0.34514984 1615:2.4431901 1618:0.38104072 1626:5.1898141 1627:2.2993662 1629:0.30519158 1632:0.85041243 1642:2.0839305 1647:1.4015472 1648:0.84302592 1654:3.5989025 1668:1.0791508 1671:1.3495877 1677:1.2344525 1690:1.2626177 1698:3.8697491 1703:2.8663495 1706:1.816844 1710:0.30454421 1718:1.8710468 1725:1.4875932 1727:0.75200236 1729:3.5053852 1731:0.57038724 1737:1.26054 1756:3.8669791 1763:0.7006194 1771:1.3049536 1776:0.33490747 1779:0.17187089 1783:1.4734915 1794:0.79934335 1798:0.026798382 1800:1.9865758 1817:1.3051268 1819:1.8433431 1828:0.29843637 1838:0.16562065 1840:2.379267 1843:1.7374673 1848:0.41539583 1855:3.2621098 1859:2.0954897 1867:0.633542 1869:0.96654379 1873:2.4484773 1882:0.28135684 1909:3.1510181 1912:2.0721135 1915:0.14698993 1918:1.6271429 1920:2.6627347 1929:0.36366206 1935:0.84143782 1936:0.9173342 1940:0.55440938 1942:0.32061404 1947:7.6269989 1953:2.0865483 1961:1.2380639 1963:3.3608387 1965:0.15378027 1974:3.5850644 1997:2.927182 2003:0.98495352 2007:1.1372461 2010:1.2383797 2012:2.020437 2013:1.3017849 2014:2.6633322 2015:3.1545448 2016:0.39229682 2019:2.0994577 2023:1.7537584 2028:0.22630575 2033:0.58311111 2042:1.3939211 2044:0.26087192 2056:0.75184208 2072:2.2976615 2073:5.6886373 2076:6.2989664 2078:1.4185749 2080:0.33189774 2082:0.37024537 2085:1.0534165 2088:0.62750304 2100:1.7074642 2105:0.69712567 2111:2.4670539 2120:0.34497803 2127:0.54209006 2130:0.93545341 2138:2.5871916 2139:1.5043418 2159:0.11640312 2162:0.37876442 2164:0.6318562 2177:0.10386339 2181:0.24343304 2202:1.8923993 2216:0.42339361 2223:0.46139374 2224:2.7043154 2225:1.8683933 2226:4.1319118 2227:0.51558435 2229:1.798646 2237:2.8181174 2243:4.4779835 2244:0.28568411 2246:1.5595585 2248:0.2614139 2250:1.0415686 2253:0.36718678 2264:0.96623224 2275:1.2723507 2286:2.0174646 2290:5.0724578 2293:1.9193962 2300:0.67109662 2307:2.4027371 2309:0.76267219 2312:0.83534062 2313:1.6997541 2315:0.5089668 2317:2.1751068 2328:2.6722095 2331:3.4491489 2332:4.5464106 2346:0.95406497 2350:3.2750471 2352:1.5722687 2353:1.3337411 2355:2.2561707 2359:0.47714826 2360:1.8866241 2372:1.3645098 2374:0.083134532 2387:0.73270273 2389:4.404294 2403:0.87656969 2409:0.26349911 2411:2.1509974 2412:0.70126915 2420:0.96295512 2435:0.077681482 2446:2.9291329 2447:0.32410985 2449:2.4825366 2455:1.4250845 2462:1.9409226 2479:3.4939899 2489:1.3462808 2497:0.7336145 2499:2.2057152 2502:0.20949103 2515:2.3640633 2516:5.2850108 2526:1.5511832 2529:3.3136261 2537:2.2232208 2538:4.170949 2540:2.1701238 2542:0.95035779 2543:0.76864392 2549:1.0956602 2551:1.2905592 2577:2.4914334 2578:0.97002912 2580:0.084877744 2583:5.0453272 2600:1.2045619 2618:1.4456673 2629:1.3691691 2631:3.6613157 2639:3.9105804 2653:1.8973727 2655:1.1168321 2656:0.74454498 2660:0.57323086 2661:3.1372731 2668:2.0470254 2675:0.099453315 2680:0.88317442 2686:0.50569004 2690:5.2902594 2692:0.81641448 2693:0.65904701 2695:0.72873485 2699:3.6093802 2701:3.5202253 2703:0.11438632 2707:1.1703352 2710:5.1696043 2713:2.2315583 2718:1.1111 2719:0.75814748 2732:0.74364281 2738:3.3453455 2739:5.1693616 2740:1.6049669 2741:6.0939417 2742:0.47378838 2743:0.84517705 2747:2.6922967 2750:1.7033787 2751:3.528743 2754:2.7252953 2763:0.81473207 2770:0.39480895 2776:0.52185595 2777:2.5131693 2779:0.74037004 2784:5.3976507 2786:3.8210092 2793:0.76322097 2796:3.7002506 2803:1.6870625 2804:1.9693748 2811:0.84588516 2816:2.0036519 2817:1.0866766 2823:0.40515581 2828:0.54462725 2830:1.9807301 2831:2.2444255 2832:1.7296926 2836:1.4702566 2844:2.8760955 2846:1.0835227 2864:3.7342536 2867:3.8117137 2869:0.4049955 2878:0.63245744 2880:0.76926929 2882:0.03501913 2883:0.9636609 2891:3.4664283 2903:5.2648692 2906:1.8527681 2907:0.7673074 2910:2.1200089 2916:0.37340853 2917:2.9958055 2927:0.54304695 2930:0.83832896 2937:1.3283312 2938:1.3623955 2940:0.24807 2954:0.48592854 2956:0.41051322 2961:0.1425834 2962:4.6779766 2968:1.1399573 2980:1.6619008 2983:0.021096252 2995:0.62127864 3013:1.6138861 3016:0.14047462 3019:1.4126642 3027:1.2826444 3033:2.2813082 3040:0.12233125 3045:1.6478095 3048:2.4570022 3050:0.34102988 3053:3.2983146 3056:1.5276209 3059:0.78402179 3088:0.96691984 3093:0.5703665 3096:1.8934005 3101:0.21672395 3105:1.2133038 3114:0.70010674 3116:0.63700426 3123:0.81764889 3137:2.2674336 3139:2.8517478 3144:1.8309082 3146:1.7286146 3147:0.25493076 3149:4.4664893 3153:4.2737732 3159:5.6210766 3162:0.60227889 3163:1.9359474 3166:1.8956972 3170:0.51440191 3187:0.77194148 3188:0.76087415 3189:3.4852302 3195:3.9246683 3200:0.47791785 3202:0.59305108 3205:0.010893181 3207:4.2345276 3210:0.60070777 3213:1.4574864 3215:0.41598022 3218:0.91708905 3219:3.3887172 3225:0.71669668 3226:1.526731 3231:1.4051454 3236:3.5424731 3241:1.8150183 3246:3.8453524 3252:3.1467819 3259:0.71686363 3265:2.5509207 3267:3.833545 3273:3.4319406 3274:3.9952581 3275:0.42108592 3279:1.9498584 3289:2.7059131 3291:1.5604131 3303:1.3822703 3307:5.3225384 3309:0.32495674 3322:2.422724 3332:1.3236555 3340:1.1682935 3345:2.9675097 3347:0.34998703 3354:0.28629914 3371:0.40446898 3376:0.36012101 3382:1.1654608 3388:1.2555614 3396:1.33927 3398:0.51236546 3402:0.097836226 3405:5.0269942 3413:1.7587229 3416:1.381382 3421:0.049628586 3431:4.4651318 3433:1.9200675 3434:2.1517849 3442:1.8747573 3461:2.5088217 3467:0.069806159 3471:0.59304833 3485:0.45836011 3486:2.4902427 3501:0.62786877 3502:1.0809944 3506:1.3136328 3507:5.3811388 3515:5.5375433 3523:1.5699795 3525:1.5446613 3533:0.81121218 3536:0.98747605 3539:0.79161441 3544:0.50988281 3552:1.2981391 3553:0.16529948 3557:5.2035942 3560:3.6447859 3563:1.5897576 3566:4.4063067 3568:0.75384271 3574:6.0703039 3580:1.8817438 3584:2.1603653 3588:1.9940581 3589:0.22499666 3590:0.046738863 3592:0.85363221 3595:0.23132524 3596:1.7485175 3603:1.0680729 3610:2.4717579 3619:1.6493583 3621:0.15406102 3626:0.49349904 3635:3.8441703 3638:0.29108852 3645:2.0433018 3655:3.7709489 3662:1.2153804 3664:0.42401218 3666:1.949101 3675:0.69634116 3684:1.0481008 3686:0.29511997 3687:1.1127818 3689:1.1512822 3692:0.3422249 3709:1.5621557 3710:2.114018 3711:2.6621492 3717:1.7183026 3718:0.9972676 3732:2.6243012 3735:0.93937838 3737:1.2852015 3738:1.6021882 3739:1.0757349 3742:1.6249186 3744:1.7088367 3748:2.66606 3749:0.17949924 3751:0.84704208 3763:1.5304019 3765:5.1280379 3767:0.97747338 3773:3.1118729 3774:0.65141749 3778:2.0114784 3779:0.45682183 3798:0.25096563 3802:0.53162223 3809:3.5989974 3810:0.72819424 3819:0.12193623 3829:4.2284236 3833:1.70766 3840:0.29547316 3844:2.1631515 3864:1.0925473 3876:0.83838952 3877:1.0699296 3882:4.4364715 3886:0.3907477 3888:2.7368147 3892:1.0908403 3897:0.56583256 3912:1.5549827 3916:1.7741024 3923:1.4978669 3927:1.2839829 3928:1.6163559 3935:3.950218 3947:1.6223819 3948:3.3362756 3949:0.068619259 3950:0.66292369 3962:1.423462 3966:1.1061738 3968:0.9533093 3976:2.8877311 3982:1.24172 4010:0.16031796 4011:2.9079933 4013:2.7133443 4014:3.3724141 4018:0.19398314 4019:0.33061445 4023:5.6977968 4036:1.8991623 4037:3.1967814 4038:0.83769161 4045:5.6482615 4057:3.4864018 4077:2.6215997 4079:0.67045283 4083:1.3060142 4084:6.3320913 4087:0.43382981 4095:3.0100446 4096:1.8369346 
0.1572184919339909 7:0.73266232 10:1.4663842 12:3.7906642 15:1.4544613 16:0.1355121 22:0.52559775 23:3.2447617 24:1.301792 26:0.35573 28:4.2071028 30:0.63963354 45:3.6957693 48:0.43950626 50:1.134794 60:0.92382288 75:0.8476727 79:3.4064672 80:0.35733691 86:4.5262532 90:1.459125 91:0.8060137 110:4.0217876 112:1.0131073 123:0.99570322 124:0.076422974 139:1.6814977 140:0.59499025 153:4.4390211 156:0.30345532 162:1.0465173 166:2.7450571 169:0.58676487 170:0.6047681 176:0.07966733 177:3.6898603 179:0.17370917 180:1.8952706 184:1.6268661 188:0.70825934 194:1.8742177 197:1.7848686 211:0.84983933 212:3.47576 215:0.39760074 218:1.0579745 220:0.87781644 224:0.2823936 236:0.218832 240:1.4856368 252:1.8641994 256:5.5610147 258:2.0086632 267:0.40771118 269:5.213181 271:0.40498179 276:0.73701477 280:1.0396417 282:1.4046201 284:0.14472771 286:0.11418886 288:1.2165235 295:0.74054497 311:3.3436193 313:0.8028962 316:0.21813208 322:1.3047402 333:0.051365554 349:5.8077364 350:1.7107557 351:0.1222066 366:0.37308633 377:1.6636869 380:0.33693951 381:1.5874192 385:1.4442056 389:2.2102015 398:3.828423 399:5.1069031 404:0.71741402 405:0.76128787 413:0.47894514 414:0.66193485 418:1.6376698 420:0.77867877 421:3.7481408 422:2.7497611 423:1.7837955 427:1.8367572 430:1.6261234 431:2.0614929 432:2.52737 433:1.9607555 434:4.0264263 435:0.8589834 444:0.25681937 466:3.1290078 472:2.3370776 474:1.7110256 475:0.30936858 477:3.5899708 479:0.24606359 487:3.631824 493:0.15772581 495:1.9419987 499:0.65487069 512:4.6940947 514:3.0578768 515:3.0816941 523:1.336436 524:2.4628484 535:0.52443171 539:0.92136651 545:1.4481242 547:2.1153939 548:2.6260052 549:0.25556409 555:1.8261603 557:1.957477 562:0.76052034 563:0.93228614 571:0.97015274 572:1.3535031 576:2.4148827 578:1.1850692 584:0.94287169 586:1.0109178 599:0.77691817 603:0.93619657 607:3.1270647 608:2.170423 614:1.8745278 620:2.8097842 627:0.26353768 629:0.18351248 639:4.1586761 641:1.1548895 643:6.1264992 645:0.19476674 671:2.8971763 674:2.6126652 676:2.2190909 679:3.2242022 681:0.76076198 682:3.1595092 694:0.54200876 700:0.84351814 709:0.15095164 712:2.6566269 714:0.091413677 724:6.001843 725:3.0223267 734:0.098481581 736:4.9990168 741:4.095665 742:1.838655 744:0.78879452 748:3.7662392 750:1.6588781 758:0.91250551 759:1.266853 763:0.30044723 764:1.7501396 772:3.8207905 782:1.0114882 785:0.090109713 789:1.568689 797:0.028728388 798:1.4188209 799:0.22125185 802:2.1601937 817:2.8704379 818:2.196116 821:2.741791 832:0.19804895 833:8.218152 847:2.9509213 850:5.9793262 853:0.44742745 856:7.3868055 867:0.51035327 869:2.1505954 870:2.1231577 882:0.5872612 889:0.57831782 894:4.2967148 896:3.4457705 904:3.7173674 908:2.4733377 912:0.66260469 915:0.018541932 924:0.019229323 932:1.6431624 935:2.1604891 941:2.3622584 942:2.7671006 945:1.7119479 948:1.3459904 949:2.1119354 968:6.4631186 970:0.59110671 974:0.85986835 985:1.2392892 990:0.74246514 999:2.1355431 1001:2.7469866 1006:0.31832805 1008:1.7249811 1010:1.3897437 1013:3.8926144 1014:0.28102565 1022:2.0925989 1024:2.671999 1030:2.527591 1036:3.2862778 1037:2.0941606 1047:2.4112866 1048:1.8014282 1050:1.3690046 1053:2.9195693 1063:1.1134079 1069:1.0145762 1070:1.0033269 1076:1.2109851 1080:1.5907896 1090:1.1012142 1091:0.20479572 1095:2.8431795 1114:1.8632091 1117:1.9547443 1119:0.43307668 1121:1.4210684 1122:1.2965558 1123:0.62506121 1124:3.2263312 1125:3.9742155 1133:0.15420233 1135:0.83196652 1137:0.58462596 1138:0.54925787 1139:3.084229 1149:2.6113219 1152:2.3251739 1154:0.51497811 1160:1.0189178 1163:0.80516005 1183:3.1621473 1187:0.28969079 1190:0.95589072 1193:2.4613221 1195:2.0528009 1197:1.5112374 1198:0.7192719 1205:1.1272221 1207:1.2990503 1208:1.5881176 1209:3.4458106 1213:1.6136465 1216:0.4915362 1223:0.10099457 1231:0.49532193 1232:1.5557213 1239:1.6440188 1249:1.10899 1252:2.5036736 1255:1.4045149 1257:0.19682828 1260:0.41013348 1263:0.24027169 1265:2.8283863 1266:4.2822418 1271:8.1841469 1273:3.1376021 1274:2.6205809 1277:1.8288633 1290:2.3109689 1291:1.5244235 1294:2.1980004 1296:0.095016241 1298:0.82193959 1302:2.5863698 1311:1.8006667 1317:4.0360746 1318:3.8527093 1321:0.06718421 1327:0.28753337 1329:0.1367653 1337:0.94758403 1345:1.617839 1347:3.0893342 1360:4.0717349 1376:1.986416 1377:3.4895501 1380:2.444068 1385:2.7626595 1389:0.31473422 1391:0.80641091 1398:0.45721692 1401:3.518115 1403:1.735918 1404:0.86452961 1405:1.2500422 1406:2.1375153 1423:0.1880237 1426:1.6419879 1437:1.0371965 1438:1.5418422 1442:2.9967911 1446:1.8144329 1449:1.2914543 1451:0.46042097 1452:1.3019853 1454:2.5620093 1458:6.475246 1464:3.2485874 1468:3.7878227 1469:1.2248948 1470:1.7037064 1477:2.9416275 1488:0.15785977 1495:2.5581028 1497:2.554821 1505:1.533698 1506:1.9131627 1507:3.6246293 1515:0.030730784 1519:0.91207194 1523:0.44287163 1543:0.21363382 1544:0.30928007 1547:1.9382337 1551:1.6942036 1552:1.2064061 1559:0.94300795 1565:0.62143672 1566:0.89956146 1576:2.5016284 1577:0.9115665 1582:2.5229926 1593:0.063025013 1596:3.0259385 1600:4.3028374 1613:0.211999 1615:0.49492067 1618:1.6639148 1626:3.6166399 1627:0.06417264 1632:1.6879033 1634:0.0027090311 1637:0.90104783 1638:2.1217246 1639:0.9604156 1642:1.3416356 1647:0.84065312 1648:0.82349229 1654:4.5382948 1668:1.3074863 1675:2.5549843 1677:3.9350507 1690:3.7743754 1691:1.8589272 1698:4.5808363 1703:2.7006867 1706:3.2073188 1718:1.5348352 1729:1.2703482 1731:1.0384394 1737:0.75263488 1739:2.1547332 1755:0.33250302 1756:2.8162196 1763:0.76715541 1772:0.50314713 1776:1.1168474 1783:2.5354362 1794:1.3272159 1797:1.6075418 1798:0.42749262 1800:2.3444445 1815:0.44219536 1828:2.9849081 1840:4.619741 1843:0.91921091 1847:0.23844758 1851:0.13119867 1855:4.3962221 1859:5.8698359 1867:0.62354672 1869:0.99970955 1873:1.3436515 1882:1.402338 1894:0.82906127 1905:2.8389421 1909:3.4414904 1912:2.9045887 1915:1.3289053 1918:0.15609241 1920:3.9797645 1922:2.0584087 1926:0.8895967 1936:0.75370264 1939:1.4809965 1940:1.2380952 1942:1.1694622 1947:5.5880022 1953:3.3929071 1961:1.4285653 1963:2.9492724 1974:1.7354997 1975:0.15105516 1997:4.2877817 2003:0.84416628 2010:0.21620645 2012:0.91750455 2013:2.3817892 2014:0.72986674 2015:1.3322569 2017:0.5560618 2019:2.1194077 2023:1.4419229 2033:1.1584198 2037:0.81972873 2042:1.2773981 2044:0.28411451 2051:1.4588817 2056:0.68697596 2062:0.026165992 2073:5.1099715 2076:4.1730852 2082:2.7885363 2088:0.96192801 2093:0.19482924 2100:0.64213938 2105:3.8255868 2108:1.5926929 2110:0.26265228 2111:3.5749011 2120:2.1086786 2127:0.49445826 2138:3.2462893 2139:2.0860238 2147:0.18296441 2151:1.4093029 2159:0.90022707 2162:1.4413954 2164:0.27111849 2188:0.58906919 2195:0.94843233 2201:0.18731894 2223:3.0474777 2224:1.6830754 2225:1.325297 2226:0.07012102 2229:2.7605028 2234:0.034111045 2237:4.1079917 2239:0.044348832 2240:0.22696476 2241:2.3320539 2243:3.5182195 2246:4.2192745 2248:1.4350675 2250:2.1960337 2258:1.3280838 2264:0.34767133 2271:0.78643572 2275:2.0043044 2281:2.8385832 2286:0.056646466 2290:2.2524176 2293:0.18090892 2295:1.2878361 2300:1.5313628 2307:3.1333563 2309:1.2287859 2313:1.0896372 2315:1.0911371 2317:1.7364768 2322:0.37339261 2328:0.4393779 2331:2.3009238 2332:4.9380612 2333:0.074706346 2350:2.4612143 2352:1.7159963 2353:1.0176415 2358:0.76059401 2359:0.11582947 2360:3.2615418 2372:2.7930946 2374:0.69999635 2386:1.1931845 2388:1.1477667 2389:4.4801283 2403:1.3522124 2409:0.09237206 2411:4.2437229 2412:0.55194396 2414:1.7480019 2446:2.2337296 2447:0.082596809 2449:2.4049337 2450:0.80038923 2455:2.1653955 2462:0.63293743 2467:2.2591217 2479:2.7405334 2484:0.82598853 2489:1.1739688 2490:0.87163603 2493:0.4694654 2497:1.8424962 2501:0.64570111 2509:2.0742264 2515:0.087592632 2516:3.3717568 2526:1.8554999 2529:2.5922766 2537:0.045402944 2540:2.2874477 2542:1.288255 2543:0.80442339 2551:1.5324969 2552:0.39404973 2577:0.13835862 2578:0.088082686 2580:1.0901588 2583:3.981688 2592:0.46662313 2594:0.32052374 2600:2.0311182 2616:0.19628015 2618:0.19668333 2624:1.6322935 2628:1.5993218 2629:1.6409011 2631:3.8781867 2639:3.08587 2655:1.4058075 2656:1.1595923 2660:1.8321519 2661:1.1747015 2668:4.1102939 2680:2.3659213 2686:0.34868717 2690:2.9216404 2692:1.2550956 2693:0.84797645 2695:2.5270162 2698:0.43769118 2699:2.1139345 2701:0.89836264 2702:0.85025203 2703:2.1755953 2707:0.11308376 2710:4.5547566 2713:0.52265751 2716:2.6913519 2718:5.3929801 2731:0.34731844 2732:0.95111746 2738:3.944535 2739:3.6686347 2740:0.58997184 2741:3.497865 2742:0.28468141 2743:1.3696312 2747:0.72171259 2750:0.92500675 2751:2.7544875 2754:0.92391908 2756:0.47406891 2759:0.55678213 2763:0.60198987 2766:0.080644369 2770:1.2147386 2777:4.7791548 2784:3.188803 2786:3.7917714 2788:0.80792868 2796:3.8299351 2804:0.87700552 2808:1.5423752 2811:0.67992741 2816:0.65513247 2817:1.6711757 2823:2.7122509 2825:0.6657595 2828:0.10893016 2830:1.645246 2831:4.5433149 2832:0.57027256 2846:2.3402934 2851:0.040657535 2864:5.410418 2867:3.9029005 2869:0.31942376 2878:0.15742016 2880:2.0946798 2882:1.0260848 2883:1.4181433 2889:0.45858225 2891:4.6424322 2894:2.1211424 2903:3.5718124 2905:1.7193263 2906:1.7167118 2907:1.207378 2910:2.5951505 2913:2.0157883 2917:2.49773 2927:4.0868707 2937:0.96836746 2938:0.34935302 2940:1.9579093 2942:0.15417683 2947:0.25754282 2948:0.48201463 2953:0.89432108 2958:1.4289635 2961:0.31292695 2962:1.4734893 2968:1.1164916 2970:0.37256715 2973:1.7147602 2980:0.34897822 2984:1.471525 2995:0.47244889 3013:1.1251696 3019:1.4521902 3023:0.66713214 3027:0.54191846 3028:1.2299464 3033:0.54851484 3040:0.20463392 3043:0.59540111 3045:1.3058839 3046:1.2680948 3048:0.20238125 3050:0.38111979 3053:2.5513384 3056:3.2830765 3060:2.0695729 3075:0.58507222 3081:0.29357332 3087:0.52206635 3096:1.2351034 3101:0.19913843 3110:0.80055737 3114:1.4370594 3116:2.170253 3122:1.8015091 3123:0.47273752 3127:3.2987387 3137:1.8375297 3139:1.5302565 3142:0.57922739 3146:1.5794476 3147:2.1229742 3149:1.235188 3153:7.1757226 3159:4.7397842 3162:1.7208111 3163:3.4323106 3166:1.8492123 3188:0.88107204 3189:4.3906517 3195:2.2510467 3202:0.042795658 3207:2.5591817 3213:2.186404 3218:1.5348434 3219:4.5796351 3231:0.39270967 3234:0.64888519 3236:4.0144749 3241:1.1728232 3246:3.0166457 3252:2.3447683 3261:0.22321254 3265:1.8074484 3267:2.2941468 3273:1.3427786 3274:3.4235132 3279:2.768564 3286:1.1511098 3289:2.5601988 3291:1.4826488 3303:0.16892958 3307:8.1576252 3309:1.2181096 3332:2.4765205 3340:0.12640369 3344:1.1426986 3345:2.8627391 3371:0.63868159 3382:0.69804013 3385:0.0048757829 3393:2.7002976 3396:1.3953214 3402:1.6750605 3405:4.5708714 3413:3.3661478 3416:0.80233324 3421:0.70172381 3431:3.9707563 3432:0.69955236 3433:0.94655746 3434:1.4280758 3442:0.50156963 3450:0.53731519 3461:0.62136877 3467:0.32296556 3479:0.15977752 3485:2.7709448 3486:3.5172801 3493:2.5573018 3498:0.16231835 3500:1.6353987 3501:1.5480884 3502:0.054106474 3506:1.3866103 3507:3.342947 3515:6.0703869 3523:2.5476086 3525:1.1182451 3533:0.7307595 3536:0.42546186 3539:1.3499011 3545:1.8643253 3552:0.41478163 3557:5.7215614 3561:0.60366005 3563:0.48389804 3566:4.9292674 3568:0.051365495 3574:3.6797612 3577:2.9695601 3580:0.92159653 3584:0.014850497 3586:0.06092228 3588:3.8197358 3589:0.53957617 3595:1.1441581 3596:1.606444 3598:0.44592798 3603:3.1386428 3610:1.3890784 3616:0.63786173 3619:3.8318672 3621:0.46287543 3635:4.2097435 3643:1.0992939 3645:1.1756513 3650:0.16164678 3655:3.6737278 3657:0.62535119 3658:0.86827576 3662:1.0174527 3664:0.64901155 3666:0.71982193 3669:1.4125384 3677:1.6494884 3686:1.3539693 3687:0.056085855 3689:0.23006681 3692:0.96630859 3700:0.88917756 3711:2.6626692 3712:0.42623064 3717:1.0891697 3729:1.0364316 3732:2.7879617 3738:0.62439072 3739:2.0925329 3742:1.5292293 3744:1.8876928 3745:0.6175667 3746:0.85306484 3748:3.5985408 3763:3.3779151 3765:4.3828201 3767:0.42669502 3773:1.550907 3774:0.24045604 3778:3.9808643 3785:1.0058199 3798:0.61834979 3809:3.7081943 3810:0.19730514 3819:0.093229324 3823:1.3651524 3824:0.38837343 3829:4.5893135 3833:3.1815851 3840:0.20037782 3844:0.70522499 3864:3.1260421 3876:0.19740602 3879:0.38608891 3882:5.0139241 3888:3.7153215 3892:0.1600592 3906:0.75313771 3912:1.7782381 3916:1.7587371 3917:1.0702996 3921:1.1383387 3923:2.0373905 3926:0.39698428 3928:1.741184 3935:4.3645887 3948:2.8929243 3949:0.45620796 3950:3.1143837 3962:2.4881248 3963:0.076246083 3968:2.3144641 3976:3.0792031 3982:0.16029352 3984:2.1878483 3985:1.5884755 4010:0.62379801 4011:2.4276834 4013:2.8814597 4014:2.1777725 4018:1.8791552 4023:5.1668487 4036:5.4252009 4037:2.3534541 4041:0.58155882 4044:0.7091915 4045:5.8613873 4057:2.5812311 4059:0.62402058 4077:1.8880322 4079:2.4439237 4084:7.2028093 4085:0.18424484 4087:0.090712041 4094:1.1362406 4095:1.876707 4096:0.84898925 
0.47401539045514 12:1.1163092 16:0.097987324 22:1.6246295 23:0.64429146 24:0.35299698 26:0.56307173 28:1.3696383 37:0.6943208 40:0.87065721 45:0.24243635 60:1.723349 75:0.75176507 79:4.0427442 80:2.3444052 86:4.8778582 90:1.2893543 91:0.46576771 96:1.255855 110:4.6632848 139:1.604587 147:0.21238542 150:0.44377616 153:2.6101594 156:0.53525317 162:2.7174678 166:1.3675691 170:1.352541 176:0.3280043 177:5.9432726 184:4.6606855 188:5.3193078 189:0.32016611 190:1.2286918 197:3.0725765 211:4.5054998 212:2.3639848 218:0.20172784 224:0.60581774 237:0.76118982 246:0.21907675 256:5.9566879 258:0.091974735 269:0.53457344 280:1.1479983 282:2.206562 288:1.8616374 295:2.5797303 299:0.42081127 313:1.1574683 317:2.0868924 322:1.6503474 349:0.25545147 360:0.92430294 366:1.3899367 377:0.91194242 380:0.78667027 381:0.99958897 389:0.75680912 398:0.1613736 399:6.5599566 401:3.3139737 402:1.2535225 404:1.0892622 405:1.7417749 414:0.85336697 421:1.683103 422:0.22250909 427:2.6547575 430:0.84409446 433:2.4971848 434:1.8284471 435:2.1877449 459:0.72310925 460:1.9907668 466:1.8826582 470:0.94966739 472:3.7342374 474:1.7446826 477:1.9483804 487:5.6335917 512:0.82661283 516:0.77154529 520:1.3693988 524:0.093185991 535:1.8043034 545:3.9316852 547:5.2167959 548:2.2695971 550:0.83428085 555:1.5979847 557:4.8055072 563:0.087678917 571:0.81918967 572:1.1698754 584:0.69686317 593:0.52048934 602:1.3653429 603:2.736846 605:0.72509313 607:2.9513278 608:3.6949906 614:1.8593637 620:2.2816887 627:2.0749221 639:3.520767 643:5.3194818 655:0.085529521 671:1.9372958 674:0.88314724 676:1.7923993 679:2.3512824 681:0.25162259 682:0.83772981 699:0.0098305047 700:0.044982299 707:0.087745607 724:4.8781943 725:0.79034358 736:4.9024835 739:1.4094784 741:2.4737389 742:0.83496249 748:4.7040081 750:2.3296044 764:6.0802975 772:3.2097807 799:0.81130385 802:4.2223468 817:3.0556319 833:4.1126814 847:4.158504 850:8.5247269 851:0.3343443 856:7.6291041 869:0.35533401 870:1.0587995 885:0.61947107 894:4.0651855 896:1.6154637 899:0.46411157 904:4.1091371 908:1.4802831 909:2.1854761 932:0.27910584 935:1.3509055 942:0.043169081 945:1.8263314 948:0.030334562 949:3.3954241 953:0.046125382 956:0.087734938 963:3.2655025 966:0.019421667 968:5.1840296 974:2.5415363 982:0.038759425 985:3.05673 990:1.3794144 999:1.8825161 1001:0.6623131 1006:0.12101859 1013:1.7014488 1017:0.68578649 1024:1.9287037 1026:0.35173339 1030:2.4886262 1036:2.3854105 1037:3.0226924 1046:2.1504438 1048:0.29519856 1050:1.3264618 1053:1.7410204 1069:1.9681792 1070:2.658514 1073:0.72748995 1076:3.1021142 1080:3.7891738 1095:1.4837832 1112:1.2883184 1114:3.2283363 1121:1.4900591 1122:3.7433486 1124:7.0336499 1139:3.4202671 1140:0.78009492 1149:0.40064311 1152:5.390379 1154:1.5671077 1159:0.096546561 1160:1.7644668 1163:0.43518913 1174:1.3686285 1183:3.1585314 1190:0.84871835 1193:0.27706146 1195:1.7317871 1198:0.28106457 1205:2.2498221 1209:2.0848584 1216:1.8124542 1231:0.72101617 1232:4.1554785 1240:1.0698674 1249:1.5867469 1255:2.7560561 1257:0.074574605 1265:7.7769003 1266:2.8230276 1271:8.7480936 1273:2.0982702 1274:1.129294 1290:0.85067642 1291:0.62327373 1294:1.1504511 1302:1.8536372 1309:0.26880231 1311:2.9295022 1313:0.081268579 1317:3.1804934 1318:6.0833693 1327:0.32495445 1341:0.011666074 1347:1.9849958 1351:0.7514258 1360:0.52721435 1375:0.59801334 1376:2.5982566 1377:1.5055485 1380:0.55392081 1385:2.0955954 1390:1.3151981 1391:0.26168633 1393:1.2562835 1398:1.9867812 1401:0.71355689 1402:0.066868573 1403:1.5722764 1404:0.50966191 1405:1.5544275 1409:1.0393207 1426:1.4153252 1441:0.2180042 1442:0.85114884 1446:2.0434191 1449:2.6000021 1454:2.5960917 1458:8.7212124 1464:2.2130926 1468:2.7411895 1469:1.926954 1470:4.1723914 1477:1.9225945 1497:3.241142 1505:0.91444337 1506:3.91275 1507:2.7031295 1515:2.5249882 1523:0.75233811 1525:0.64647418 1542:0.061012864 1543:1.9919666 1547:1.2094032 1548:0.23365605 1551:1.3003495 1557:0.5155136 1565:0.36427569 1569:0.8656354 1576:3.1943829 1582:0.77042037 1587:1.6935285 1596:2.8086815 1597:0.69336534 1600:5.9625559 1618:1.532227 1626:5.8911433 1632:0.52807486 1639:0.14760527 1642:3.8686802 1647:0.10171267 1654:6.3031273 1675:1.3459183 1677:4.3771572 1690:3.3960705 1691:1.5745592 1698:1.4462214 1703:2.4384842 1708:2.0936298 1713:1.6440657 1718:1.8870082 1724:0.69968045 1731:1.7139834 1737:0.72967845 1739:2.4090528 1749:1.0574127 1756:4.9277411 1761:0.56110042 1763:0.31930619 1776:1.5913296 1784:0.19147053 1786:1.2302701 1790:1.1219169 1794:3.3809321 1797:1.4079714 1800:0.021211848 1817:0.28057155 1828:0.75276208 1831:1.4079194 1835:3.0458357 1840:4.8403792 1843:2.3292248 1849:0.47231701 1855:2.9041581 1859:6.8457232 1869:1.5435034 1873:1.229941 1880:0.3727296 1894:0.64541948 1898:0.58858061 1905:1.9034479 1909:3.0308077 1912:1.0436471 1920:3.7526047 1921:1.3420944 1922:0.64373362 1939:1.3945553 1942:1.4437788 1947:6.2703538 1953:4.2322049 1961:0.65588504 1963:2.3566029 1965:1.1098123 1973:0.68452859 1974:2.1779418 1994:3.2975836 1997:5.9342403 2003:1.4462841 2006:0.9724853 2010:2.4817805 2012:1.2906065 2013:2.2306445 2014:0.28604317 2015:1.3340554 2019:3.6619151 2023:1.7399285 2037:2.7362177 2042:1.9443481 2051:0.97719383 2053:0.10074052 2056:0.13275279 2061:0.81685448 2065:1.218102 2072:0.15077637 2073:5.1658874 2076:4.3245001 2105:5.1647706 2110:0.26387319 2111:1.2470678 2113:1.6334978 2120:4.6720085 2127:1.0383841 2138:2.4641945 2159:1.3848934 2162:2.2570424 2164:0.51911694 2166:2.6801803 2181:4.7282701 2195:0.44344422 2201:0.73045856 2225:2.5104527 2226:2.3360989 2229:3.5143142 2237:2.0041456 2240:2.3449271 2241:4.8544207 2243:2.6287484 2246:5.0489006 2248:0.89023685 2250:4.5922632 2258:0.22845027 2275:0.17160329 2281:1.1024467 2286:0.88978481 2290:7.4299874 2300:2.4016349 2307:3.860414 2309:2.5840297 2315:3.2958283 2317:3.1430326 2328:0.036711693 2331:1.0883757 2332:4.2743211 2350:4.1157184 2352:4.7281055 2360:3.1161122 2370:0.37312868 2386:0.59234059 2389:2.2140217 2403:0.48006558 2411:2.7700329 2435:0.12656027 2446:3.1945448 2447:0.30888242 2449:1.4112092 2455:5.9591255 2456:0.63516587 2462:3.1360998 2466:0.59232026 2467:1.0502121 2479:1.8320583 2490:0.63312054 2493:1.0645398 2509:2.4964898 2516:0.88911545 2526:0.84382343 2540:1.6182685 2552:3.8899841 2566:0.43237567 2577:0.94950616 2578:2.005676 2580:1.1153897 2583:6.5362563 2600:1.4229556 2609:0.2440998 2610:0.063208193 2616:1.1014022 2624:1.909265 2631:4.9479733 2639:1.3596866 2655:1.8523217 2656:3.930939 2661:2.374125 2668:2.4188302 2672:1.0603458 2690:0.21500504 2692:0.11002967 2693:1.2079246 2695:1.7502099 2699:3.8497598 2701:1.1907918 2703:2.9492223 2707:0.90472347 2710:2.3020644 2716:2.3020306 2718:4.1779466 2719:0.94127786 2731:2.5351949 2738:0.65516222 2739:5.1540599 2749:2.3008194 2751:1.9072801 2754:1.3080245 2756:1.5162842 2776:0.31123841 2777:0.72465515 2784:3.538739 2786:1.1482503 2793:2.880065 2796:3.0441456 2803:2.245398 2804:2.3396502 2805:1.032935 2811:0.42919663 2817:1.5350704 2828:1.2314054 2829:0.68885696 2830:1.089664 2831:3.0632498 2832:0.34773678 2836:1.3648787 2837:0.58142471 2838:1.9285084 2846:6.7462783 2857:0.69188708 2864:5.0634508 2867:4.0294118 2869:0.42188033 2878:0.26724631 2883:1.5578992 2891:3.5745099 2894:0.91821766 2903:1.7553517 2905:1.786413 2906:2.5192876 2907:0.35540792 2910:2.6889608 2912:0.059366941 2913:1.1972419 2917:2.4597244 2927:6.7928171 2930:0.52339721 2934:0.8634041 2937:4.5834036 2942:1.8588488 2948:1.7529254 2961:0.59793597 2962:2.9417729 2968:1.9600868 2973:0.67706072 2984:0.24409667 3013:2.1698186 3016:2.3429766 3019:4.154819 3033:0.76287073 3043:0.12355456 3046:1.4972829 3048:0.30460033 3053:0.53353578 3056:1.7764548 3060:2.9733191 3096:1.1966243 3101:0.14024568 3110:1.9939919 3116:2.2067096 3118:1.582495 3123:0.16149901 3127:1.1577021 3137:0.50904679 3139:0.017972395 3147:1.4315623 3149:4.5934496 3153:7.8084216 3159:2.2623069 3160:0.30322134 3163:3.1899157 3166:0.49796867 3169:0.02510801 3187:0.93802202 3188:2.3845317 3189:4.8124394 3195:1.9719555 3200:0.81337273 3207:0.76032197 3210:0.89809167 3212:0.51443297 3219:4.0538421 3225:0.76033336 3231:0.86391884 3234:1.7230122 3236:3.0511212 3241:2.7085161 3246:5.5240231 3252:3.7542746 3265:2.4162507 3273:4.973207 3274:1.7887797 3275:2.1895275 3279:1.4899932 3291:3.2758996 3295:2.2386999 3307:6.2345638 3310:0.0042214245 3319:0.73319358 3320:1.2019051 3328:2.8352633 3332:1.7629856 3337:0.20045471 3342:0.73027217 3344:1.7890111 3345:1.8739223 3346:1.35306 3347:0.18682569 3364:0.48992619 3368:0.0085248798 3371:0.29601434 3382:1.1333693 3393:3.2182999 3396:0.4133496 3402:2.1550455 3405:4.0473509 3413:1.8175778 3416:1.3498384 3425:0.7557646 3431:1.3338611 3433:4.5706315 3442:0.86713564 3461:2.5655644 3485:2.1751637 3486:2.4135387 3493:0.093735993 3498:0.15831074 3499:0.66801107 3501:1.1829056 3502:0.03723079 3506:0.95386362 3508:1.2214835 3515:3.7753713 3522:0.067003638 3523:2.8902574 3525:0.39204687 3533:0.48692203 3535:1.8939824 3552:2.1773062 3557:4.2419639 3560:0.15397672 3563:1.3773605 3566:3.5983868 3568:2.6258295 3574:0.95697099 3577:0.31988332 3580:0.036846697 3584:1.57648 3588:2.301156 3595:1.9784709 3596:2.3436522 3598:0.99100071 3610:1.1636117 3618:1.1503849 3619:3.3893151 3635:3.1733756 3636:1.3763719 3643:3.2897897 3655:1.9621507 3662:3.1189461 3664:3.9592106 3677:0.1672577 3679:2.3284984 3686:2.1546762 3692:0.12795213 3704:0.1540423 3710:1.3927882 3711:1.2113782 3716:0.78720027 3717:1.0093479 3718:4.3412652 3723:0.2993601 3724:1.3471732 3728:0.34471178 3729:0.30075061 3732:4.3394914 3737:0.31365541 3739:2.2520049 3742:1.9943113 3744:1.9689486 3748:3.1048942 3756:0.99127758 3765:5.9531808 3773:0.1803377 3785:0.5199939 3802:0.32276422 3803:0.67913163 3809:2.2417741 3824:1.6706905 3833:1.4180372 3840:0.93950629 3844:3.3776922 3864:7.3062778 3876:0.01193884 3877:0.75975716 3879:0.69431448 3882:5.3351684 3909:0.11642982 3912:4.3253455 3917:3.8475747 3923:0.74429983 3928:2.2771726 3929:0.83798575 3935:2.4739509 3947:1.1837955 3948:3.1899114 3950:4.7183781 3962:1.5069635 3966:0.30181688 3968:3.2411094 3976:3.2531717 3984:2.7745013 3985:0.10117206 3994:1.5268801 4000:3.0112274 4011:1.3680415 4013:1.5961424 4018:1.5876138 4019:0.3793368 4023:7.2208366 4030:0.14078441 4036:2.9853985 4037:5.7922664 4045:5.3682442 4057:2.037616 4077:2.2187548 4079:0.6959492 4083:2.4497995 4084:6.9929256 4095:2.9595225 4096:3.8922951 
